{"learner":{"attributes":{},"feature_names":[],"feature_types":[],"gradient_booster":{"model":{"gbtree_model_param":{"num_parallel_tree":"1","num_trees":"100"},"iteration_indptr":[0,1,2,3,4,5,6,7,8,9,10,11,12,13,14,15,16,17,18,19,20,21,22,23,24,25,26,27,28,29,30,31,32,33,34,35,36,37,38,39,40,41,42,43,44,45,46,47,48,49,50,51,52,53,54,55,56,57,58,59,60,61,62,63,64,65,66,67,68,69,70,71,72,73,74,75,76,77,78,79,80,81,82,83,84,85,86,87,88,89,90,91,92,93,94,95,96,97,98,99,100],"tree_info":[0,0,0,0,0,0,0,0,0,0,0,0,0,0,0,0,0,0,0,0,0,0,0,0,0,0,0,0,0,0,0,0,0,0,0,0,0,0,0,0,0,0,0,0,0,0,0,0,0,0,0,0,0,0,0,0,0,0,0,0,0,0,0,0,0,0,0,0,0,0,0,0,0,0,0,0,0,0,0,0,0,0,0,0,0,0,0,0,0,0,0,0,0,0,0,0,0,0,0,0],"trees":[{"base_weights":[-1.8942503E-2,4.771556E-1,-6.261011E-1,3.432067E-2,1.2131904E0,4.7405366E-2,-1.1250074E0,7.0731896E-1,-5.185315E-1,1.2747349E0,-1.0527335E0,6.606629E-1,-5.863499E-1,-1.9724176E0,-8.8696504E-1,-6.326589E-1,9.4407207E-1,-9.6093994E-1,2.2305866E-1,1.3677543E0,5.4369336E-1,-1.7224589E-1,1.6909961E-1,1.3887773E0,2.4987668E-1,-1.2956635E0,1.0010718E-1,-6.2668514E-1,-2.2900538E0,-1.5872376E0,-4.7174802E-1,7.9506856E-1,-1.0931296E0,1.1577715E0,-1.4842783E-1,-1.5073159E0,-3.8705248E-1,-7.1988124E-1,6.4282995E-1,-1.3069193E-1,1.3870894E0,-6.691866E-1,8.9971393E-1,9.471955E-2,-6.0068112E-2,-1.3069193E-1,1.4894844E0,-9.754939E-1,5.9082687E-1,-2.1451294E0,-7.792834E-1,3.5618302E-1,-2.0441642E-1,8.9097226E-1,-1.9846036E-1,-8.946366E-2,-2.3215158E-1,-1.9114271E-1,-1.9274302E0,-2.1314742E-1,-1.3706396E0,1.4535637E-1,-8.946366E-2,2.521016E-2,-1.5078275E-1,1.2336534E-1,-1.4388E-1,-1.22101985E-1,1.004348E-1,1.2851696E-1,-1.6288587E-1,-1.3812499E-1,3.5084137E-3,-1.1870494E-1,1.2792635E-1,1.2232577E-2,1.3172796E-1,1.4764738E-1,6.917187E-2,7.7543326E-2,-1.6897638E-1,-1.6774358E-2,1.347186E-1,1.5928239E-1,-3.8153753E-2,1.1948284E-1,-1.670944E-1,8.704681E-2,-9.484783E-2,-1.9447409E-2,-2.2689109E-1,-1.14995115E-1,9.6931994E-2,-3.8663752E-2,1.0078349E-1,-1.3069193E-1,1.4728624E-1,1.3041255E-1,-1.7722778E-1,4.2687844E-2,-2.0372434E-1,-7.588666E-2,3.767089E-2,-1.6124271E-1,7.0966E-2],"categories":[],"categories_nodes":[],"categories_segments":[],"categories_sizes":[],"default_left":[0,0,0,0,0,0,0,0,0,0,0,0,0,0,0,0,0,0,0,0,0,0,0,0,0,0,0,0,0,0,0,0,0,0,0,0,0,0,0,0,0,0,0,0,0,0,0,0,0,0,0,0,0,0,0,0,0,0,0,0,0,0,0,0,0,0,0,0,0,0,0,0,0,0,0,0,0,0,0,0,0,0,0,0,0,0,0,0,0,0,0,0,0,0,0,0,0,0,0,0,0,0,0,0,0],"id":0,"left_children":[1,3,5,7,9,11,13,15,17,19,21,23,25,27,29,31,33,35,37,39,41,-1,43,45,47,49,51,53,55,57,59,61,63,65,67,69,71,73,75,-1,77,79,81,-1,-1,-1,83,85,87,89,91,93,-1,95,-1,-1,-1,97,99,101,103,-1,-1,-1,-1,-1,-1,-1,-1,-1,-1,-1,-1,-1,-1,-1,-1,-1,-1,-1,-1,-1,-1,-1,-1,-1,-1,-1,-1,-1,-1,-1,-1,-1,-1,-1,-1,-1,-1,-1,-1,-1,-1,-1,-1],"loss_changes":[4.008406E2,2.3867389E2,2.0112175E2,1.7088554E2,3.9704254E1,9.972633E1,6.760007E1,6.630281E1,8.29529E1,1.7498688E1,6.6917286E0,3.8646305E1,6.1591526E1,3.0443115E1,7.7820206E1,2.170808E1,4.1359055E1,4.9003754E1,3.808235E1,1.4085999E1,1.4394702E1,0E0,2.773126E0,1.465255E1,3.5907276E1,2.5591095E1,3.6460808E1,3.3954636E1,5.5548096E-1,4.7201065E1,3.947047E1,1.0545517E1,1.3985756E1,3.0870285E1,3.8009365E1,2.947261E1,3.2983547E1,2.9301964E1,2.3111517E1,0E0,1.3653931E1,1.2842234E1,1.2224583E1,0E0,0E0,0E0,9.421577E0,3.0349966E1,2.9571688E1,5.0946045E0,2.7186491E1,2.8941816E1,0E0,1.2239954E1,0E0,0E0,0E0,5.1331696E1,2.166211E1,4.3427544E1,2.0274117E1,0E0,0E0,0E0,0E0,0E0,0E0,0E0,0E0,0E0,0E0,0E0,0E0,0E0,0E0,0E0,0E0,0E0,0E0,0E0,0E0,0E0,0E0,0E0,0E0,0E0,0E0,0E0,0E0,0E0,0E0,0E0,0E0,0E0,0E0,0E0,0E0,0E0,0E0,0E0,0E0,0E0,0E0,0E0,0E0],"parents":[2147483647,0,0,1,1,2,2,3,3,4,4,5,5,6,6,7,7,8,8,9,9,10,10,11,11,12,12,13,13,14,14,15,15,16,16,17,17,18,18,19,19,20,20,22,22,23,23,24,24,25,25,26,26,27,27,28,28,29,29,30,30,31,31,32,32,33,33,34,34,35,35,36,36,37,37,38,38,40,40,41,41,42,42,46,46,47,47,48,48,49,49,50,50,51,51,53,53,57,57,58,58,59,59,60,60],"right_children":[2,4,6,8,10,12,14,16,18,20,22,24,26,28,30,32,34,36,38,40,42,-1,44,46,48,50,52,54,56,58,60,62,64,66,68,70,72,74,76,-1,78,80,82,-1,-1,-1,84,86,88,90,92,94,-1,96,-1,-1,-1,98,100,102,104,-1,-1,-1,-1,-1,-1,-1,-1,-1,-1,-1,-1,-1,-1,-1,-1,-1,-1,-1,-1,-1,-1,-1,-1,-1,-1,-1,-1,-1,-1,-1,-1,-1,-1,-1,-1,-1,-1,-1,-1,-1,-1,-1,-1],"split_conditions":[1.62E-1,7.17E1,3.8289473E0,2.007481E-1,2.5335147E2,1.7412727E-1,3.2063491E0,2.225674E-1,5.126646E-1,1.8315547E2,4.522059E-1,1.249E0,1.0816832E0,-1.391E0,3.4722223E0,3.322034E0,2.2392572E-1,1.8458397E2,1.2120502E-1,2.4956284E0,1.41921E0,-1.7224589E-1,4.322581E0,6.62E1,3.6956522E-1,7.72E2,1.85E-1,7.5E1,1.0654528E0,2.5741947E-1,8.91E2,1.03402794E2,4.2835576E-3,6.09E2,1.0437971E2,2.7872583E-1,1.26E-1,1.1201696E0,3.6398676E-1,-1.3069193E-1,8.68E2,1.496063E-1,3.862069E0,9.471955E-2,-6.0068112E-2,-1.3069193E-1,4.1771227E-1,3.0361173E-1,1.0991561E0,2.2878228E-1,2.164552E0,2.4721265E-1,-2.0441642E-1,3.306011E-1,-1.9846036E-1,-8.946366E-2,-2.3215158E-1,4.366125E1,2.640264E-1,7.288136E-1,1.7819302E0,1.4535637E-1,-8.946366E-2,2.521016E-2,-1.5078275E-1,1.2336534E-1,-1.4388E-1,-1.22101985E-1,1.004348E-1,1.2851696E-1,-1.6288587E-1,-1.3812499E-1,3.5084137E-3,-1.1870494E-1,1.2792635E-1,1.2232577E-2,1.3172796E-1,1.4764738E-1,6.917187E-2,7.7543326E-2,-1.6897638E-1,-1.6774358E-2,1.347186E-1,1.5928239E-1,-3.8153753E-2,1.1948284E-1,-1.670944E-1,8.704681E-2,-9.484783E-2,-1.9447409E-2,-2.2689109E-1,-1.14995115E-1,9.6931994E-2,-3.8663752E-2,1.0078349E-1,-1.3069193E-1,1.4728624E-1,1.3041255E-1,-1.7722778E-1,4.2687844E-2,-2.0372434E-1,-7.588666E-2,3.767089E-2,-1.6124271E-1,7.0966E-2],"split_indices":[18,100,102,115,114,76,23,11,39,75,3,101,147,141,142,102,76,35,119,30,122,0,23,61,3,117,137,143,73,80,157,41,45,106,154,128,97,96,1,0,157,71,23,0,0,0,90,128,68,91,13,11,0,3,0,0,0,46,91,32,83,0,0,0,0,0,0,0,0,0,0,0,0,0,0,0,0,0,0,0,0,0,0,0,0,0,0,0,0,0,0,0,0,0,0,0,0,0,0,0,0,0,0,0,0],"split_type":[0,0,0,0,0,0,0,0,0,0,0,0,0,0,0,0,0,0,0,0,0,0,0,0,0,0,0,0,0,0,0,0,0,0,0,0,0,0,0,0,0,0,0,0,0,0,0,0,0,0,0,0,0,0,0,0,0,0,0,0,0,0,0,0,0,0,0,0,0,0,0,0,0,0,0,0,0,0,0,0,0,0,0,0,0,0,0,0,0,0,0,0,0,0,0,0,0,0,0,0,0,0,0,0,0],"sum_hessian":[1.328775E3,7.3138666E2,5.973884E2,4.5729938E2,2.7408725E2,2.5459662E2,3.427918E2,2.0611362E2,2.5118575E2,2.6726553E2,6.8217273E0,1.2936919E2,1.25227425E2,7.35772E1,2.692146E2,3.0697773E1,1.7541585E2,1.5714336E2,9.404238E1,2.3632413E2,3.0941406E1,4.141763E0,2.6799643E0,4.580303E1,8.356616E1,6.1151913E1,6.407551E1,1.4617988E1,5.8959217E1,9.915868E1,1.7005592E2,7.308994E0,2.3388779E1,1.4666714E2,2.8748709E1,7.966803E1,7.7475334E1,2.8748709E1,6.529368E1,1.2181656E0,2.3510596E2,6.8217273E0,2.4119678E1,1.2181656E0,1.4617987E0,1.2181656E0,4.458486E1,1.7785217E1,6.5780945E1,2.1926981E1,3.9224934E1,5.7984684E1,6.090828E0,7.0653605E0,7.5526266E0,1.949065E0,5.701015E1,1.9734283E1,7.94244E1,1.3302368E2,3.7032234E1,5.3599286E0,1.949065E0,5.603562E0,1.7785217E1,1.4301265E2,3.654497E0,1.486162E1,1.3887088E1,2.9235973E0,7.674443E1,2.2414248E1,5.5061085E1,2.3632412E1,5.1162953E0,3.75195E1,2.7774176E1,2.0733179E2,2.7774176E1,2.9235973E0,3.89813E0,7.308994E0,1.6810686E1,4.2392162E1,2.192698E0,4.141763E0,1.3643455E1,5.6035618E1,9.745325E0,1.4617987E0,2.0465181E1,3.264684E1,6.5780945E0,2.728691E1,3.0697773E1,1.2181656E0,5.8471947E0,1.0232591E1,9.501692E0,3.4108636E0,7.6013535E1,6.894817E1,6.407551E1,3.337774E1,3.654497E0],"tree_param":{"num_deleted":"0","num_feature":"158","num_nodes":"105","size_leaf_vector":"1"}},{"base_weights":[-5.384364E-3,4.4546178E-1,-5.1724154E-1,-6.8238944E-2,9.672927E-1,-9.9677837E-1,1.0987964E-1,2.2354107E-1,-9.185951E-1,1.1028256E0,-2.1008375E-1,-4.1195187E-1,-1.3558184E0,-3.4038767E-1,6.9776636E-1,-2.8999892E-1,6.8955696E-1,-1.0915062E-1,-1.3211484E0,1.1624259E0,-1.0760945E0,-1.3289746E0,7.106121E-1,-1.0662612E0,2.9368263E-1,-5.6025386E-1,-1.5695643E0,-5.4670507E-1,1.0168363E0,2.39587E-1,1.2588176E0,5.346899E-1,-8.771521E-1,1.099332E0,6.1978366E-2,-1.9688082E-1,2.6210922E-1,-3.9972758E-1,-1.746917E0,3.1926522E-1,1.2689031E0,9.125229E-2,-1.8665566E-1,7.75922E-1,-1.8525525E0,1.4055479E0,-3.3520043E-1,-1.3185537E0,6.709894E-1,8.438039E-1,-3.2510355E-1,-1.4265321E0,1.11188866E-1,1.223714E-1,-1.6131912E0,7.094973E-1,-7.400552E-1,1.3667642E0,-1.543494E-1,6.926493E-1,-8.536684E-1,-1.23510085E-1,1.4565059E0,8.294757E-2,-1.6949736E-1,-1.9162776E-1,-2.6713556E-2,-1.435025E-1,1.16911255E-1,-1.5704288E-1,3.968048E-2,1.20832406E-1,-3.378286E-2,3.611343E-2,-1.6088353E-1,-2.0247595E-1,-6.154384E-3,6.056403E-2,-1.8705913E-1,-6.876836E-2,1.2974386E-1,2.9629162E-3,1.0756903E-1,-2.1098049E-1,4.7782373E-2,1.553907E-1,-2.4647205E-3,1.1990332E-1,-1.13271035E-1,6.883807E-2,-1.4401077E-1,-1.4796035E-1,1.3225058E-1,-1.285181E-1,1.19025424E-1,4.676439E-2,-1.3078742E-1,-1.0897039E-2,-1.8520755E-1,9.9241E-2,-9.093476E-2,1.3708389E-2,-1.6606368E-1,-1.6172604E-1,1.2154412E-1,-1.4478414E-1,-3.77828E-2,1.5665907E-1,-5.9146196E-2,9.084325E-2,-7.7043645E-2,1.2672101E-1,-1.2930746E-1,9.60817E-2,-1.6959293E-1,1.5350522E-1,-3.7270334E-2],"categories":[],"categories_nodes":[],"categories_segments":[],"categories_sizes":[],"default_left":[0,0,0,0,0,0,0,0,0,0,0,0,0,0,0,0,0,0,0,0,0,0,0,0,0,0,0,0,0,0,0,0,0,0,0,0,0,0,0,0,0,0,0,0,0,0,0,0,0,0,0,0,0,0,0,0,0,0,0,0,0,0,0,0,0,0,0,0,0,0,0,0,0,0,0,0,0,0,0,0,0,0,0,0,0,0,0,0,0,0,0,0,0,0,0,0,0,0,0,0,0,0,0,0,0,0,0,0,0,0,0,0,0,0,0,0,0],"id":1,"left_children":[1,3,5,7,9,11,13,15,17,19,21,23,25,27,29,31,33,35,37,39,41,43,45,47,49,51,53,55,57,59,61,63,65,67,69,-1,71,73,75,77,79,-1,-1,81,83,85,87,89,91,93,95,97,99,-1,101,103,105,107,-1,109,111,113,115,-1,-1,-1,-1,-1,-1,-1,-1,-1,-1,-1,-1,-1,-1,-1,-1,-1,-1,-1,-1,-1,-1,-1,-1,-1,-1,-1,-1,-1,-1,-1,-1,-1,-1,-1,-1,-1,-1,-1,-1,-1,-1,-1,-1,-1,-1,-1,-1,-1,-1,-1,-1,-1,-1],"loss_changes":[3.072638E2,1.8983908E2,1.8762633E2,8.8952194E1,5.6282593E1,7.365732E1,7.199788E1,6.4124016E1,2.9694092E1,4.2178223E1,3.9163666E1,6.30521E1,3.6287018E1,4.3731388E1,3.000776E1,6.234204E1,3.6020058E1,2.2267513E1,2.3259148E1,2.7178497E1,1.5709505E1,2.0278568E1,1.573655E1,3.1882362E1,2.2796633E1,2.7985703E1,2.2900513E1,3.3191452E1,2.0651352E1,3.3350616E1,1.4599823E1,3.674208E1,4.70404E1,1.6681099E1,3.1500692E1,0E0,1.5817314E1,1.9529093E1,1.929483E1,2.3574839E1,1.6104156E1,0E0,0E0,8.876488E-1,9.392509E0,2.75671E0,1.2606088E1,1.613874E1,1.5451353E1,2.7568607E1,2.5433374E1,1.1551155E1,2.5974617E1,0E0,1.4304443E1,2.3685104E1,2.9460197E1,8.258652E0,0E0,1.5636875E1,2.011515E1,1.44581375E1,7.216362E0,0E0,0E0,0E0,0E0,0E0,0E0,0E0,0E0,0E0,0E0,0E0,0E0,0E0,0E0,0E0,0E0,0E0,0E0,0E0,0E0,0E0,0E0,0E0,0E0,0E0,0E0,0E0,0E0,0E0,0E0,0E0,0E0,0E0,0E0,0E0,0E0,0E0,0E0,0E0,0E0,0E0,0E0,0E0,0E0,0E0,0E0,0E0,0E0,0E0,0E0,0E0,0E0,0E0,0E0],"parents":[2147483647,0,0,1,1,2,2,3,3,4,4,5,5,6,6,7,7,8,8,9,9,10,10,11,11,12,12,13,13,14,14,15,15,16,16,17,17,18,18,19,19,20,20,21,21,22,22,23,23,24,24,25,25,26,26,27,27,28,28,29,29,30,30,31,31,32,32,33,33,34,34,36,36,37,37,38,38,39,39,40,40,43,43,44,44,45,45,46,46,47,47,48,48,49,49,50,50,51,51,52,52,54,54,55,55,56,56,57,57,59,59,60,60,61,61,62,62],"right_children":[2,4,6,8,10,12,14,16,18,20,22,24,26,28,30,32,34,36,38,40,42,44,46,48,50,52,54,56,58,60,62,64,66,68,70,-1,72,74,76,78,80,-1,-1,82,84,86,88,90,92,94,96,98,100,-1,102,104,106,108,-1,110,112,114,116,-1,-1,-1,-1,-1,-1,-1,-1,-1,-1,-1,-1,-1,-1,-1,-1,-1,-1,-1,-1,-1,-1,-1,-1,-1,-1,-1,-1,-1,-1,-1,-1,-1,-1,-1,-1,-1,-1,-1,-1,-1,-1,-1,-1,-1,-1,-1,-1,-1,-1,-1,-1,-1,-1],"split_conditions":[2.0008223E-1,3.880734E0,1.5108249E-1,3.32847E-1,1.727857E0,3.9534885E-1,6.769663E-1,1.0932896E-1,4.3186584E-1,6.09E2,1.0650542E2,2.0366491E-1,1.266E0,1.99E-1,1.55E2,7.05E1,1.00209496E2,7.8E-2,4.6078432E-1,-1.417E0,1.222E3,1.8706729E-1,1.244E3,7.16E1,2.4074338E-1,4.0710384E-1,1.57E2,8.812671E-1,2.9039392E2,1.51E2,2.8955445E-1,9.549178E-2,1.8371033E-2,3.4249473E-1,2.818868E0,-1.9688082E-1,5.6004684E-2,1.345E0,7.948718E-1,8.032787E-1,2.5738007E-1,9.125229E-2,-1.8665566E-1,9.827603E-2,1.5659584E2,7.237164E-1,1.46E2,3.5046395E-2,3.58E2,3.2631578E0,1.57802E0,4.1379312E-1,6.809291E-1,1.223714E-1,1.9221748E-1,1.6791259E0,1.247E3,9.72E2,-1.543494E-1,1.6647059E0,6.7483294E-1,6.7E-2,1.3910221E0,8.294757E-2,-1.6949736E-1,-1.9162776E-1,-2.6713556E-2,-1.435025E-1,1.16911255E-1,-1.5704288E-1,3.968048E-2,1.20832406E-1,-3.378286E-2,3.611343E-2,-1.6088353E-1,-2.0247595E-1,-6.154384E-3,6.056403E-2,-1.8705913E-1,-6.876836E-2,1.2974386E-1,2.9629162E-3,1.0756903E-1,-2.1098049E-1,4.7782373E-2,1.553907E-1,-2.4647205E-3,1.1990332E-1,-1.13271035E-1,6.883807E-2,-1.4401077E-1,-1.4796035E-1,1.3225058E-1,-1.285181E-1,1.19025424E-1,4.676439E-2,-1.3078742E-1,-1.0897039E-2,-1.8520755E-1,9.9241E-2,-9.093476E-2,1.3708389E-2,-1.6606368E-1,-1.6172604E-1,1.2154412E-1,-1.4478414E-1,-3.77828E-2,1.5665907E-1,-5.9146196E-2,9.084325E-2,-7.7043645E-2,1.2672101E-1,-1.2930746E-1,9.60817E-2,-1.6959293E-1,1.5350522E-1,-3.7270334E-2],"split_indices":[115,23,15,40,43,42,133,134,47,106,154,119,101,58,77,21,114,98,118,62,69,40,108,100,115,34,104,9,114,116,11,134,134,0,109,0,134,101,111,151,89,0,0,115,114,14,116,40,27,23,4,42,14,0,80,13,29,117,0,66,14,139,33,0,0,0,0,0,0,0,0,0,0,0,0,0,0,0,0,0,0,0,0,0,0,0,0,0,0,0,0,0,0,0,0,0,0,0,0,0,0,0,0,0,0,0,0,0,0,0,0,0,0,0,0,0,0],"split_type":[0,0,0,0,0,0,0,0,0,0,0,0,0,0,0,0,0,0,0,0,0,0,0,0,0,0,0,0,0,0,0,0,0,0,0,0,0,0,0,0,0,0,0,0,0,0,0,0,0,0,0,0,0,0,0,0,0,0,0,0,0,0,0,0,0,0,0,0,0,0,0,0,0,0,0,0,0,0,0,0,0,0,0,0,0,0,0,0,0,0,0,0,0,0,0,0,0,0,0,0,0,0,0,0,0,0,0,0,0,0,0,0,0,0,0,0,0],"sum_hessian":[1.3294803E3,7.069368E2,6.225435E2,3.566816E2,3.502552E2,3.5244904E2,2.7009445E2,2.6610944E2,9.0572174E1,3.1415482E2,3.61004E1,1.3488593E2,2.1756311E2,1.5318771E2,1.16906746E2,1.2677914E2,1.393303E2,3.0504871E1,6.0067303E1,3.0624457E2,7.910232E0,1.6096012E1,2.0004389E1,6.972313E1,6.516279E1,4.6841114E1,1.70722E2,1.3349219E2,1.9695526E1,6.513865E1,5.1768093E1,5.2761734E1,7.40174E1,8.383734E1,5.5492973E1,4.360397E0,2.6144474E1,1.9596552E1,4.047075E1,3.4785694E1,2.7145886E2,2.2060099E0,5.704222E0,3.1102347E0,1.2985777E1,1.1811648E1,8.19274E0,6.1092033E1,8.631092E0,3.4302814E1,3.0859976E1,1.996203E1,2.6879084E1,2.209449E0,1.6851254E2,1.7449926E1,1.1604226E2,1.773747E1,1.9580554E0,4.6312466E1,1.8826185E1,6.5240674E0,4.5244026E1,4.7155277E1,5.606459E0,2.65869E1,4.74305E1,1.7222495E0,8.211509E1,8.816906E0,4.6676067E1,9.751088E0,1.6393385E1,1.24582205E1,7.138331E0,3.4570286E1,5.900463E0,3.1402514E1,3.3831809E0,3.5700865E0,2.678888E2,1.2061887E0,1.904046E0,1.1780021E1,1.2057562E0,1.0623169E1,1.1884787E0,2.629907E0,5.5628333E0,3.222546E0,5.7869488E1,1.711286E0,6.9198065E0,4.421643E0,2.9881172E1,1.7371496E1,1.348848E1,5.179963E0,1.4782067E1,1.443886E1,1.2440225E1,4.3975253E0,1.6411502E2,2.7243845E0,1.4725541E1,3.8268723E1,7.777354E1,1.6276533E1,1.4609382E0,4.069035E1,5.6221185E0,2.9076993E0,1.5918485E1,4.091535E0,2.432532E0,4.3535423E1,1.7086015E0],"tree_param":{"num_deleted":"0","num_feature":"158","num_nodes":"117","size_leaf_vector":"1"}},{"base_weights":[-8.172299E-3,3.719231E-1,-5.811753E-1,6.518797E-1,-4.563711E-1,-8.476709E-1,2.0412989E-1,-1.02521576E-1,9.611651E-1,-8.7626226E-2,-1.1243044E0,-3.6975822E-1,-1.3070265E0,7.372728E-1,-3.1967244E-1,-4.5026582E-1,7.328135E-1,1.1375387E-1,1.1185746E0,-8.610165E-1,3.0156502E-1,-8.181444E-2,-1.6282622E0,-7.714556E-1,4.513052E-1,6.6129214E-1,-1.3698622E0,9.3864924E-1,-6.6725993E-1,8.401756E-2,-1.374358E0,-1.7635971E-1,-1.7288717E0,-1.7585663E-1,1.0387405E0,8.2735246E-1,-6.5701383E-1,8.344639E-1,1.3780447E0,-1.10442E0,1.3389076E-1,6.966977E-1,-6.1486965E-1,4.6480113E-1,-1.5859105E-1,-1.7586132E0,1.1726665E-1,-4.3245247E-1,-1.4299201E0,-9.7974724E-1,6.8842864E-1,-1.2314079E-1,1.2908006E-1,-8.293949E-1,-1.667815E0,1.1848538E0,-3.8018134E-1,-1.7016234E-1,4.9969277E-1,-6.737736E-1,7.730139E-1,-1.7208253E0,1.11571185E-1,-9.458734E-2,2.7488453E-2,-1.9632845E-1,6.74315E-2,1.4832477E-1,1.6110213E-2,1.1093106E-1,-1.6761695E-1,-1.03359975E-1,7.712994E-2,2.194446E-2,1.1919456E-1,1.5224513E-1,9.268733E-2,-1.3349506E-1,9.4798855E-2,9.547903E-2,-5.5134397E-2,1.11052096E-1,-9.653798E-2,-7.413448E-2,1.1984781E-1,1.0275047E-1,-1.8718325E-1,-1.0433727E-1,7.363282E-3,-1.6173957E-1,1.14481986E-1,1.1291907E-1,-1.8237838E-1,8.923565E-2,-7.3244415E-2,2.5419725E-2,-1.1440326E-1,1.0525987E-1,-1.7183688E-1,-3.851181E-2,1.2814803E-1,-1.2812199E-1,8.761198E-2,-8.399391E-2,1.1530544E-1,-1.2744349E-1,4.6342093E-2,1.2332312E-1,-9.854244E-2,-6.1629083E-2,-2.0327227E-1],"categories":[],"categories_nodes":[],"categories_segments":[],"categories_sizes":[],"default_left":[0,0,0,0,0,0,0,0,0,0,0,0,0,0,0,0,0,0,0,0,0,0,0,0,0,0,0,0,0,0,0,0,0,0,0,0,0,0,0,0,0,0,0,0,0,0,0,0,0,0,0,0,0,0,0,0,0,0,0,0,0,0,0,0,0,0,0,0,0,0,0,0,0,0,0,0,0,0,0,0,0,0,0,0,0,0,0,0,0,0,0,0,0,0,0,0,0,0,0,0,0,0,0,0,0,0,0,0,0,0,0],"id":2,"left_children":[1,3,5,7,9,11,13,15,17,19,21,23,25,27,29,31,33,35,37,39,41,43,45,47,49,51,53,55,57,59,61,63,65,-1,67,69,71,73,75,77,-1,79,81,83,-1,85,-1,87,89,91,93,-1,-1,95,97,99,101,-1,103,105,107,109,-1,-1,-1,-1,-1,-1,-1,-1,-1,-1,-1,-1,-1,-1,-1,-1,-1,-1,-1,-1,-1,-1,-1,-1,-1,-1,-1,-1,-1,-1,-1,-1,-1,-1,-1,-1,-1,-1,-1,-1,-1,-1,-1,-1,-1,-1,-1,-1,-1],"loss_changes":[2.8709476E2,1.8406873E2,1.1018869E2,1.3839537E2,4.935395E1,8.572385E1,3.765653E1,5.0655426E1,5.5960052E1,3.952465E1,3.7343597E1,6.4283646E1,2.5621735E1,1.9494556E1,2.919073E1,4.2752316E1,4.092923E1,3.7385086E1,2.4982513E1,2.500156E1,3.2120716E1,2.0715101E1,1.9599953E1,2.8520126E1,2.2498528E1,9.758867E0,2.9853973E1,1.9530033E1,1.1653099E1,2.6798199E1,1.8277805E1,3.5805756E1,1.3479088E1,0E0,1.783178E1,2.672335E1,1.8417515E1,3.7498222E1,1.0560272E1,2.0239113E1,0E0,2.0375568E1,1.7339266E1,1.7344208E1,0E0,1.6527847E1,0E0,2.7162426E1,2.305716E1,1.9066803E1,1.6810177E1,0E0,0E0,2.447174E1,1.886969E1,8.042053E0,1.2443375E1,0E0,5.3258595E0,1.732719E1,2.2925047E1,4.6168785E0,0E0,0E0,0E0,0E0,0E0,0E0,0E0,0E0,0E0,0E0,0E0,0E0,0E0,0E0,0E0,0E0,0E0,0E0,0E0,0E0,0E0,0E0,0E0,0E0,0E0,0E0,0E0,0E0,0E0,0E0,0E0,0E0,0E0,0E0,0E0,0E0,0E0,0E0,0E0,0E0,0E0,0E0,0E0,0E0,0E0,0E0,0E0,0E0,0E0],"parents":[2147483647,0,0,1,1,2,2,3,3,4,4,5,5,6,6,7,7,8,8,9,9,10,10,11,11,12,12,13,13,14,14,15,15,16,16,17,17,18,18,19,19,20,20,21,21,22,22,23,23,24,24,25,25,26,26,27,27,28,28,29,29,30,30,31,31,32,32,34,34,35,35,36,36,37,37,38,38,39,39,41,41,42,42,43,43,45,45,47,47,48,48,49,49,50,50,53,53,54,54,55,55,56,56,58,58,59,59,60,60,61,61],"right_children":[2,4,6,8,10,12,14,16,18,20,22,24,26,28,30,32,34,36,38,40,42,44,46,48,50,52,54,56,58,60,62,64,66,-1,68,70,72,74,76,78,-1,80,82,84,-1,86,-1,88,90,92,94,-1,-1,96,98,100,102,-1,104,106,108,110,-1,-1,-1,-1,-1,-1,-1,-1,-1,-1,-1,-1,-1,-1,-1,-1,-1,-1,-1,-1,-1,-1,-1,-1,-1,-1,-1,-1,-1,-1,-1,-1,-1,-1,-1,-1,-1,-1,-1,-1,-1,-1,-1,-1,-1,-1,-1,-1,-1],"split_conditions":[1.7341848E-1,8.4E1,2.3102865E-1,1.23647295E-1,1.72E-1,1.4875734E2,1.351E0,5.193687E-1,1.2250322E-1,1.29E-1,3.4795344E-1,2.1125834E-1,7.8999594E-2,2.0074258E0,4.390805E0,4.7284344E-1,6.7E-2,4.5953757E-1,3.264463E-1,2.5720197E-1,1.6432586E0,1.37E-1,1.4506729E2,4.287879E0,4.1E-2,6.9E1,8.55E2,3.843648E-1,2.5481793E-1,6.655949E-1,4.6411484E-1,4.9373433E-1,4.6E2,-1.7585663E-1,4.084507E-1,1.3971931E0,8.21E2,1.8566139E-1,2.113312E0,8.2E1,1.3389076E-1,1.2784091E0,4.5835396E1,9.611842E-1,-1.5859105E-1,3.8947368E-1,1.1726665E-1,8.2252525E-2,1.366E3,2.9321167E0,2.300306E0,-1.2314079E-1,1.2908006E-1,5.064516E-1,2.0474401E-1,4.1049382E-1,-1.322E0,-1.7016234E-1,3.5877863E-1,1.342399E0,2.4357198E2,1.9557127E0,1.11571185E-1,-9.458734E-2,2.7488453E-2,-1.9632845E-1,6.74315E-2,1.4832477E-1,1.6110213E-2,1.1093106E-1,-1.6761695E-1,-1.03359975E-1,7.712994E-2,2.194446E-2,1.1919456E-1,1.5224513E-1,9.268733E-2,-1.3349506E-1,9.4798855E-2,9.547903E-2,-5.5134397E-2,1.11052096E-1,-9.653798E-2,-7.413448E-2,1.1984781E-1,1.0275047E-1,-1.8718325E-1,-1.0433727E-1,7.363282E-3,-1.6173957E-1,1.14481986E-1,1.1291907E-1,-1.8237838E-1,8.923565E-2,-7.3244415E-2,2.5419725E-2,-1.1440326E-1,1.0525987E-1,-1.7183688E-1,-3.851181E-2,1.2814803E-1,-1.2812199E-1,8.761198E-2,-8.399391E-2,1.1530544E-1,-1.2744349E-1,4.6342093E-2,1.2332312E-1,-9.854244E-2,-6.1629083E-2,-2.0327227E-1],"split_indices":[76,103,36,155,18,114,101,39,36,97,90,155,45,145,63,113,98,95,12,6,83,19,75,63,60,143,117,12,155,133,126,5,27,0,42,112,38,155,53,64,0,28,41,127,0,79,0,124,29,109,132,0,0,44,90,3,141,0,12,152,114,92,0,0,0,0,0,0,0,0,0,0,0,0,0,0,0,0,0,0,0,0,0,0,0,0,0,0,0,0,0,0,0,0,0,0,0,0,0,0,0,0,0,0,0,0,0,0,0,0,0],"split_type":[0,0,0,0,0,0,0,0,0,0,0,0,0,0,0,0,0,0,0,0,0,0,0,0,0,0,0,0,0,0,0,0,0,0,0,0,0,0,0,0,0,0,0,0,0,0,0,0,0,0,0,0,0,0,0,0,0,0,0,0,0,0,0,0,0,0,0,0,0,0,0,0,0,0,0,0,0,0,0,0,0,0,0,0,0,0,0,0,0,0,0,0,0,0,0,0,0,0,0,0,0,0,0,0,0,0,0,0,0,0,0],"sum_hessian":[1.3161907E3,7.915051E2,5.246855E2,5.917212E2,1.9978394E2,3.9168625E2,1.3299927E2,1.7224757E2,4.1947363E2,1.2944992E2,7.033402E1,1.928502E2,1.9883603E2,6.5709984E1,6.728928E1,1.2194407E2,5.0303505E1,6.598227E1,3.5349136E2,4.2929417E1,8.65205E1,2.3299297E1,4.703472E1,1.2953627E2,6.3313946E1,5.8565392E0,1.9297949E2,5.7760246E1,7.949739E0,4.932866E1,1.7960629E1,1.0136693E2,2.0577143E1,4.9821362E0,4.5321365E1,3.4223637E1,3.1758629E1,1.7074619E2,1.827452E2,3.910117E1,3.8282478E0,6.0622215E1,2.5898281E1,1.7595686E1,5.7036123E0,4.5298717E1,1.7360039E0,8.660527E1,4.2930996E1,8.554611E0,5.4759335E1,1.2230717E0,4.6334677E0,6.9924515E1,1.2305497E2,4.8759262E1,9.000985E0,3.9713964E0,3.9783428E0,2.350206E1,2.5826597E1,1.6038029E1,1.9225993E0,3.706436E1,6.430257E1,1.8915161E1,1.6619813E0,2.9626211E1,1.5695155E1,3.1259903E1,2.9637344E0,2.535099E1,6.4076376E0,6.335784E1,1.0738834E2,1.3663722E2,4.6107975E1,3.546701E1,3.634157E0,5.0428642E1,1.0193574E1,4.006742E0,2.1891539E1,6.6510615E0,1.0944624E1,1.4535717E0,4.3845146E1,3.8757523E1,4.7847744E1,4.0363792E1,2.5672033E0,2.3485644E0,6.206047E0,4.82118E1,6.547533E0,1.5778043E1,5.4146477E1,1.8834035E0,1.2117157E2,2.6538775E0,4.6105385E1,5.230066E0,3.770919E0,1.2106004E0,2.7677424E0,1.5299988E1,8.202072E0,2.070609E1,5.120507E0,4.186863E0,1.1851166E1],"tree_param":{"num_deleted":"0","num_feature":"158","num_nodes":"111","size_leaf_vector":"1"}},{"base_weights":[-2.0056129E-2,3.2568833E-1,-5.4182625E-1,7.008878E-1,-2.6629063E-1,-8.4049493E-1,1.3658847E-1,-2.3151076E-1,8.771181E-1,-1.3123187E0,-2.108075E-2,-4.9712494E-1,-1.3006566E0,-3.8570467E-1,7.558955E-1,4.8854923E-1,-8.558689E-1,3.090818E-1,1.0605142E0,-1.6138656E0,1.5253879E-1,-4.4689015E-1,5.087414E-1,-8.9335245E-1,2.9199022E-1,-1.3451138E0,7.6504624E-1,8.3692867E-1,-7.166558E-1,3.7771887E-1,1.2937037E0,-1.446463E0,9.47359E-1,-1.3687701E0,5.498965E-2,8.112099E-1,-4.4668072E-1,1.0870976E0,-1.5968527E-1,-1.7360623E0,8.546046E-2,-1.4946865E-1,1.1368225E0,1.2573317E-1,-8.730218E-1,9.5621055E-1,-1.9827127E-1,-1.0978904E0,1.4381492E-1,-3.4403044E-1,1.1645195E0,-1.4860291E0,-7.167156E-1,1.09267615E-1,1.0535767E-3,1.340871E0,-2.861386E-1,-1.0522437E0,2.2046214E-1,1.1170057E0,-2.9466358E-1,1.3776814E-3,1.3786384E0,-1.306394E-2,-1.7494081E-1,-1.1356604E-1,1.2140582E-1,-1.6861807E-1,-1.2434153E-2,5.5619985E-2,-1.5009275E-1,1.03419654E-1,-1.0286053E-1,-1.2327756E-1,2.8108148E-2,-1.273797E-1,1.1152295E-1,-1.8234941E-1,6.0008533E-2,1.3578007E-1,-1.0692076E-3,4.2695496E-2,-1.7492624E-1,3.4870118E-2,-1.1478952E-1,-5.8784273E-2,1.10268965E-1,5.496784E-2,-1.1485702E-1,-1.2502211E-1,-4.9540782E-3,9.793579E-2,-9.059828E-2,8.5483916E-2,-7.566598E-2,-8.2537785E-2,1.4509125E-1,-1.58222E-1,-6.4363025E-2,-4.2763664E-3,-1.3367675E-1,2.0709382E-2,1.4606842E-1,-1.2991725E-1,1.1346678E-1,-1.22424714E-1,9.469604E-2,-8.3701625E-2,7.94237E-2,1.2766553E-1,-6.48282E-2,2.21892E-2,-1.6397731E-1,1.471298E-1,5.9139957E-3],"categories":[],"categories_nodes":[],"categories_segments":[],"categories_sizes":[],"default_left":[0,0,0,0,0,0,0,0,0,0,0,0,0,0,0,0,0,0,0,0,0,0,0,0,0,0,0,0,0,0,0,0,0,0,0,0,0,0,0,0,0,0,0,0,0,0,0,0,0,0,0,0,0,0,0,0,0,0,0,0,0,0,0,0,0,0,0,0,0,0,0,0,0,0,0,0,0,0,0,0,0,0,0,0,0,0,0,0,0,0,0,0,0,0,0,0,0,0,0,0,0,0,0,0,0,0,0,0,0,0,0,0,0,0,0],"id":3,"left_children":[1,3,5,7,9,11,13,15,17,19,21,23,25,27,29,31,33,35,37,39,41,43,45,47,49,51,53,55,57,59,61,63,65,67,69,71,73,75,-1,77,-1,-1,79,81,83,85,87,89,91,93,95,97,99,-1,-1,101,103,105,107,109,111,-1,113,-1,-1,-1,-1,-1,-1,-1,-1,-1,-1,-1,-1,-1,-1,-1,-1,-1,-1,-1,-1,-1,-1,-1,-1,-1,-1,-1,-1,-1,-1,-1,-1,-1,-1,-1,-1,-1,-1,-1,-1,-1,-1,-1,-1,-1,-1,-1,-1,-1,-1,-1,-1],"loss_changes":[2.3561455E2,1.7467186E2,1.0558241E2,7.925647E1,7.832587E1,5.647998E1,5.2034863E1,3.5156147E1,4.184613E1,2.58637E1,5.628561E1,6.5504776E1,1.5160706E1,3.5982166E1,1.4465313E1,3.3793488E1,1.9579025E1,3.839334E1,2.3325409E1,1.6016747E1,1.923236E1,3.385572E1,3.5365055E1,2.9679749E1,3.952744E1,1.2306213E1,9.474814E-1,1.1187221E1,2.2042965E1,2.2489876E1,3.2361603E0,2.7194529E0,1.811452E1,1.0355274E1,1.3312891E1,2.5911522E1,2.3601654E1,2.1557129E1,0E0,1.0538498E1,0E0,0E0,1.8750429E0,3.456633E1,2.7069683E1,1.6087288E1,3.1850838E1,1.851944E1,2.1770002E1,2.1201935E1,1.826807E1,8.900665E0,1.2308255E1,0E0,0E0,1.5112858E0,1.1170319E1,1.8779308E1,1.2262429E1,6.870878E0,1.7135836E1,0E0,3.3449326E0,0E0,0E0,0E0,0E0,0E0,0E0,0E0,0E0,0E0,0E0,0E0,0E0,0E0,0E0,0E0,0E0,0E0,0E0,0E0,0E0,0E0,0E0,0E0,0E0,0E0,0E0,0E0,0E0,0E0,0E0,0E0,0E0,0E0,0E0,0E0,0E0,0E0,0E0,0E0,0E0,0E0,0E0,0E0,0E0,0E0,0E0,0E0,0E0,0E0,0E0,0E0,0E0],"parents":[2147483647,0,0,1,1,2,2,3,3,4,4,5,5,6,6,7,7,8,8,9,9,10,10,11,11,12,12,13,13,14,14,15,15,16,16,17,17,18,18,19,19,20,20,21,21,22,22,23,23,24,24,25,25,26,26,27,27,28,28,29,29,30,30,31,31,32,32,33,33,34,34,35,35,36,36,37,37,39,39,42,42,43,43,44,44,45,45,46,46,47,47,48,48,49,49,50,50,51,51,52,52,55,55,56,56,57,57,58,58,59,59,60,60,62,62],"right_children":[2,4,6,8,10,12,14,16,18,20,22,24,26,28,30,32,34,36,38,40,42,44,46,48,50,52,54,56,58,60,62,64,66,68,70,72,74,76,-1,78,-1,-1,80,82,84,86,88,90,92,94,96,98,100,-1,-1,102,104,106,108,110,112,-1,114,-1,-1,-1,-1,-1,-1,-1,-1,-1,-1,-1,-1,-1,-1,-1,-1,-1,-1,-1,-1,-1,-1,-1,-1,-1,-1,-1,-1,-1,-1,-1,-1,-1,-1,-1,-1,-1,-1,-1,-1,-1,-1,-1,-1,-1,-1,-1,-1,-1,-1,-1,-1],"split_conditions":[1.7352784E-1,2.1797407E-1,1.4811464E-1,1.3244624E-1,2.7953176E0,8.53E2,1.56E-1,8.09E2,3.5466666E0,4.017857E0,1.4457451E-1,4.7E2,2.02E-1,1.282E0,4.3781096E-1,1.47E2,8.55E2,7.26963E1,1.5045037E0,1.5289091E2,-3.0011425E-2,7.23E1,4.069364E-1,3.3574006E-1,1.1379353E-1,1.8287937E-1,2.1392682E0,1.7597402E0,5.1070666E-1,3.9444444E0,9.182548E-1,2.934662E-1,-7.1240425E-2,3.936709E0,1.4586568E-1,5.26E2,2.8402877E0,2.1E1,-1.5968527E-1,1.2039826E0,8.546046E-2,-1.4946865E-1,8.208955E-1,9.4E1,3.5E-1,4.1558442E-1,8.81E2,7.6E1,7.19E1,3.605442E-1,6.4705884E-1,4.1647058E0,2.9330212E-1,1.09267615E-1,1.0535767E-3,2.5441697E-1,3.1031692E-1,3.4931508E-1,7.083333E-1,5.47E2,4.7923875E-1,1.3776814E-3,4.920413E-1,-1.306394E-2,-1.7494081E-1,-1.1356604E-1,1.2140582E-1,-1.6861807E-1,-1.2434153E-2,5.5619985E-2,-1.5009275E-1,1.03419654E-1,-1.0286053E-1,-1.2327756E-1,2.8108148E-2,-1.273797E-1,1.1152295E-1,-1.8234941E-1,6.0008533E-2,1.3578007E-1,-1.0692076E-3,4.2695496E-2,-1.7492624E-1,3.4870118E-2,-1.1478952E-1,-5.8784273E-2,1.10268965E-1,5.496784E-2,-1.1485702E-1,-1.2502211E-1,-4.9540782E-3,9.793579E-2,-9.059828E-2,8.5483916E-2,-7.566598E-2,-8.2537785E-2,1.4509125E-1,-1.58222E-1,-6.4363025E-2,-4.2763664E-3,-1.3367675E-1,2.0709382E-2,1.4606842E-1,-1.2991725E-1,1.1346678E-1,-1.22424714E-1,9.469604E-2,-8.3701625E-2,7.94237E-2,1.2766553E-1,-6.48282E-2,2.21892E-2,-1.6397731E-1,1.471298E-1,5.9139957E-3],"split_indices":[76,115,15,119,30,157,97,117,23,23,155,146,97,101,126,27,78,81,73,120,134,140,74,131,6,71,53,26,39,63,9,10,85,102,76,106,109,143,0,96,0,0,111,103,42,82,157,24,21,82,32,23,80,0,0,131,40,131,72,146,135,0,90,0,0,0,0,0,0,0,0,0,0,0,0,0,0,0,0,0,0,0,0,0,0,0,0,0,0,0,0,0,0,0,0,0,0,0,0,0,0,0,0,0,0,0,0,0,0,0,0,0,0,0,0],"split_type":[0,0,0,0,0,0,0,0,0,0,0,0,0,0,0,0,0,0,0,0,0,0,0,0,0,0,0,0,0,0,0,0,0,0,0,0,0,0,0,0,0,0,0,0,0,0,0,0,0,0,0,0,0,0,0,0,0,0,0,0,0,0,0,0,0,0,0,0,0,0,0,0,0,0,0,0,0,0,0,0,0,0,0,0,0,0,0,0,0,0,0,0,0,0,0,0,0,0,0,0,0,0,0,0,0,0,0,0,0,0,0,0,0,0,0],"sum_hessian":[1.3040955E3,7.8457947E2,5.19516E2,4.8010336E2,3.044761E2,3.6054773E2,1.5896826E2,7.62685E1,4.0383487E2,5.6994488E1,2.4748163E2,2.0766763E2,1.5288011E2,8.6443375E1,7.2524895E1,3.5520695E1,4.0747803E1,9.921615E1,3.046187E2,4.718047E1,9.814018E0,1.3729578E2,1.1018585E2,1.3816211E2,6.950553E1,1.5000069E2,2.8794212E0,1.8088848E1,6.835452E1,4.3581516E1,2.8943378E1,6.3954587E0,2.9125237E1,2.5747023E1,1.5000781E1,5.9566704E1,3.9649445E1,3.0218665E2,2.432061E0,4.523777E1,1.9426999E0,3.476855E0,6.337163E0,5.8879784E1,7.841599E1,6.7262726E1,4.292313E1,1.1535467E2,2.2807438E1,4.0551598E1,2.895393E1,1.2141021E2,2.8590473E1,1.6951476E0,1.1842735E0,1.2352226E1,5.736623E0,5.0240303E1,1.8114222E1,2.0443048E1,2.3138468E1,1.873457E0,2.7069921E1,1.4647287E0,4.93073E0,2.935975E0,2.618926E1,2.0231647E1,5.5153756E0,1.1831882E1,3.1688983E0,5.3518154E1,6.04855E0,1.8727234E1,2.0922213E1,3.036975E0,2.991497E2,4.381732E1,1.4204472E0,5.160204E0,1.176959E0,5.1395313E1,7.48447E0,1.4352999E1,6.4062996E1,5.5670137E0,6.169571E1,2.425465E1,1.866848E1,1.0055145E2,1.4803219E1,1.2737027E1,1.0070412E1,1.0108954E1,3.0442642E1,3.4060745E0,2.5547855E1,1.08179344E2,1.3230868E1,1.4212008E1,1.4378465E1,1.4413538E0,1.0910872E1,3.3988523E0,2.3377705E0,4.6617184E1,3.623121E0,6.2100987E0,1.1904122E1,1.9001394E1,1.4416535E0,1.7321585E1,5.816882E0,2.5186218E1,1.8837028E0],"tree_param":{"num_deleted":"0","num_feature":"158","num_nodes":"115","size_leaf_vector":"1"}},{"base_weights":[1.2249941E-3,3.8141882E-1,-4.3710062E-1,2.1271504E-2,9.8584026E-1,-2.9051224E-2,-8.915958E-1,5.4066145E-1,-3.546868E-1,1.0500958E0,-3.6327827E-1,-5.472103E-1,4.378452E-1,-1.0984228E0,-2.8022945E-1,-6.658373E-1,7.254957E-1,-1.0154049E0,-1.01495616E-1,-7.7815735E-1,1.08651E0,3.921658E-1,-1.3202282E0,4.1265902E-1,-7.895495E-1,-3.8728538E-1,6.8073493E-1,-2.725376E-1,-1.2965667E0,1.1668235E0,-7.0913285E-1,9.256028E-1,-1.3699943E0,8.388644E-1,-1.5323299E-1,-1.3368055E0,-1.6742647E-1,2.8628367E-1,-6.394037E-1,9.4730124E-2,-1.6363387E-1,1.1099411E0,-8.591344E-2,-9.3094814E-1,1.14786364E-1,-1.6070184E-1,-1.6233807E-2,1.4173852E-1,-4.2542943E-1,-9.8112416E-1,8.231698E-1,9.0471834E-1,-8.7965083E-1,1.2994367E0,2.8956878E-1,-1.4744626E0,2.9602095E-1,-1.3958321E0,7.7061987E-1,-3.4874994E-1,1.4725292E-1,-1.5936285E-1,-1.296351E0,-2.557948E-2,1.3653807E-1,-1.724758E-1,1.1847277E-1,9.5500775E-2,-2.7579857E-2,-2.113395E-2,-1.5591182E-1,1.0377034E-1,-7.667429E-2,-9.583458E-2,4.57279E-2,1.2239753E-2,-1.1274909E-1,-4.456057E-3,1.1524426E-1,-3.5969918E-3,-1.3881482E-1,1.1285152E-1,-1.0615802E-1,2.7719757E-2,-1.11591674E-1,1.3081084E-1,-5.3008553E-2,1.3719003E-1,-4.5132454E-2,9.889353E-2,-1.15533665E-1,1.37464E-1,-9.6646085E-2,-2.1569645E-2,7.373937E-2,-1.7485145E-1,6.904247E-2,-1.09646164E-1,7.738688E-2,1.1145204E-1,-1.4298233E-1,1.5704823E-1,-1.2067033E-1,8.396216E-2,-1.2354869E-1,3.0172884E-2,-1.3583872E-1,-1.503019E-1,7.847199E-2],"categories":[],"categories_nodes":[],"categories_segments":[],"categories_sizes":[],"default_left":[0,0,0,0,0,0,0,0,0,0,0,0,0,0,0,0,0,0,0,0,0,0,0,0,0,0,0,0,0,0,0,0,0,0,0,0,0,0,0,0,0,0,0,0,0,0,0,0,0,0,0,0,0,0,0,0,0,0,0,0,0,0,0,0,0,0,0,0,0,0,0,0,0,0,0,0,0,0,0,0,0,0,0,0,0,0,0,0,0,0,0,0,0,0,0,0,0,0,0,0,0,0,0,0,0,0,0,0,0],"id":4,"left_children":[1,3,5,7,9,11,13,15,17,19,21,23,25,27,29,31,33,35,37,39,41,43,45,47,49,51,53,55,57,59,61,63,65,67,-1,69,71,73,75,-1,-1,77,-1,79,-1,-1,-1,-1,81,83,85,87,89,91,93,95,97,99,101,103,-1,105,107,-1,-1,-1,-1,-1,-1,-1,-1,-1,-1,-1,-1,-1,-1,-1,-1,-1,-1,-1,-1,-1,-1,-1,-1,-1,-1,-1,-1,-1,-1,-1,-1,-1,-1,-1,-1,-1,-1,-1,-1,-1,-1,-1,-1,-1,-1],"loss_changes":[2.1306406E2,1.4901636E2,1.1010958E2,8.416643E1,2.2540253E1,7.619328E1,3.5212234E1,4.084053E1,4.173114E1,1.7106232E1,9.455841E0,3.5043945E1,3.3472797E1,3.393927E1,4.573233E1,2.8794153E1,4.1577164E1,1.8627708E1,3.8126183E1,9.475873E0,1.1890228E1,8.747995E0,1.626441E0,2.6489906E1,3.7730774E1,2.517345E1,3.0693657E1,2.901077E1,3.570157E1,8.352888E0,1.8011606E1,4.573928E0,1.7842213E1,1.9751175E1,0E0,1.2184608E1,1.535214E1,2.308141E1,2.8586472E1,0E0,0E0,1.1703949E1,0E0,1.3184488E0,0E0,0E0,0E0,0E0,1.8527645E1,1.8504745E1,9.377459E0,7.6303587E0,1.5697504E1,9.753342E0,1.8247013E1,9.273041E0,2.0290745E1,1.5362946E1,1.5142391E1,4.8821015E0,0E0,1.7153479E1,1.2854889E1,0E0,0E0,0E0,0E0,0E0,0E0,0E0,0E0,0E0,0E0,0E0,0E0,0E0,0E0,0E0,0E0,0E0,0E0,0E0,0E0,0E0,0E0,0E0,0E0,0E0,0E0,0E0,0E0,0E0,0E0,0E0,0E0,0E0,0E0,0E0,0E0,0E0,0E0,0E0,0E0,0E0,0E0,0E0,0E0,0E0,0E0],"parents":[2147483647,0,0,1,1,2,2,3,3,4,4,5,5,6,6,7,7,8,8,9,9,10,10,11,11,12,12,13,13,14,14,15,15,16,16,17,17,18,18,19,19,20,20,21,21,22,22,23,23,24,24,25,25,26,26,27,27,28,28,29,29,30,30,31,31,32,32,33,33,35,35,36,36,37,37,38,38,41,41,43,43,48,48,49,49,50,50,51,51,52,52,53,53,54,54,55,55,56,56,57,57,58,58,59,59,61,61,62,62],"right_children":[2,4,6,8,10,12,14,16,18,20,22,24,26,28,30,32,34,36,38,40,42,44,46,48,50,52,54,56,58,60,62,64,66,68,-1,70,72,74,76,-1,-1,78,-1,80,-1,-1,-1,-1,82,84,86,88,90,92,94,96,98,100,102,104,-1,106,108,-1,-1,-1,-1,-1,-1,-1,-1,-1,-1,-1,-1,-1,-1,-1,-1,-1,-1,-1,-1,-1,-1,-1,-1,-1,-1,-1,-1,-1,-1,-1,-1,-1,-1,-1,-1,-1,-1,-1,-1,-1,-1,-1,-1,-1,-1],"split_conditions":[1.62E-1,7.17E1,3.952381E0,1.2445146E-1,9.43E2,1.289634E-1,1.377E0,-1.414E0,1.2120502E-1,6.8E1,2.933447E-1,1.3122849E-1,9.975787E-1,5.4E-2,8.351133E1,6.038846E-2,1.4537914E0,4.7362384E-1,3.069909E-1,1.8696549E0,4.8538303E-1,4.666141E-2,1.54E-1,5.9353825E1,1.7834184E0,7.04E1,3.428534E1,1.9859471E0,-1.19E0,6.896552E-1,2.055971E0,1.9523524E0,1.2227722E0,3.670754E-1,-1.5323299E-1,-1.2788592E1,1.8470585E-1,8.7439615E-1,4.224719E0,9.4730124E-2,-1.6363387E-1,3.433735E-1,-8.591344E-2,6.94E1,1.14786364E-1,-1.6070184E-1,-1.6233807E-2,1.4173852E-1,8.9E-2,8.2E-2,4.287879E0,1.313087E0,6.99E1,2.6958323E-1,4.226804E-1,1.3203642E-1,1.203E0,1.38E2,5.465465E-1,4.841629E-1,1.4725292E-1,1.85E-1,1.9303797E0,-2.557948E-2,1.3653807E-1,-1.724758E-1,1.1847277E-1,9.5500775E-2,-2.7579857E-2,-2.113395E-2,-1.5591182E-1,1.0377034E-1,-7.667429E-2,-9.583458E-2,4.57279E-2,1.2239753E-2,-1.1274909E-1,-4.456057E-3,1.1524426E-1,-3.5969918E-3,-1.3881482E-1,1.1285152E-1,-1.0615802E-1,2.7719757E-2,-1.11591674E-1,1.3081084E-1,-5.3008553E-2,1.3719003E-1,-4.5132454E-2,9.889353E-2,-1.15533665E-1,1.37464E-1,-9.6646085E-2,-2.1569645E-2,7.373937E-2,-1.7485145E-1,6.904247E-2,-1.09646164E-1,7.738688E-2,1.1145204E-1,-1.4298233E-1,1.5704823E-1,-1.2067033E-1,8.396216E-2,-1.2354869E-1,3.0172884E-2,-1.3583872E-1,-1.503019E-1,7.847199E-2],"split_indices":[18,100,102,94,117,36,22,62,119,61,50,76,147,139,81,94,73,34,52,92,40,55,18,81,122,21,46,13,62,32,132,92,107,40,0,125,50,147,102,0,0,126,0,21,0,0,0,0,138,138,63,73,140,15,8,15,22,104,79,0,0,137,145,0,0,0,0,0,0,0,0,0,0,0,0,0,0,0,0,0,0,0,0,0,0,0,0,0,0,0,0,0,0,0,0,0,0,0,0,0,0,0,0,0,0,0,0,0,0],"split_type":[0,0,0,0,0,0,0,0,0,0,0,0,0,0,0,0,0,0,0,0,0,0,0,0,0,0,0,0,0,0,0,0,0,0,0,0,0,0,0,0,0,0,0,0,0,0,0,0,0,0,0,0,0,0,0,0,0,0,0,0,0,0,0,0,0,0,0,0,0,0,0,0,0,0,0,0,0,0,0,0,0,0,0,0,0,0,0,0,0,0,0,0,0,0,0,0,0,0,0,0,0,0,0,0,0,0,0,0,0],"sum_hessian":[1.2765219E3,6.8366016E2,5.928617E2,4.2904617E2,2.5461398E2,3.1295346E2,2.7990823E2,1.799733E2,2.4907289E2,2.4325014E2,1.1363837E1,1.4825209E2,1.6470135E2,2.0855635E2,7.1351875E1,2.3563179E1,1.5641011E2,6.816961E1,1.8090329E2,4.352513E0,2.3889763E2,6.6803594E0,4.683478E0,2.9742746E1,1.1850935E2,3.732127E1,1.2738009E2,4.081413E1,1.6774222E2,1.5919955E1,5.5431915E1,7.1313615E0,1.6431818E1,1.4953044E2,6.879676E0,4.901536E1,1.915425E1,1.05393E2,7.551029E1,1.411236E0,2.941277E0,2.3647925E2,2.4183745E0,2.3441675E0,4.336192E0,3.4428551E0,1.2406226E0,1.3212265E1,1.6530481E1,1.0627643E2,1.2232925E1,1.00670595E1,2.7254211E1,4.8440506E1,7.893958E1,1.2595044E1,2.8219086E1,1.6036627E2,7.3759475E0,2.6485658E0,1.327139E1,2.9285446E1,2.614647E1,2.0480192E0,5.0833426E0,1.4713491E1,1.7183266E0,1.3554991E2,1.3980521E1,8.406712E0,4.060865E1,6.118813E0,1.3035436E1,1.2174383E1,9.321861E1,2.9779692E1,4.57306E1,8.394828E0,2.2808443E2,1.1573352E0,1.1868322E0,4.5767474E0,1.1953733E1,1.0180691E1,9.609573E1,9.030288E0,3.202638E0,7.478786E0,2.5882738E0,3.1714032E0,2.4082808E1,4.726515E1,1.1753573E0,3.7334602E1,4.160498E1,1.1350518E1,1.2445253E0,6.8789E0,2.1340187E1,1.7177432E0,1.5864853E2,5.398081E0,1.9778664E0,1.1544921E0,1.4940735E0,2.1692013E1,7.593434E0,2.4037144E1,2.1093268E0],"tree_param":{"num_deleted":"0","num_feature":"158","num_nodes":"109","size_leaf_vector":"1"}},{"base_weights":[1.7150784E-2,-2.653684E-1,5.0106174E-1,1.7754838E-1,-6.680296E-1,8.0003345E-1,-2.5498511E-2,4.943388E-1,-7.973186E-1,-2.1539013E-1,-9.783015E-1,2.2483855E-1,1.0418074E0,-6.674196E-1,2.9771385E-1,7.749883E-1,-2.5786227E-1,-1.1123114E0,1.3414262E-1,3.5498247E-1,-6.8544847E-1,-1.2598345E0,-5.511663E-1,-5.1756114E-1,5.8117527E-1,-7.0834494E-1,1.0849241E0,-1.4489855E-1,-1.2664145E0,-1.1594377E0,4.5002842E-1,2.6378188E-1,1.0140538E0,-7.3554885E-1,7.3912597E-1,-1.2923057E0,4.15054E-1,-1.414132E0,8.009433E-1,-3.6666247E-1,6.454566E-1,-4.586729E-2,-1.2330049E0,-1.344039E0,-9.332622E-3,-8.4869015E-1,4.706765E-1,-1.716824E-1,4.207931E-2,-6.631337E-1,8.590932E-1,8.604997E-2,-1.4720865E-1,-5.3885704E-1,1.1174188E0,-5.0254613E-1,9.2754745E-1,-1.3988603E0,4.3173157E-2,9.161977E-2,-1.5559496E0,-5.1352754E-3,8.7137836E-1,7.2241895E-2,-5.0360598E-2,1.3056152E-1,3.7754875E-2,-1.0731894E-1,2.2358457E-2,1.0757121E-1,-5.871463E-2,6.9310404E-2,-1.3966714E-1,1.4955603E-1,-1.11771636E-1,-1.6464274E-1,-3.4896713E-3,-8.934162E-2,1.15285076E-1,4.3919217E-2,-1.3575308E-1,8.316996E-2,-1.0247748E-1,9.452229E-2,-4.501666E-2,-1.4720024E-1,-8.773935E-3,-1.3747717E-1,9.621779E-2,-1.1556991E-1,1.1019989E-1,-1.1691711E-1,2.763372E-3,-1.1378616E-1,9.290989E-2,1.0237916E-1,-1.221334E-1,1.0453637E-1,-1.2165707E-1,-1.514789E-1,1.0415866E-1,-1.3317408E-1,9.4218E-2,4.6210583E-2,1.197988E-1,-1.1732825E-1,2.7683217E-2,-9.789625E-3,1.3053745E-1,-1.6125546E-1,2.1609273E-2,-1.6961895E-1,-3.0847697E-2,6.477905E-2,-6.739166E-2,1.4019972E-1,4.8243497E-2],"categories":[],"categories_nodes":[],"categories_segments":[],"categories_sizes":[],"default_left":[0,0,0,0,0,0,0,0,0,0,0,0,0,0,0,0,0,0,0,0,0,0,0,0,0,0,0,0,0,0,0,0,0,0,0,0,0,0,0,0,0,0,0,0,0,0,0,0,0,0,0,0,0,0,0,0,0,0,0,0,0,0,0,0,0,0,0,0,0,0,0,0,0,0,0,0,0,0,0,0,0,0,0,0,0,0,0,0,0,0,0,0,0,0,0,0,0,0,0,0,0,0,0,0,0,0,0,0,0,0,0,0,0,0,0,0,0],"id":5,"left_children":[1,3,5,7,9,11,13,15,17,19,21,23,25,27,29,31,33,35,37,39,41,43,45,47,49,51,53,55,57,59,61,63,65,67,69,71,73,75,77,79,81,83,85,87,89,91,93,-1,95,97,99,-1,-1,101,103,105,107,109,-1,-1,111,113,115,-1,-1,-1,-1,-1,-1,-1,-1,-1,-1,-1,-1,-1,-1,-1,-1,-1,-1,-1,-1,-1,-1,-1,-1,-1,-1,-1,-1,-1,-1,-1,-1,-1,-1,-1,-1,-1,-1,-1,-1,-1,-1,-1,-1,-1,-1,-1,-1,-1,-1,-1,-1,-1,-1],"loss_changes":[1.7204811E2,1.4183267E2,7.3046585E1,1.174951E2,5.827281E1,4.0917145E1,3.525486E1,6.074436E1,2.7547073E1,4.5993557E1,2.898227E1,2.3804745E1,1.6469086E1,1.7623194E1,2.5617485E1,2.5289223E1,3.8014908E1,1.9750076E1,2.64163E1,1.653518E1,3.2823612E1,1.5568085E1,3.0746546E1,1.9766205E1,2.1492792E1,7.9856863E0,1.1337341E1,1.2554048E1,6.536545E0,1.0462524E1,1.9775629E1,2.429121E1,2.5884277E1,1.7628576E1,1.2231599E1,1.3973328E1,1.5127636E1,2.4204092E0,1.1617432E1,1.8923706E1,1.8210089E1,1.8193844E1,1.3705612E1,1.1148041E1,1.4449223E1,2.1844334E1,1.812985E1,0E0,2.7275883E1,1.225021E1,2.3192287E1,0E0,0E0,6.734318E0,9.994888E0,1.3018547E1,3.3175707E0,8.874256E0,0E0,0E0,1.1544552E0,2.2510489E1,1.0373245E1,0E0,0E0,0E0,0E0,0E0,0E0,0E0,0E0,0E0,0E0,0E0,0E0,0E0,0E0,0E0,0E0,0E0,0E0,0E0,0E0,0E0,0E0,0E0,0E0,0E0,0E0,0E0,0E0,0E0,0E0,0E0,0E0,0E0,0E0,0E0,0E0,0E0,0E0,0E0,0E0,0E0,0E0,0E0,0E0,0E0,0E0,0E0,0E0,0E0,0E0,0E0,0E0,0E0,0E0],"parents":[2147483647,0,0,1,1,2,2,3,3,4,4,5,5,6,6,7,7,8,8,9,9,10,10,11,11,12,12,13,13,14,14,15,15,16,16,17,17,18,18,19,19,20,20,21,21,22,22,23,23,24,24,25,25,26,26,27,27,28,28,29,29,30,30,31,31,32,32,33,33,34,34,35,35,36,36,37,37,38,38,39,39,40,40,41,41,42,42,43,43,44,44,45,45,46,46,48,48,49,49,50,50,53,53,54,54,55,55,56,56,57,57,60,60,61,61,62,62],"right_children":[2,4,6,8,10,12,14,16,18,20,22,24,26,28,30,32,34,36,38,40,42,44,46,48,50,52,54,56,58,60,62,64,66,68,70,72,74,76,78,80,82,84,86,88,90,92,94,-1,96,98,100,-1,-1,102,104,106,108,110,-1,-1,112,114,116,-1,-1,-1,-1,-1,-1,-1,-1,-1,-1,-1,-1,-1,-1,-1,-1,-1,-1,-1,-1,-1,-1,-1,-1,-1,-1,-1,-1,-1,-1,-1,-1,-1,-1,-1,-1,-1,-1,-1,-1,-1,-1,-1,-1,-1,-1,-1,-1,-1,-1,-1,-1,-1,-1],"split_conditions":[2.2353812E-1,2.5099868E-1,7.9E1,2.2966368E-1,-1.282E0,4.030303E-1,-1.331E0,6.8E-2,3.8513513E0,1.0614944E-1,3.8115942E0,1.53E-1,8.062287E-1,1.5981201E0,8.4792715E-1,3.859275E-1,1.424E0,1.0580625E2,1.0262295E0,7.1E1,1.52E2,7.8E1,7.6785713E-1,1.4393258E0,-5.449665E-2,4.4949496E-1,6E-2,1.469329E-1,1.4192584E0,4.1783217E-1,1.59E2,1.05E-1,8.09E2,-1.332E0,3.7435896E0,1.1958763E-1,4.9590164E-1,4.8258707E-1,4.1379312E-1,1.5503913E0,9.1E1,2.9280397E-1,1.0745476E2,2.18E-1,1.756374E-1,9.601577E1,1.32E-1,-1.716824E-1,1.04E-1,9.3895346E-1,4.2794278E-1,8.604997E-2,-1.4720865E-1,2.8639948E-1,6.96E1,3.4219268E-1,8.396708E-1,6.67E2,4.3173157E-2,9.161977E-2,1.2077922E0,4.67E2,3.8191244E-1,7.2241895E-2,-5.0360598E-2,1.3056152E-1,3.7754875E-2,-1.0731894E-1,2.2358457E-2,1.0757121E-1,-5.871463E-2,6.9310404E-2,-1.3966714E-1,1.4955603E-1,-1.11771636E-1,-1.6464274E-1,-3.4896713E-3,-8.934162E-2,1.15285076E-1,4.3919217E-2,-1.3575308E-1,8.316996E-2,-1.0247748E-1,9.452229E-2,-4.501666E-2,-1.4720024E-1,-8.773935E-3,-1.3747717E-1,9.621779E-2,-1.1556991E-1,1.1019989E-1,-1.1691711E-1,2.763372E-3,-1.1378616E-1,9.290989E-2,1.0237916E-1,-1.221334E-1,1.0453637E-1,-1.2165707E-1,-1.514789E-1,1.0415866E-1,-1.3317408E-1,9.4218E-2,4.6210583E-2,1.197988E-1,-1.1732825E-1,2.7683217E-2,-9.789625E-3,1.3053745E-1,-1.6125546E-1,2.1609273E-2,-1.6961895E-1,-3.0847697E-2,6.477905E-2,-6.739166E-2,1.4019972E-1,4.8243497E-2],"split_indices":[36,80,103,76,141,153,62,139,23,55,142,58,9,83,127,3,22,81,107,143,116,143,32,122,134,79,98,134,152,56,116,138,117,62,142,150,56,42,42,4,103,128,2,58,71,2,97,0,98,26,34,0,0,1,100,128,9,27,0,0,107,67,11,0,0,0,0,0,0,0,0,0,0,0,0,0,0,0,0,0,0,0,0,0,0,0,0,0,0,0,0,0,0,0,0,0,0,0,0,0,0,0,0,0,0,0,0,0,0,0,0,0,0,0,0,0,0],"split_type":[0,0,0,0,0,0,0,0,0,0,0,0,0,0,0,0,0,0,0,0,0,0,0,0,0,0,0,0,0,0,0,0,0,0,0,0,0,0,0,0,0,0,0,0,0,0,0,0,0,0,0,0,0,0,0,0,0,0,0,0,0,0,0,0,0,0,0,0,0,0,0,0,0,0,0,0,0,0,0,0,0,0,0,0,0,0,0,0,0,0,0,0,0,0,0,0,0,0,0,0,0,0,0,0,0,0,0,0,0,0,0,0,0,0,0,0,0],"sum_hessian":[1.256479E3,7.936046E2,4.628744E2,3.7817786E2,4.1542673E2,2.949102E2,1.6796422E2,2.857984E2,9.237945E1,1.6964082E2,2.457859E2,8.784695E1,2.0706323E2,5.5892685E1,1.12071526E2,2.0811829E2,7.768012E1,6.8889046E1,2.3490404E1,7.675297E1,9.2887856E1,1.4696738E2,9.881852E1,2.834335E1,5.9503597E1,4.60758E0,2.0245566E2,3.051524E1,2.5377447E1,9.980331E0,1.02091194E2,6.6984726E1,1.4113358E2,5.269474E1,2.4985382E1,6.1764256E1,7.124793E0,6.7338953E0,1.6756508E1,2.1952518E1,5.4800446E1,4.334356E1,4.9544296E1,1.3762538E2,9.342004E0,7.666568E1,2.2152836E1,8.360267E0,1.9983082E1,1.0610705E1,4.8892895E1,1.467145E0,3.1404352E0,3.6662905E0,1.9878935E2,2.3282286E1,7.2329545E0,2.3704845E1,1.6726018E0,1.3905462E0,8.589786E0,4.955124E1,5.253996E1,4.1963444E1,2.5021278E1,9.6074066E1,4.5059505E1,3.8886677E1,1.3808062E1,2.0078667E1,4.9067144E0,2.802849E0,5.8961407E1,4.1931577E0,2.9316354E0,5.597432E0,1.1364632E0,2.617074E0,1.4139434E1,1.2413561E1,9.538958E0,4.97545E1,5.045946E0,1.2170687E1,3.1172874E1,4.0754276E1,8.790019E0,1.3621407E2,1.4113097E0,4.5788655E0,4.763138E0,5.589142E1,2.0774263E1,4.584469E0,1.7568367E1,1.1351933E1,8.63115E0,2.3786852E0,8.23202E0,2.9691796E0,4.5923714E1,2.4535632E0,1.2127272E0,2.2502222E1,1.7628714E2,1.2241654E1,1.104063E1,2.146939E0,5.086015E0,2.0936028E1,2.768817E0,7.3983665E0,1.1914189E0,2.5088715E1,2.4462524E1,2.112094E1,3.1419018E1],"tree_param":{"num_deleted":"0","num_feature":"158","num_nodes":"117","size_leaf_vector":"1"}},{"base_weights":[1.6843623E-2,3.362024E-1,-3.5320497E-1,5.221223E-2,8.485525E-1,6.360701E-2,-6.496329E-1,5.188016E-1,-2.713135E-1,9.1061866E-1,-3.569036E-1,5.913628E-1,-3.186747E-1,1.672787E-2,-8.159273E-1,-1.1227854E-1,8.11531E-1,-5.445573E-1,2.557995E-1,-8.3799565E-1,9.5206445E-1,-9.0046847E-1,7.44019E-1,1.0358388E0,1.4101999E-1,-6.223865E-1,6.1605215E-1,9.2296547E-1,-3.809536E-1,-5.151723E-1,-1.1676685E0,-4.9509388E-1,4.8798844E-1,8.92875E-1,-1.1207826E0,-8.67371E-1,6.2308647E-2,4.0212202E-1,-1.3931999E-1,5.9493568E-2,-1.5142012E-1,-7.469083E-2,9.790132E-1,-1.3442048E0,6.724169E-2,1.0232375E-1,-7.0469677E-3,-3.4491253E-1,1.1844769E0,4.8092368E-1,-8.294332E-1,-9.855218E-1,5.9799336E-2,-3.8362053E-1,1.2657328E0,1.3642477E0,-9.4530153E-1,1.2135708E-1,-6.247468E-1,-1.0017961E0,-4.8209846E-2,1.15298524E-1,-1.219196E0,5.2617677E-3,-1.5070134E-1,-1.122539E-1,9.509503E-2,3.887338E-2,1.15241684E-1,-1.3111675E-1,-2.4395958E-2,-1.3628651E-1,-4.4506397E-2,-1.1514544E-1,5.884943E-2,-7.661193E-2,5.6403365E-2,1.0154171E-1,-3.2808453E-2,-1.52407E-1,-2.3617994E-2,9.879354E-2,-1.4411674E-1,1.2706827E-1,-1.9164275E-2,1.2134644E-1,6.309422E-3,-1.345986E-1,1.0246688E-1,-1.09869674E-1,9.6847996E-2,1.0092111E-1,-6.5517075E-2,1.162156E-1,-8.2358375E-2,-2.5302067E-2,1.4103673E-1,2.7840445E-2,1.4193676E-1,-2.6499166E-3,-1.3553606E-1,-1.579817E-1,-1.6585568E-2,5.1528182E-2,-1.1319282E-1,-4.128707E-2,7.797248E-2,-1.3783741E-1,-5.7059754E-2],"categories":[],"categories_nodes":[],"categories_segments":[],"categories_sizes":[],"default_left":[0,0,0,0,0,0,0,0,0,0,0,0,0,0,0,0,0,0,0,0,0,0,0,0,0,0,0,0,0,0,0,0,0,0,0,0,0,0,0,0,0,0,0,0,0,0,0,0,0,0,0,0,0,0,0,0,0,0,0,0,0,0,0,0,0,0,0,0,0,0,0,0,0,0,0,0,0,0,0,0,0,0,0,0,0,0,0,0,0,0,0,0,0,0,0,0,0,0,0,0,0,0,0,0,0,0,0,0,0],"id":6,"left_children":[1,3,5,7,9,11,13,15,17,19,21,23,25,27,29,31,33,35,37,39,41,43,45,47,49,51,53,55,57,59,61,63,65,67,69,71,73,75,-1,-1,-1,-1,77,79,-1,-1,-1,81,83,85,87,89,91,93,95,97,99,-1,101,103,105,-1,107,-1,-1,-1,-1,-1,-1,-1,-1,-1,-1,-1,-1,-1,-1,-1,-1,-1,-1,-1,-1,-1,-1,-1,-1,-1,-1,-1,-1,-1,-1,-1,-1,-1,-1,-1,-1,-1,-1,-1,-1,-1,-1,-1,-1,-1,-1],"loss_changes":[1.4458174E2,9.5501335E1,7.006663E1,6.407692E1,1.784082E1,4.789432E1,3.672534E1,3.2193043E1,3.625865E1,1.6954163E1,7.9599996E0,1.9806526E1,3.9497093E1,2.4550306E1,2.7448288E1,1.3096591E1,1.9678703E1,3.247236E1,2.1382214E1,6.417531E0,1.0723251E1,6.911702E0,1.1123736E0,1.0672024E1,1.7113201E1,2.5943203E1,2.2756521E1,1.8413692E1,1.9174234E1,3.283827E1,1.5925644E1,1.9286152E1,1.7685398E1,1.4545174E1,5.554781E-1,2.201075E1,3.7971054E1,1.5571572E1,0E0,0E0,0E0,0E0,1.057605E1,1.0445261E0,0E0,0E0,0E0,9.656949E0,5.6262627E0,1.1603307E1,1.4319155E1,1.615644E1,2.5940348E1,1.0665123E1,4.9734077E0,6.349716E-1,1.6818719E0,0E0,1.8036716E1,1.456456E1,2.2936888E1,0E0,1.1527786E1,0E0,0E0,0E0,0E0,0E0,0E0,0E0,0E0,0E0,0E0,0E0,0E0,0E0,0E0,0E0,0E0,0E0,0E0,0E0,0E0,0E0,0E0,0E0,0E0,0E0,0E0,0E0,0E0,0E0,0E0,0E0,0E0,0E0,0E0,0E0,0E0,0E0,0E0,0E0,0E0,0E0,0E0,0E0,0E0,0E0,0E0],"parents":[2147483647,0,0,1,1,2,2,3,3,4,4,5,5,6,6,7,7,8,8,9,9,10,10,11,11,12,12,13,13,14,14,15,15,16,16,17,17,18,18,19,19,20,20,21,21,22,22,23,23,24,24,25,25,26,26,27,27,28,28,29,29,30,30,31,31,32,32,33,33,34,34,35,35,36,36,37,37,42,42,43,43,47,47,48,48,49,49,50,50,51,51,52,52,53,53,54,54,55,55,56,56,58,58,59,59,60,60,62,62],"right_children":[2,4,6,8,10,12,14,16,18,20,22,24,26,28,30,32,34,36,38,40,42,44,46,48,50,52,54,56,58,60,62,64,66,68,70,72,74,76,-1,-1,-1,-1,78,80,-1,-1,-1,82,84,86,88,90,92,94,96,98,100,-1,102,104,106,-1,108,-1,-1,-1,-1,-1,-1,-1,-1,-1,-1,-1,-1,-1,-1,-1,-1,-1,-1,-1,-1,-1,-1,-1,-1,-1,-1,-1,-1,-1,-1,-1,-1,-1,-1,-1,-1,-1,-1,-1,-1,-1,-1,-1,-1,-1,-1],"split_conditions":[1.62E-1,7.17E1,3.8289473E0,1.2445146E-1,9.43E2,1.0597714E-1,2.890207E-2,3.8727272E0,5.126646E-1,6.8E1,4.768145E-1,8.05E2,4.12E0,2.7156848E-1,3.317702E-1,2.1022205E0,1.4537914E0,1.56E2,1.77E2,1.8696549E0,3.119777E-1,7.627119E-1,-1.249E0,5.952381E-1,3.4728032E-1,1.49E2,2.4208806E-1,5.1994497E-1,1.9917725E1,3.59375E0,1.38E2,1.2624118E0,3.3481342E1,1.3122849E-1,1.08E-1,1.0107886E0,3.7262356E-1,2.2E1,-1.3931999E-1,5.9493568E-2,-1.5142012E-1,-7.469083E-2,1.4743277E0,4.4230768E-1,6.724169E-2,1.0232375E-1,-7.0469677E-3,1.74E-1,4.6153846E-1,2.7702704E-1,6.498955E1,1.8997822E0,9.6E-2,2.7638268E1,9.212653E-1,1.7426634E0,3.1438935E-1,1.2135708E-1,8.746269E-1,9.4646014E-2,1.0468472E0,1.15298524E-1,8.55E2,5.2617677E-3,-1.5070134E-1,-1.122539E-1,9.509503E-2,3.887338E-2,1.15241684E-1,-1.3111675E-1,-2.4395958E-2,-1.3628651E-1,-4.4506397E-2,-1.1514544E-1,5.884943E-2,-7.661193E-2,5.6403365E-2,1.0154171E-1,-3.2808453E-2,-1.52407E-1,-2.3617994E-2,9.879354E-2,-1.4411674E-1,1.2706827E-1,-1.9164275E-2,1.2134644E-1,6.309422E-3,-1.345986E-1,1.0246688E-1,-1.09869674E-1,9.6847996E-2,1.0092111E-1,-6.5517075E-2,1.162156E-1,-8.2358375E-2,-2.5302067E-2,1.4103673E-1,2.7840445E-2,1.4193676E-1,-2.6499166E-3,-1.3553606E-1,-1.579817E-1,-1.6585568E-2,5.1528182E-2,-1.1319282E-1,-4.128707E-2,7.797248E-2,-1.3783741E-1,-5.7059754E-2],"split_indices":[18,100,102,94,117,55,55,23,39,61,34,117,142,80,128,132,73,77,116,92,126,72,141,111,49,37,11,118,86,23,104,112,2,155,98,136,121,143,0,0,0,0,28,42,0,0,0,18,87,52,125,145,59,2,17,92,10,0,66,119,88,0,78,0,0,0,0,0,0,0,0,0,0,0,0,0,0,0,0,0,0,0,0,0,0,0,0,0,0,0,0,0,0,0,0,0,0,0,0,0,0,0,0,0,0,0,0,0,0],"split_type":[0,0,0,0,0,0,0,0,0,0,0,0,0,0,0,0,0,0,0,0,0,0,0,0,0,0,0,0,0,0,0,0,0,0,0,0,0,0,0,0,0,0,0,0,0,0,0,0,0,0,0,0,0,0,0,0,0,0,0,0,0,0,0,0,0,0,0,0,0,0,0,0,0,0,0,0,0,0,0,0,0,0,0,0,0,0,0,0,0,0,0,0,0,0,0,0,0,0,0,0,0,0,0,0,0,0,0,0,0],"sum_hessian":[1.2214158E3,6.556603E2,5.657555E2,4.2254822E2,2.3311206E2,2.354587E2,3.302968E2,1.727722E2,2.49776E2,2.2192998E2,1.1182078E1,9.867997E1,1.3677872E2,6.614514E1,2.6415167E2,5.4942005E1,1.178302E2,1.6448006E2,8.529594E1,4.6934247E0,2.1723656E2,7.6078763E0,3.574202E0,4.9009155E1,4.9670815E1,1.0348763E2,3.329109E1,1.9770718E1,4.6374428E1,1.4372485E2,1.204268E2,3.36544E1,2.1287605E1,1.1358651E2,4.2436914E0,1.0708724E2,5.739282E1,7.903866E1,6.2572837E0,1.5432804E0,3.1501443E0,2.974814E0,2.1426173E2,6.047241E0,1.560635E0,2.4708607E0,1.1033413E0,4.6347537E0,4.43744E1,3.7159897E1,1.2510916E1,6.7246765E1,3.624087E1,1.3274677E1,2.0016409E1,1.6211388E1,3.5593297E0,5.622527E0,4.07519E1,6.981988E1,7.3904976E1,2.1515365E0,1.1827527E2,2.2450724E1,1.1203675E1,4.434926E0,1.685268E1,3.9451862E1,7.413464E1,3.0796454E0,1.164046E0,4.8249176E1,5.883807E1,1.6997059E1,4.039576E1,9.166665E0,6.987199E1,2.0867314E2,5.5885935E0,4.8796463E0,1.1675948E0,2.1362581E0,2.4984958E0,4.1830578E1,2.543823E0,1.2805326E1,2.435457E1,9.999191E0,2.5117245E0,6.3978855E1,3.2679093E0,1.5391239E1,2.0849632E1,2.5774662E0,1.0697211E1,1.675302E0,1.8341106E1,1.0754913E0,1.5135896E1,1.4268559E0,2.132474E0,1.2432984E1,2.8318914E1,5.2820573E0,6.453782E1,5.165503E1,2.2249949E1,9.406484E1,2.4210426E1],"tree_param":{"num_deleted":"0","num_feature":"158","num_nodes":"109","size_leaf_vector":"1"}},{"base_weights":[-9.683773E-3,2.8183687E-1,-3.7585044E-1,5.0082225E-1,-3.783841E-1,-1.8517035E-1,-9.6263564E-1,9.351908E-1,2.8928623E-1,-6.8109494E-1,2.1661434E-1,-3.9930367E-1,3.5772765E-1,-1.0615042E0,2.902948E-1,-6.010388E-1,9.922905E-1,4.4148228E-1,-3.9015037E-1,-8.4022367E-1,2.83896E-1,5.706928E-1,-7.599192E-1,4.9330616E-1,-5.1905584E-1,8.3546257E-1,1.0966266E-2,-1.1153693E0,7.716837E-1,-1.11882165E-1,1.3000788E-1,9.018379E-2,-1.2442596E0,1.0725436E0,3.3568147E-1,5.9546536E-1,-2.3325627E-1,-1.0559301E0,9.985704E-3,-1.0687038E0,9.871775E-2,1.3407467E-1,-6.057491E-1,1.0463125E0,-3.1957778E-1,6.390091E-1,-1.2474033E0,9.467064E-1,-5.0301915E-1,-5.7763684E-1,1.2696534E-1,-1.04800604E-1,9.1665816E-1,-3.7944612E-1,7.324368E-1,-3.6501974E-1,-1.2413149E0,1.2086375E-1,-2.0802172E-2,-2.7323121E-2,-1.4450204E-1,5.200821E-2,1.1790093E-1,7.737044E-2,-8.36273E-2,2.1026237E-2,8.721842E-2,7.087404E-2,-6.976179E-2,8.863205E-2,-1.21996894E-1,3.9822146E-2,-9.932122E-2,-1.2316548E-1,-2.7534906E-2,-1.1099863E-1,7.173216E-2,9.544476E-2,-1.1912105E-1,1.2686022E-1,-2.9186402E-2,-1.03396796E-1,8.892208E-2,-6.1963607E-2,1.2461656E-1,2.8050995E-2,-1.5617646E-1,1.2520209E-1,-2.5544176E-2,-1.1188538E-1,1.1447444E-1,-3.1076122E-2,-9.314881E-2,1.0675054E-1,-1.9485604E-2,-7.375414E-2,2.7839798E-2,1.2258855E-1,-2.481229E-4,2.3217676E-2,-1.1841165E-1,-1.4192916E-1,-4.0403787E-2],"categories":[],"categories_nodes":[],"categories_segments":[],"categories_sizes":[],"default_left":[0,0,0,0,0,0,0,0,0,0,0,0,0,0,0,0,0,0,0,0,0,0,0,0,0,0,0,0,0,0,0,0,0,0,0,0,0,0,0,0,0,0,0,0,0,0,0,0,0,0,0,0,0,0,0,0,0,0,0,0,0,0,0,0,0,0,0,0,0,0,0,0,0,0,0,0,0,0,0,0,0,0,0,0,0,0,0,0,0,0,0,0,0,0,0,0,0,0,0,0,0,0,0],"id":7,"left_children":[1,3,5,7,9,11,13,15,17,19,21,23,25,27,29,31,33,35,37,39,41,43,45,47,49,51,53,55,57,-1,-1,-1,59,61,63,65,67,69,71,73,75,-1,77,79,81,83,85,87,89,91,-1,-1,93,95,97,99,101,-1,-1,-1,-1,-1,-1,-1,-1,-1,-1,-1,-1,-1,-1,-1,-1,-1,-1,-1,-1,-1,-1,-1,-1,-1,-1,-1,-1,-1,-1,-1,-1,-1,-1,-1,-1,-1,-1,-1,-1,-1,-1,-1,-1,-1,-1],"loss_changes":[1.2906972E2,9.7520744E1,5.9787247E1,4.6219376E1,3.0450752E1,4.7310562E1,1.6561356E1,1.5092331E1,3.550702E1,1.7399265E1,2.0312624E1,3.1408829E1,1.9090336E1,1.2890259E1,1.622637E1,7.4490466E0,8.055908E0,2.9192848E1,1.6811401E1,2.0740433E1,1.6389011E1,1.8442074E1,1.1522624E1,1.6281174E1,2.7710564E1,8.374073E0,1.9380089E1,1.076973E1,1.9930878E0,0E0,0E0,0E0,5.8059406E-1,7.7308044E0,1.03235235E1,2.4115623E1,2.3537027E1,8.62702E0,1.6123384E1,9.6729965E0,1.555639E1,0E0,9.982628E0,8.731115E0,1.4440158E1,4.3834176E0,6.2028694E0,9.272505E0,1.3047103E1,2.3316956E1,0E0,0E0,8.089455E0,1.0726758E1,8.762271E0,9.316961E0,1.4517578E1,0E0,0E0,0E0,0E0,0E0,0E0,0E0,0E0,0E0,0E0,0E0,0E0,0E0,0E0,0E0,0E0,0E0,0E0,0E0,0E0,0E0,0E0,0E0,0E0,0E0,0E0,0E0,0E0,0E0,0E0,0E0,0E0,0E0,0E0,0E0,0E0,0E0,0E0,0E0,0E0,0E0,0E0,0E0,0E0,0E0,0E0],"parents":[2147483647,0,0,1,1,2,2,3,3,4,4,5,5,6,6,7,7,8,8,9,9,10,10,11,11,12,12,13,13,14,14,15,15,16,16,17,17,18,18,19,19,20,20,21,21,22,22,23,23,24,24,25,25,26,26,27,27,28,28,32,32,33,33,34,34,35,35,36,36,37,37,38,38,39,39,40,40,42,42,43,43,44,44,45,45,46,46,47,47,48,48,49,49,52,52,53,53,54,54,55,55,56,56],"right_children":[2,4,6,8,10,12,14,16,18,20,22,24,26,28,30,32,34,36,38,40,42,44,46,48,50,52,54,56,58,-1,-1,-1,60,62,64,66,68,70,72,74,76,-1,78,80,82,84,86,88,90,92,-1,-1,94,96,98,100,102,-1,-1,-1,-1,-1,-1,-1,-1,-1,-1,-1,-1,-1,-1,-1,-1,-1,-1,-1,-1,-1,-1,-1,-1,-1,-1,-1,-1,-1,-1,-1,-1,-1,-1,-1,-1,-1,-1,-1,-1,-1,-1,-1,-1,-1,-1],"split_conditions":[1.63E-1,2.5910786E-1,8.91E2,1.261E0,1.38E-1,8.47E2,1.72E2,6.8E1,1.6653875E-1,9.49E2,3.2365146E-1,1.37E-1,2.2612895E-1,-1.19E0,3.1654677E-1,1.4057388E0,5.580866E-1,8.6E1,5.045372E-1,2.649327E-1,6.8E1,4.918864E-1,2.8778717E-1,4.4805196E-1,1.48E-1,2.9032257E-1,8.88E2,9.44586E-1,3.071161E-1,-1.11882165E-1,1.3000788E-1,9.018379E-2,1.513946E0,1.1729946E0,7.06E1,1.7906977E-1,2.9222223E-1,3.933923E1,1.2834868E-1,3.5432787E0,2.8289473E-1,1.3407467E-1,8.4E2,9.13E2,9.2040565E1,1.008707E0,4.7660312E-1,7.4E1,1.44E2,1.1304348E0,1.2696534E-1,-1.04800604E-1,8.2E-2,1.2351649E0,3.147942E-1,7.25E1,3.271028E-1,1.2086375E-1,-2.0802172E-2,-2.7323121E-2,-1.4450204E-1,5.200821E-2,1.1790093E-1,7.737044E-2,-8.36273E-2,2.1026237E-2,8.721842E-2,7.087404E-2,-6.976179E-2,8.863205E-2,-1.21996894E-1,3.9822146E-2,-9.932122E-2,-1.2316548E-1,-2.7534906E-2,-1.1099863E-1,7.173216E-2,9.544476E-2,-1.1912105E-1,1.2686022E-1,-2.9186402E-2,-1.03396796E-1,8.892208E-2,-6.1963607E-2,1.2461656E-1,2.8050995E-2,-1.5617646E-1,1.2520209E-1,-2.5544176E-2,-1.1188538E-1,1.1447444E-1,-3.1076122E-2,-9.314881E-2,1.0675054E-1,-1.9485604E-2,-7.375414E-2,2.7839798E-2,1.2258855E-1,-2.481229E-4,2.3217676E-2,-1.1841165E-1,-1.4192916E-1,-4.0403787E-2],"split_indices":[18,115,157,101,97,78,37,61,55,38,52,137,80,62,131,83,0,103,56,119,64,0,89,42,98,89,38,57,131,0,0,0,43,152,140,71,10,114,94,109,52,0,117,157,86,17,16,24,77,68,0,0,20,66,89,140,131,0,0,0,0,0,0,0,0,0,0,0,0,0,0,0,0,0,0,0,0,0,0,0,0,0,0,0,0,0,0,0,0,0,0,0,0,0,0,0,0,0,0,0,0,0,0],"split_type":[0,0,0,0,0,0,0,0,0,0,0,0,0,0,0,0,0,0,0,0,0,0,0,0,0,0,0,0,0,0,0,0,0,0,0,0,0,0,0,0,0,0,0,0,0,0,0,0,0,0,0,0,0,0,0,0,0,0,0,0,0,0,0,0,0,0,0,0,0,0,0,0,0,0,0,0,0,0,0,0,0,0,0,0,0,0,0,0,0,0,0,0,0,0,0,0,0,0,0,0,0,0,0],"sum_hessian":[1.2071467E3,6.722058E2,5.349409E2,5.0495972E2,1.672461E2,4.0473495E2,1.3020598E2,1.6425568E2,3.40704E2,1.10754196E2,5.6491898E1,2.904416E2,1.1429334E2,1.2082452E2,9.38146E0,5.5449953E0,1.5871068E2,2.7863834E2,6.2065693E1,9.518698E1,1.5567209E1,4.1764297E1,1.47276E1,3.3987312E1,2.5645428E2,4.7476036E1,6.681731E1,1.1775603E2,3.0684927E0,3.8712673E0,5.5101924E0,1.5414209E0,4.0035744E0,1.4086072E2,1.7849966E1,2.2696077E2,5.167757E1,2.2683712E1,3.938198E1,7.644646E1,1.8740528E1,6.883236E0,8.683973E0,2.7107218E1,1.4657081E1,3.7255614E0,1.1002039E1,2.3392038E1,1.0595272E1,2.4897725E2,7.4770446E0,1.4699876E0,4.6006046E1,4.3663536E1,2.3153769E1,1.7484762E1,1.0027126E2,1.960448E0,1.1080447E0,1.0904291E0,2.9131453E0,2.3710335E1,1.1715038E2,1.3240929E1,4.6090364E0,9.561746E1,1.3134329E2,1.688951E1,3.478806E1,1.4237008E0,2.126001E1,2.8828466E1,1.0553515E1,6.296193E1,1.3484525E1,6.075375E0,1.26651535E1,2.1975286E0,6.4864445E0,2.3290356E1,3.816861E0,9.303449E0,5.3536315E0,1.2056583E0,2.519903E0,1.8957361E0,9.106303E0,1.862124E1,4.7707977E0,7.9463806E0,2.6488914E0,1.4300255E2,1.059747E2,4.054337E1,5.462678E0,2.8194696E1,1.5468841E1,1.3452948E1,9.700821E0,1.0526514E1,6.958247E0,8.212017E1,1.8151096E1],"tree_param":{"num_deleted":"0","num_feature":"158","num_nodes":"103","size_leaf_vector":"1"}},{"base_weights":[1.1828031E-2,-2.224349E-1,4.240554E-1,1.2165061E-1,-6.091408E-1,1.0319297E-1,7.8028154E-1,3.2416233E-1,-5.9059274E-1,-8.3711904E-1,-2.366517E-1,2.2822386E-1,-8.782293E-1,9.154467E-1,-2.6383236E-1,-2.2813383E-2,7.659037E-1,-8.426523E-1,2.3068438E-1,-9.226136E-1,1.4108413E-1,-3.8721655E-2,-1.167387E0,5.283078E-1,-1.7397535E-1,8.994706E-2,-1.0507933E0,1.1856925E0,6.27684E-1,-1.1436584E0,8.6019444E-1,-7.249762E-1,2.1083915E-1,2.9578698E-1,1.0645827E0,-3.0265946E-2,-1.1596863E0,-5.8605146E-1,1.1020525E0,-3.4534976E-2,-1.0375433E0,-7.8847915E-1,7.8265804E-1,5.60371E-1,-4.602756E-1,-1.3857503E0,1.06019594E-1,-5.6354624E-1,6.4673024E-1,-4.5187706E-1,8.492585E-1,-1.4377037E0,1.34111E-1,-3.166842E-2,1.2157935E0,9.31491E-1,1.5027678E-2,4.2829338E-1,-1.5053897E0,1.2277519E-1,-1.0336602E-1,-1.14603125E-1,3.3313606E-2,3.562703E-2,-1.1104871E-1,6.3385E-2,-1.0503677E-1,-1.3702191E-1,1.14469364E-1,-6.6392645E-2,1.0632082E-1,-1.2405503E-1,1.07238494E-1,1.02732636E-1,-1.1316732E-1,1.4041366E-1,-7.973054E-2,-1.1235692E-1,5.918861E-2,-1.2125484E-1,-4.6197698E-2,9.4215505E-2,-1.3290642E-1,-6.517676E-2,1.3055374E-1,7.9889335E-2,-1.2827884E-1,5.566748E-2,-6.795158E-2,-1.4850073E-1,1.542285E-2,-1.1953556E-1,7.315932E-2,1.10178195E-1,2.6380425E-2,1.0388428E-1,-6.080575E-2,1.1988554E-1,-3.929725E-2,-1.5057355E-1,-3.491769E-2,1.0135516E-1,-7.538727E-2,3.1229531E-2,1.24734E-1,1.0741838E-1,-4.5031253E-2,5.852833E-2,-1.21611156E-1,-2.0539884E-2,7.8948885E-2,-4.893736E-2,-1.8680419E-1],"categories":[],"categories_nodes":[],"categories_segments":[],"categories_sizes":[],"default_left":[0,0,0,0,0,0,0,0,0,0,0,0,0,0,0,0,0,0,0,0,0,0,0,0,0,0,0,0,0,0,0,0,0,0,0,0,0,0,0,0,0,0,0,0,0,0,0,0,0,0,0,0,0,0,0,0,0,0,0,0,0,0,0,0,0,0,0,0,0,0,0,0,0,0,0,0,0,0,0,0,0,0,0,0,0,0,0,0,0,0,0,0,0,0,0,0,0,0,0,0,0,0,0,0,0,0,0,0,0,0,0,0,0],"id":8,"left_children":[1,3,5,7,9,11,13,15,17,19,21,23,25,27,29,31,33,35,37,39,41,43,45,47,49,-1,51,53,55,57,59,61,63,65,67,69,71,73,75,77,79,81,83,85,87,89,-1,91,93,95,97,99,101,-1,103,105,107,109,111,-1,-1,-1,-1,-1,-1,-1,-1,-1,-1,-1,-1,-1,-1,-1,-1,-1,-1,-1,-1,-1,-1,-1,-1,-1,-1,-1,-1,-1,-1,-1,-1,-1,-1,-1,-1,-1,-1,-1,-1,-1,-1,-1,-1,-1,-1,-1,-1,-1,-1,-1,-1,-1,-1],"loss_changes":[1.1380293E2,1.0006357E2,4.8727287E1,5.76669E1,2.986206E1,2.7909397E1,2.8778214E1,4.7671265E1,1.8529486E1,1.8461563E1,2.4970226E1,2.4362007E1,8.836237E0,1.3195618E1,2.467135E1,2.8880535E1,1.8894348E1,1.747496E1,1.6007278E1,2.0551895E1,1.1641282E1,2.8799063E1,1.3035728E1,1.52871895E1,2.5031088E1,0E0,1.11537075E1,4.5145416E0,1.6539867E1,8.528669E0,8.987022E0,1.9960115E1,2.5791359E1,2.5483185E1,1.7810814E1,1.464049E1,1.0152031E1,1.1545237E1,7.310627E0,1.7138117E1,1.7425797E1,8.780138E0,9.430159E0,2.174385E1,1.5290497E1,3.6054688E0,0E0,1.0552406E1,1.7933323E1,1.6653713E1,8.661688E0,8.152542E-1,6.074312E0,0E0,2.1678925E0,1.2203373E1,2.2124094E1,9.3401116E-1,3.3204346E0,0E0,0E0,0E0,0E0,0E0,0E0,0E0,0E0,0E0,0E0,0E0,0E0,0E0,0E0,0E0,0E0,0E0,0E0,0E0,0E0,0E0,0E0,0E0,0E0,0E0,0E0,0E0,0E0,0E0,0E0,0E0,0E0,0E0,0E0,0E0,0E0,0E0,0E0,0E0,0E0,0E0,0E0,0E0,0E0,0E0,0E0,0E0,0E0,0E0,0E0,0E0,0E0,0E0,0E0],"parents":[2147483647,0,0,1,1,2,2,3,3,4,4,5,5,6,6,7,7,8,8,9,9,10,10,11,11,12,12,13,13,14,14,15,15,16,16,17,17,18,18,19,19,20,20,21,21,22,22,23,23,24,24,26,26,27,27,28,28,29,29,30,30,31,31,32,32,33,33,34,34,35,35,36,36,37,37,38,38,39,39,40,40,41,41,42,42,43,43,44,44,45,45,47,47,48,48,49,49,50,50,51,51,52,52,54,54,55,55,56,56,57,57,58,58],"right_children":[2,4,6,8,10,12,14,16,18,20,22,24,26,28,30,32,34,36,38,40,42,44,46,48,50,-1,52,54,56,58,60,62,64,66,68,70,72,74,76,78,80,82,84,86,88,90,-1,92,94,96,98,100,102,-1,104,106,108,110,112,-1,-1,-1,-1,-1,-1,-1,-1,-1,-1,-1,-1,-1,-1,-1,-1,-1,-1,-1,-1,-1,-1,-1,-1,-1,-1,-1,-1,-1,-1,-1,-1,-1,-1,-1,-1,-1,-1,-1,-1,-1,-1,-1,-1,-1,-1,-1,-1,-1,-1,-1,-1,-1,-1],"split_conditions":[2.2353812E-1,2.624002E-1,1.57E-1,1.839669E2,1.373E0,4.329114E0,6.6E-2,5.282555E-1,1.462758E2,7.6E-2,9.6E2,3.3294117E-1,3.3809025E1,2.038149E0,1.254E3,9.32371E-2,1.292E0,4.490501E-1,2.0477161E0,6.5753424E-1,8.28E2,1.0532469E0,2.2150013E0,9.636431E-1,3.4606206E-1,8.994706E-2,7.68E2,8.481813E-1,9.7E-2,7.42E2,4.2442375E-1,5.435685E-1,8.1E-2,1.1122144E0,1.6341662E0,5.1551723E-1,1.8054078E0,1.8397305E0,5.6619716E-1,9.3305385E-1,7.16E1,1.8204898E0,9.123903E-1,5.1522666E-1,3.7198067E-1,1.9016528E-1,1.06019594E-1,1.27E-1,2.5000626E-1,6.6708076E-1,3.6206895E-1,5.1E2,4.8374513E-1,-3.166842E-2,1.29E-1,1.5383112E2,5.192532E-1,4.0186915E-1,2.781448E0,1.2277519E-1,-1.0336602E-1,-1.14603125E-1,3.3313606E-2,3.562703E-2,-1.1104871E-1,6.3385E-2,-1.0503677E-1,-1.3702191E-1,1.14469364E-1,-6.6392645E-2,1.0632082E-1,-1.2405503E-1,1.07238494E-1,1.02732636E-1,-1.1316732E-1,1.4041366E-1,-7.973054E-2,-1.1235692E-1,5.918861E-2,-1.2125484E-1,-4.6197698E-2,9.4215505E-2,-1.3290642E-1,-6.517676E-2,1.3055374E-1,7.9889335E-2,-1.2827884E-1,5.566748E-2,-6.795158E-2,-1.4850073E-1,1.542285E-2,-1.1953556E-1,7.315932E-2,1.10178195E-1,2.6380425E-2,1.0388428E-1,-6.080575E-2,1.1988554E-1,-3.929725E-2,-1.5057355E-1,-3.491769E-2,1.0135516E-1,-7.538727E-2,3.1229531E-2,1.24734E-1,1.0741838E-1,-4.5031253E-2,5.852833E-2,-1.21611156E-1,-2.0539884E-2,7.8948885E-2,-4.893736E-2,-1.8680419E-1],"split_indices":[36,80,97,75,22,63,20,123,35,99,117,128,41,53,148,36,22,95,132,111,78,96,13,17,49,0,25,136,19,157,90,0,139,96,13,135,122,132,0,48,100,53,48,90,126,124,0,97,50,93,91,146,123,0,58,81,84,87,149,0,0,0,0,0,0,0,0,0,0,0,0,0,0,0,0,0,0,0,0,0,0,0,0,0,0,0,0,0,0,0,0,0,0,0,0,0,0,0,0,0,0,0,0,0,0,0,0,0,0,0,0,0,0],"split_type":[0,0,0,0,0,0,0,0,0,0,0,0,0,0,0,0,0,0,0,0,0,0,0,0,0,0,0,0,0,0,0,0,0,0,0,0,0,0,0,0,0,0,0,0,0,0,0,0,0,0,0,0,0,0,0,0,0,0,0,0,0,0,0,0,0,0,0,0,0,0,0,0,0,0,0,0,0,0,0,0,0,0,0,0,0,0,0,0,0,0,0,0,0,0,0,0,0,0,0,0,0,0,0,0,0,0,0,0,0,0,0,0,0],"sum_hessian":[1.1764785E3,7.504621E2,4.2601648E2,3.9747754E2,3.5298453E2,2.24812E2,2.0120448E2,3.099068E2,8.757075E1,2.181938E2,1.3479073E2,2.0008862E2,2.4723364E1,1.7825218E2,2.2952303E1,1.7410246E2,1.3580434E2,6.698595E1,2.05848E1,2.0070877E2,1.7485037E1,1.1201189E2,2.2778833E1,1.1441166E2,8.567696E1,1.8148602E0,2.2908504E1,9.031475E1,8.793743E1,1.28649025E1,1.00874E1,4.294454E1,1.3115793E2,5.353355E1,8.227079E1,1.9110794E1,4.787515E1,1.0794511E1,9.790291E0,2.3147223E1,1.7756155E2,7.046513E0,1.0438524E1,4.6127853E1,6.588403E1,2.1089413E1,1.68942E0,1.0827099E1,1.0358456E2,6.7816864E1,1.7860106E1,1.7108624E1,5.7998805E0,1.5869598E0,8.872779E1,5.8438328E1,2.9499102E1,2.3721962E0,1.0492706E1,8.742402E0,1.3449988E0,3.0660643E1,1.2283896E1,1.1881138E2,1.2346548E1,4.3211006E1,1.0322543E1,2.1077006E0,8.0163086E1,1.2348028E1,6.7627664E0,4.663004E1,1.245109E0,2.5048711E0,8.289639E0,8.67181E0,1.1184804E0,8.162707E0,1.4984515E1,1.353122E2,4.224936E1,1.50037E0,5.546143E0,2.7227232E0,7.7158012E0,4.1344097E1,4.7837563E0,1.141167E1,5.4472366E1,1.984597E1,1.2434428E0,7.3288856E0,3.4982138E0,4.647661E1,5.7107952E1,5.895321E0,6.192154E1,1.3964922E1,3.8951836E0,1.5741517E1,1.3671066E0,2.842912E0,2.9569685E0,3.3612132E0,8.536658E1,5.3170288E1,5.268041E0,2.0519297E1,8.979804E0,1.0178266E0,1.3543695E0,3.3780637E0,7.114643E0],"tree_param":{"num_deleted":"0","num_feature":"158","num_nodes":"113","size_leaf_vector":"1"}},{"base_weights":[7.72991E-3,-1.7553419E-1,4.4697362E-1,5.3596884E-1,-3.1355897E-1,6.37973E-1,-1.8514113E-1,8.7568265E-1,-1.0488009E-1,-5.2715343E-1,3.0619511E-2,-8.5653126E-1,7.108793E-1,-4.5787317E-1,8.582161E-1,1.0338233E0,-2.491945E-1,3.2388473E-1,-1.3879771E0,4.2270463E-2,-6.429403E-1,-1.5468322E-1,8.4243524E-1,8.308541E-2,-1.1892358E0,8.538689E-1,1.288198E-1,-9.125369E-2,-1.2215803E0,-1.0417475E-1,1.2190287E0,-4.795586E-3,1.1258031E0,7.395235E-1,-1.2298226E0,-9.679967E-1,7.431938E-1,-1.4871691E-1,-2.1079466E-2,-7.125294E-1,5.5749494E-1,-2.9687613E-1,-9.1546375E-1,4.036943E-1,-4.336877E-1,1.0868396E0,2.3970716E-1,-1.5193637E-1,4.4405688E-2,9.336212E-1,-8.0718026E-2,8.0350846E-1,-3.449959E-1,-4.7394505E-1,9.659387E-1,6.6271946E-2,-1.413049E0,1.3219158E-1,-7.370189E-3,1.0002905E-1,-1.4061795E-1,1.19911134E-1,-4.504917E-2,-2.5331005E-2,1.1203015E-1,2.5617272E-2,-1.7485169E-1,8.319557E-2,-1.4752993E-1,-6.898201E-2,1.00810185E-1,2.0248685E-2,-1.2896734E-1,-9.309696E-2,7.980987E-2,2.8259585E-2,-5.916792E-2,-1.0061251E-1,-1.6863843E-2,-1.0603344E-1,7.0442624E-2,-2.10818E-2,-1.1336055E-1,1.17793165E-1,-8.267991E-2,-6.285663E-2,9.228439E-2,6.402675E-2,1.15171015E-1,7.758289E-2,-1.2649041E-1,1.1398517E-1,-1.4695401E-2,-7.707912E-2,7.379918E-2,-1.07517295E-1,2.5637483E-2,-3.579283E-2,1.23617046E-1,4.4459044E-3,-1.5059175E-1],"categories":[],"categories_nodes":[],"categories_segments":[],"categories_sizes":[],"default_left":[0,0,0,0,0,0,0,0,0,0,0,0,0,0,0,0,0,0,0,0,0,0,0,0,0,0,0,0,0,0,0,0,0,0,0,0,0,0,0,0,0,0,0,0,0,0,0,0,0,0,0,0,0,0,0,0,0,0,0,0,0,0,0,0,0,0,0,0,0,0,0,0,0,0,0,0,0,0,0,0,0,0,0,0,0,0,0,0,0,0,0,0,0,0,0,0,0,0,0,0,0],"id":9,"left_children":[1,3,5,7,9,11,13,15,17,19,21,23,25,27,29,31,33,35,37,39,41,43,45,-1,47,49,51,53,55,-1,57,59,61,63,65,67,69,-1,-1,71,73,75,77,79,81,83,85,-1,-1,87,89,91,93,95,97,-1,99,-1,-1,-1,-1,-1,-1,-1,-1,-1,-1,-1,-1,-1,-1,-1,-1,-1,-1,-1,-1,-1,-1,-1,-1,-1,-1,-1,-1,-1,-1,-1,-1,-1,-1,-1,-1,-1,-1,-1,-1,-1,-1,-1,-1],"loss_changes":[9.312011E1,8.033055E1,4.123449E1,2.9044796E1,5.0321114E1,2.9129456E1,2.310032E1,1.5738182E1,2.6288656E1,2.7870094E1,3.9691795E1,8.077898E0,2.0707672E1,1.7783928E1,1.2844825E1,7.3128204E0,1.2090552E1,2.0228443E1,1.0822372E0,2.8513426E1,3.28313E1,3.3663395E1,6.9617653E0,0E0,6.5843515E0,1.5028717E1,1.6422895E1,1.8366316E1,8.386583E0,0E0,2.0460434E0,1.1574281E1,8.660622E0,2.6907556E0,5.1999397E0,9.682252E0,1.1231789E1,0E0,0E0,1.5982037E1,1.6332165E1,2.6836496E1,1.30933075E1,3.2508366E1,2.2195435E1,7.00531E0,9.731144E0,0E0,0E0,1.1093674E1,1.7914465E1,6.9245167E0,1.4573112E1,1.4840593E1,4.769023E0,0E0,2.6474342E0,0E0,0E0,0E0,0E0,0E0,0E0,0E0,0E0,0E0,0E0,0E0,0E0,0E0,0E0,0E0,0E0,0E0,0E0,0E0,0E0,0E0,0E0,0E0,0E0,0E0,0E0,0E0,0E0,0E0,0E0,0E0,0E0,0E0,0E0,0E0,0E0,0E0,0E0,0E0,0E0,0E0,0E0,0E0,0E0],"parents":[2147483647,0,0,1,1,2,2,3,3,4,4,5,5,6,6,7,7,8,8,9,9,10,10,11,11,12,12,13,13,14,14,15,15,16,16,17,17,18,18,19,19,20,20,21,21,22,22,24,24,25,25,26,26,27,27,28,28,30,30,31,31,32,32,33,33,34,34,35,35,36,36,39,39,40,40,41,41,42,42,43,43,44,44,45,45,46,46,49,49,50,50,51,51,52,52,53,53,54,54,56,56],"right_children":[2,4,6,8,10,12,14,16,18,20,22,24,26,28,30,32,34,36,38,40,42,44,46,-1,48,50,52,54,56,-1,58,60,62,64,66,68,70,-1,-1,72,74,76,78,80,82,84,86,-1,-1,88,90,92,94,96,98,-1,100,-1,-1,-1,-1,-1,-1,-1,-1,-1,-1,-1,-1,-1,-1,-1,-1,-1,-1,-1,-1,-1,-1,-1,-1,-1,-1,-1,-1,-1,-1,-1,-1,-1,-1,-1,-1,-1,-1,-1,-1,-1,-1,-1,-1],"split_conditions":[-1.229E0,1.448469E-1,3.6362422E-1,1.1530398E0,8.39E2,1.621839E1,2.7117637E-1,8.54E2,4.91453E-1,1.253E0,8.4742645E1,8.410206E-2,5.55E2,4.43E2,1.8078361E-1,2.4452736E0,2.307363E-1,6.792453E-1,8.181818E-1,7.164179E-1,1.1088038E-1,4.2159384E-1,2.7919576E-1,8.308541E-2,4.6153846E-1,1.19E-1,3.6164384E0,1.3940277E2,7.947598E-1,-1.0417475E-1,2.0074258E0,2.591241E-1,8.2857144E-1,6.138822E-2,1.2307765E0,9.107662E-2,6.96E1,-1.4871691E-1,-2.1079466E-2,3.5822785E0,8.4666125E-2,3.8289473E0,4.2981175E-1,3.4285715E0,8E2,8.245614E-1,9.3E-2,-1.5193637E-1,4.4405688E-2,1.421E0,2.0941765E0,1.3E-1,2.411901E-1,2.895323E-1,6.956522E-1,6.6271946E-2,1.3333334E-1,1.3219158E-1,-7.370189E-3,1.0002905E-1,-1.4061795E-1,1.19911134E-1,-4.504917E-2,-2.5331005E-2,1.1203015E-1,2.5617272E-2,-1.7485169E-1,8.319557E-2,-1.4752993E-1,-6.898201E-2,1.00810185E-1,2.0248685E-2,-1.2896734E-1,-9.309696E-2,7.980987E-2,2.8259585E-2,-5.916792E-2,-1.0061251E-1,-1.6863843E-2,-1.0603344E-1,7.0442624E-2,-2.10818E-2,-1.1336055E-1,1.17793165E-1,-8.267991E-2,-6.285663E-2,9.228439E-2,6.402675E-2,1.15171015E-1,7.758289E-2,-1.2649041E-1,1.1398517E-1,-1.4695401E-2,-7.707912E-2,7.379918E-2,-1.07517295E-1,2.5637483E-2,-3.579283E-2,1.23617046E-1,4.4459044E-3,-1.5059175E-1],"split_indices":[62,80,80,68,38,130,6,157,118,101,125,40,106,67,129,70,50,151,151,32,55,113,40,0,3,19,63,2,66,0,145,91,151,80,33,134,100,0,0,63,1,102,129,23,104,111,98,0,0,22,132,138,94,89,111,0,150,0,0,0,0,0,0,0,0,0,0,0,0,0,0,0,0,0,0,0,0,0,0,0,0,0,0,0,0,0,0,0,0,0,0,0,0,0,0,0,0,0,0,0,0],"split_type":[0,0,0,0,0,0,0,0,0,0,0,0,0,0,0,0,0,0,0,0,0,0,0,0,0,0,0,0,0,0,0,0,0,0,0,0,0,0,0,0,0,0,0,0,0,0,0,0,0,0,0,0,0,0,0,0,0,0,0,0,0,0,0,0,0,0,0,0,0,0,0,0,0,0,0,0,0,0,0,0,0,0,0,0,0,0,0,0,0,0,0,0,0,0,0,0,0,0,0,0,0],"sum_hessian":[1.1548314E3,8.1527673E2,3.3955466E2,1.3199152E2,6.832852E2,2.607556E2,7.879903E1,8.602385E1,4.5967663E1,4.2129883E2,2.619864E2,1.1628799E1,2.4912682E2,6.2914444E1,1.5884588E1,7.54918E1,1.0532051E1,3.5014614E1,1.0953047E1,7.129832E1,3.5000052E2,2.1395833E2,4.8028053E1,1.6686409E0,9.960159E0,1.9962073E2,4.9506092E1,4.3264637E1,1.9649805E1,2.2339337E0,1.3650654E1,6.21875E0,6.927305E1,5.3668222E0,5.165229E0,8.259314E0,2.67553E1,9.858978E0,1.0940679E0,2.8769003E1,4.2529316E1,1.5511586E2,1.9488464E2,7.113915E1,1.4281918E2,3.3600113E1,1.4427942E1,8.3434925E0,1.6166669E0,1.8392651E2,1.5694207E1,2.0136684E1,2.9369406E1,3.2170856E1,1.1093781E1,1.5854714E0,1.8064335E1,1.2623394E1,1.0272604E0,3.7881E0,2.4306498E0,6.642321E1,2.8498394E0,1.5805314E0,3.786291E0,1.4674071E0,3.6978219E0,1.6752886E0,6.5840254E0,3.9240801E0,2.283122E1,1.137848E1,1.7390524E1,5.51878E0,3.7010536E1,5.2318592E1,1.02797264E2,1.7347798E2,2.1406673E1,1.1692359E1,5.944679E1,1.0931274E2,3.3506447E1,3.2440357E1,1.1597546E0,6.3882704E0,8.039672E0,8.0108086E1,1.03818436E2,9.307057E0,6.38715E0,1.4726212E1,5.410473E0,2.1287954E1,8.081452E0,1.7385904E1,1.4784949E1,1.8256049E0,9.268176E0,1.113289E0,1.6951046E1],"tree_param":{"num_deleted":"0","num_feature":"158","num_nodes":"101","size_leaf_vector":"1"}},{"base_weights":[4.2941603E-3,-2.0514596E-1,3.6710462E-1,-6.8033296E-3,-6.451042E-1,-8.042901E-2,5.961549E-1,2.8943962E-1,-3.4963894E-1,-1.0596615E0,-3.622679E-1,-2.913569E-1,6.728323E-1,7.300181E-1,-4.5916583E-2,-9.721311E-1,3.8929966E-1,4.6395817E-1,-5.196008E-1,5.430956E-1,-1.1771657E0,8.897078E-1,-5.4503316E-1,2.1132044E-1,-6.7946833E-1,-1.1549455E-1,8.740561E-1,9.48653E-1,3.0171636E-1,-4.2717403E-1,8.142672E-1,3.411521E-1,-1.5667212E0,2.6032507E-1,1.0827267E0,-3.7844303E-1,9.9392486E-1,6.881653E-1,-6.061198E-1,1.1697264E-1,-8.71162E-2,-3.3124736E-1,-1.2695584E0,-6.9671357E-1,1.3555385E0,1.0517111E0,-6.464402E-1,1.1739384E0,-2.3435843E-1,-9.1602755E-1,2.8779355E-1,-3.9412537E-1,1.1383624E0,1.0185611E0,1.2398952E-1,5.8944315E-1,-4.9278465E-1,5.338957E-1,-1.3544097E0,-8.9244656E-2,1.1853119E0,1.275394E-1,-1.5471648E-1,-5.959409E-3,-1.70409E-1,-3.3347916E-2,4.2080488E-2,1.2076582E-1,-8.896179E-2,1.1023565E-1,-9.4835505E-2,1.20702684E-1,-2.5569547E-2,-9.026379E-2,1.2812655E-1,1.6083103E-3,-7.650875E-2,-1.1382276E-1,6.642133E-2,-6.129105E-2,-1.3649914E-1,8.496399E-3,-9.862458E-2,1.5256694E-1,-3.4362175E-2,-5.196628E-2,1.4163636E-1,-1.1228453E-1,-3.133518E-2,1.358127E-1,1.1042111E-2,6.7753635E-2,-7.561801E-2,-1.15255475E-1,-4.2413827E-4,1.02728985E-1,-1.2626468E-1,-1.3166973E-1,8.4765784E-2,1.2590559E-1,-1.8962702E-2,1.1187448E-1,3.0710993E-2,-2.104104E-1,5.257674E-2,1.0771507E-1,-2.373029E-3,-1.15287684E-1,5.2644182E-2,1.08937375E-1,-3.0874271E-2,8.374904E-2,-1.6128743E-1,9.7386144E-2,-7.211785E-2,8.946201E-3,1.3114905E-1],"categories":[],"categories_nodes":[],"categories_segments":[],"categories_sizes":[],"default_left":[0,0,0,0,0,0,0,0,0,0,0,0,0,0,0,0,0,0,0,0,0,0,0,0,0,0,0,0,0,0,0,0,0,0,0,0,0,0,0,0,0,0,0,0,0,0,0,0,0,0,0,0,0,0,0,0,0,0,0,0,0,0,0,0,0,0,0,0,0,0,0,0,0,0,0,0,0,0,0,0,0,0,0,0,0,0,0,0,0,0,0,0,0,0,0,0,0,0,0,0,0,0,0,0,0,0,0,0,0,0,0,0,0,0,0,0,0],"id":10,"left_children":[1,3,5,7,9,11,13,15,17,19,21,23,25,27,29,31,33,35,37,39,41,43,45,47,49,-1,51,53,55,57,59,61,63,65,67,69,71,73,75,-1,-1,77,79,81,83,85,87,89,91,93,95,97,99,101,103,105,107,109,111,113,115,-1,-1,-1,-1,-1,-1,-1,-1,-1,-1,-1,-1,-1,-1,-1,-1,-1,-1,-1,-1,-1,-1,-1,-1,-1,-1,-1,-1,-1,-1,-1,-1,-1,-1,-1,-1,-1,-1,-1,-1,-1,-1,-1,-1,-1,-1,-1,-1,-1,-1,-1,-1,-1,-1,-1,-1],"loss_changes":[8.446E1,6.1490723E1,4.1748047E1,4.953633E1,2.5290619E1,2.2217144E1,2.3171257E1,3.3342903E1,3.150384E1,1.7266296E1,3.0616297E1,2.1404337E1,1.2272145E1,2.0578804E1,1.5887144E1,1.5744778E1,2.1467197E1,1.8053547E1,2.0008423E1,6.9697633E0,6.0329666E0,1.3621575E1,1.9386387E1,2.0972345E1,1.4389118E1,0E0,9.885756E0,8.351196E0,1.7839703E1,3.0564783E1,5.0995064E0,1.4131301E1,2.7113914E0,1.98054E1,1.039381E1,1.4560888E1,6.85446E0,1.3423211E1,1.7369576E1,0E0,0E0,8.374332E0,3.8061295E0,1.1145289E0,4.455755E0,4.907276E0,1.6984325E1,2.8733215E0,1.660043E1,1.0744003E1,1.6078312E1,7.5300694E0,4.0142994E0,9.308563E0,1.241269E1,1.7015694E1,1.4704933E1,8.368755E0,1.1166616E1,4.2403626E0,1.3524303E0,0E0,0E0,0E0,0E0,0E0,0E0,0E0,0E0,0E0,0E0,0E0,0E0,0E0,0E0,0E0,0E0,0E0,0E0,0E0,0E0,0E0,0E0,0E0,0E0,0E0,0E0,0E0,0E0,0E0,0E0,0E0,0E0,0E0,0E0,0E0,0E0,0E0,0E0,0E0,0E0,0E0,0E0,0E0,0E0,0E0,0E0,0E0,0E0,0E0,0E0,0E0,0E0,0E0,0E0,0E0,0E0],"parents":[2147483647,0,0,1,1,2,2,3,3,4,4,5,5,6,6,7,7,8,8,9,9,10,10,11,11,12,12,13,13,14,14,15,15,16,16,17,17,18,18,19,19,20,20,21,21,22,22,23,23,24,24,26,26,27,27,28,28,29,29,30,30,31,31,32,32,33,33,34,34,35,35,36,36,37,37,38,38,41,41,42,42,43,43,44,44,45,45,46,46,47,47,48,48,49,49,50,50,51,51,52,52,53,53,54,54,55,55,56,56,57,57,58,58,59,59,60,60],"right_children":[2,4,6,8,10,12,14,16,18,20,22,24,26,28,30,32,34,36,38,40,42,44,46,48,50,-1,52,54,56,58,60,62,64,66,68,70,72,74,76,-1,-1,78,80,82,84,86,88,90,92,94,96,98,100,102,104,106,108,110,112,114,116,-1,-1,-1,-1,-1,-1,-1,-1,-1,-1,-1,-1,-1,-1,-1,-1,-1,-1,-1,-1,-1,-1,-1,-1,-1,-1,-1,-1,-1,-1,-1,-1,-1,-1,-1,-1,-1,-1,-1,-1,-1,-1,-1,-1,-1,-1,-1,-1,-1,-1,-1,-1,-1,-1,-1,-1],"split_conditions":[2.2241373E-1,4.160494E0,1.2719668E-1,1.13128476E-1,4.8247662E-1,5.3170735E-1,2.4357198E2,4.536817E-1,1.193E0,6E-1,1.00209496E2,3.5285714E0,3.16E2,1.7063202E-1,1.2814749E2,3.792049E-1,5.56701E-1,3.9641134E-2,3.5947713E-1,4.9197862E-1,3.0555556E0,2.5E1,-5.8891834E-3,2.5702178E0,1.582E3,-1.1549455E-1,3.213213E-1,9.7E1,3.317702E-1,3.2153487E0,8.4E-2,6.488545E1,-4.1172028E-2,3.783784E-1,1.2395442E2,1.4374925E-1,6.3E-2,4.53E2,5.031056E-1,1.1697264E-1,-8.71162E-2,5.892491E1,5.2E-2,2.6132416E-2,2.624002E-1,7.41817E-2,3.9104477E-1,3.75817E-1,4.4965668E1,1.06E-1,5.244216E-1,7.25E1,1.6663986E-1,1.4131148E0,8.9769673E-1,4.509804E-1,7.12E1,1.3550094E0,3.8036808E-1,8.8E-2,4.29E2,1.275394E-1,-1.5471648E-1,-5.959409E-3,-1.70409E-1,-3.3347916E-2,4.2080488E-2,1.2076582E-1,-8.896179E-2,1.1023565E-1,-9.4835505E-2,1.20702684E-1,-2.5569547E-2,-9.026379E-2,1.2812655E-1,1.6083103E-3,-7.650875E-2,-1.1382276E-1,6.642133E-2,-6.129105E-2,-1.3649914E-1,8.496399E-3,-9.862458E-2,1.5256694E-1,-3.4362175E-2,-5.196628E-2,1.4163636E-1,-1.1228453E-1,-3.133518E-2,1.358127E-1,1.1042111E-2,6.7753635E-2,-7.561801E-2,-1.15255475E-1,-4.2413827E-4,1.02728985E-1,-1.2626468E-1,-1.3166973E-1,8.4765784E-2,1.2590559E-1,-1.8962702E-2,1.1187448E-1,3.0710993E-2,-2.104104E-1,5.257674E-2,1.0771507E-1,-2.373029E-3,-1.15287684E-1,5.2644182E-2,1.08937375E-1,-3.0874271E-2,8.374904E-2,-1.6128743E-1,9.7386144E-2,-7.211785E-2,8.946201E-3,1.3114905E-1],"split_indices":[36,102,155,55,123,39,114,123,101,72,114,63,157,76,7,42,123,15,113,87,63,24,45,149,29,0,128,24,128,30,59,41,6,3,41,45,139,67,44,0,0,120,20,45,1,6,121,128,75,19,118,61,45,28,136,121,100,33,121,138,67,0,0,0,0,0,0,0,0,0,0,0,0,0,0,0,0,0,0,0,0,0,0,0,0,0,0,0,0,0,0,0,0,0,0,0,0,0,0,0,0,0,0,0,0,0,0,0,0,0,0,0,0,0,0,0,0],"split_type":[0,0,0,0,0,0,0,0,0,0,0,0,0,0,0,0,0,0,0,0,0,0,0,0,0,0,0,0,0,0,0,0,0,0,0,0,0,0,0,0,0,0,0,0,0,0,0,0,0,0,0,0,0,0,0,0,0,0,0,0,0,0,0,0,0,0,0,0,0,0,0,0,0,0,0,0,0,0,0,0,0,0,0,0,0,0,0,0,0,0,0,0,0,0,0,0,0,0,0,0,0,0,0,0,0,0,0,0,0,0,0,0,0,0,0,0,0],"sum_hessian":[1.1095138E3,7.0371423E2,4.057996E2,4.857453E2,2.1796895E2,1.3759882E2,2.6820078E2,2.606631E2,2.2508223E2,8.728602E1,1.3068294E2,1.07976494E2,2.9622322E1,2.2181781E2,4.638296E1,1.8478764E1,2.4218431E2,3.8595963E1,1.8648627E2,5.7147665E0,8.157125E1,1.615438E1,1.1452855E2,4.724319E1,6.0733303E1,2.4677136E0,2.7154608E1,1.4604924E2,7.576857E1,3.2487144E1,1.3895816E1,5.8917575E0,1.2587006E1,2.0536305E2,3.6821262E1,1.5014996E1,2.3580969E1,1.2001185E1,1.7448509E2,4.0799303E0,1.6348358E0,8.483561E0,7.3087685E1,3.5543022E0,1.2600079E1,6.2795954E0,1.08248955E2,1.443377E1,3.280942E1,4.8841347E1,1.1891957E1,4.5986114E0,2.2555996E1,1.3441917E2,1.1630069E1,5.5813816E1,1.9954754E1,1.6160828E1,1.6326315E1,4.2664013E0,9.629415E0,4.1587896E0,1.732968E0,1.1711941E0,1.1415812E1,4.3463226E1,1.6189983E2,3.499249E1,1.8287754E0,3.9131694E0,1.1101826E1,2.0174608E1,3.4063601E0,3.1175225E0,8.883663E0,3.569051E1,1.3879457E2,4.606134E0,3.877427E0,1.0216077E1,6.2871613E1,1.1516451E0,2.4026573E0,1.1546112E1,1.0539668E0,1.1027012E0,5.176894E0,4.3566406E1,6.468255E1,1.206691E1,2.3668609E0,1.1832849E1,2.0976572E1,3.8571438E1,1.0269911E1,8.280107E0,3.61185E0,2.6038077E0,1.9948038E0,2.0724384E1,1.8316126E0,1.17325386E2,1.7093782E1,1.1294763E0,1.0500592E1,3.066596E1,2.5147856E1,1.2031524E1,7.92323E0,9.56358E0,6.597248E0,1.4857987E0,1.4840517E1,1.3888497E0,2.8775516E0,1.1707308E0,8.458684E0],"tree_param":{"num_deleted":"0","num_feature":"158","num_nodes":"117","size_leaf_vector":"1"}},{"base_weights":[-1.8836965E-3,-2.6322907E-1,2.5825462E-1,1.0063478E-1,-4.662839E-1,5.257811E-1,-7.7239566E-2,3.883022E-1,-6.8865997E-1,-5.395741E-1,4.600091E-1,8.6481464E-1,3.146156E-1,-3.2819355E-1,3.005432E-1,1.2893379E-3,8.1740856E-1,3.5567173E-1,-8.805133E-1,1.2440368E-3,-6.7583686E-1,-7.5409555E-1,9.2782307E-1,-2.6530933E-1,9.462888E-1,-1.6267422E-1,6.168871E-1,-1.0314989E0,-1.2494431E-1,6.914855E-1,-1.0508596E-1,9.241311E-1,-2.6201943E-1,3.394064E-2,1.093311E0,1.035602E-1,-4.845643E-1,-1.1036136E0,2.1839926E-1,3.690355E-1,-9.196676E-1,1.0248308E-1,-7.5090826E-1,-1.0998228E0,5.167451E-2,-7.817317E-2,1.1652808E0,9.809094E-2,-1.3446895E0,9.9472904E-1,-3.7663192E-1,-6.5803003E-1,2.4000162E-1,5.029931E-2,8.8682556E-1,-1.2687339E0,6.8214965E-1,-5.9867626E-1,2.0337369E-1,8.3158475E-1,-1.15890585E-1,7.8114116E-1,-4.9328572E-1,-9.282178E-2,1.1994852E-1,1.26502765E-2,-9.3135454E-2,9.91466E-2,-5.2426096E-2,-4.1929238E-2,1.2027954E-1,-1.13782465E-1,8.1490405E-2,3.728026E-2,-1.2512414E-1,1.1129725E-1,-6.9709115E-2,-2.5741188E-2,8.67554E-2,7.5927995E-2,-1.1820459E-1,-1.251633E-1,6.509612E-2,-7.878502E-2,9.493717E-2,-1.2887968E-1,-1.359599E-2,1.3440342E-1,-2.2255322E-2,2.5521517E-2,-1.8970057E-1,1.0843698E-1,3.0286059E-2,5.526303E-2,-1.2691832E-1,1.8263405E-2,-1.2860134E-1,-1.1502213E-2,1.3294762E-1,-9.5636755E-2,5.2524418E-2,9.8207645E-2,-3.330812E-2,3.6043335E-2,-1.3557595E-1,1.12518094E-1,-3.1981584E-2,2.460924E-2,-1.133528E-1,-7.532244E-2,3.7598178E-2,1.0467432E-1,-6.1301585E-2,-7.191224E-2,1.064433E-1,-1.14940405E-1,2.1372924E-2],"categories":[],"categories_nodes":[],"categories_segments":[],"categories_sizes":[],"default_left":[0,0,0,0,0,0,0,0,0,0,0,0,0,0,0,0,0,0,0,0,0,0,0,0,0,0,0,0,0,0,0,0,0,0,0,0,0,0,0,0,0,0,0,0,0,0,0,0,0,0,0,0,0,0,0,0,0,0,0,0,0,0,0,0,0,0,0,0,0,0,0,0,0,0,0,0,0,0,0,0,0,0,0,0,0,0,0,0,0,0,0,0,0,0,0,0,0,0,0,0,0,0,0,0,0,0,0,0,0,0,0,0,0,0,0,0,0],"id":11,"left_children":[1,3,5,7,9,11,13,15,17,19,21,23,25,27,29,31,33,35,37,39,41,43,45,47,49,51,53,55,57,59,61,63,65,67,69,-1,71,73,75,77,79,81,83,85,-1,-1,87,-1,89,91,93,95,97,99,101,103,105,107,109,111,-1,113,115,-1,-1,-1,-1,-1,-1,-1,-1,-1,-1,-1,-1,-1,-1,-1,-1,-1,-1,-1,-1,-1,-1,-1,-1,-1,-1,-1,-1,-1,-1,-1,-1,-1,-1,-1,-1,-1,-1,-1,-1,-1,-1,-1,-1,-1,-1,-1,-1,-1,-1,-1,-1,-1,-1],"loss_changes":[7.383346E1,4.0073376E1,4.8890423E1,4.45114E1,2.3865433E1,2.1415604E1,2.3073206E1,2.3821798E1,1.0813927E1,2.379181E1,1.549367E1,1.0903664E1,2.7257956E1,2.0753532E1,1.5493779E1,1.8813189E1,1.466711E1,5.5556536E0,1.1166595E1,2.2683414E1,1.5144066E1,3.9937935E0,8.72562E0,1.2834619E1,7.304062E0,1.4874783E1,1.7614208E1,1.41245E1,1.7926E1,1.38353405E1,1.7103558E1,9.879395E0,1.57833185E1,1.0540618E1,8.8303795E0,0E0,4.8642936E0,8.576408E0,7.6185865E0,1.5168386E1,9.317493E0,1.8315905E1,1.55277405E1,9.99372E-1,0E0,0E0,4.5919476E0,0E0,4.91063E0,6.1580963E0,4.470998E0,1.7841278E1,1.61777E1,1.8822458E1,9.406963E0,4.6000023E0,2.4090767E0,2.1565458E1,1.1570404E1,1.5169048E1,0E0,7.22114E0,1.6205837E1,0E0,0E0,0E0,0E0,0E0,0E0,0E0,0E0,0E0,0E0,0E0,0E0,0E0,0E0,0E0,0E0,0E0,0E0,0E0,0E0,0E0,0E0,0E0,0E0,0E0,0E0,0E0,0E0,0E0,0E0,0E0,0E0,0E0,0E0,0E0,0E0,0E0,0E0,0E0,0E0,0E0,0E0,0E0,0E0,0E0,0E0,0E0,0E0,0E0,0E0,0E0,0E0,0E0,0E0],"parents":[2147483647,0,0,1,1,2,2,3,3,4,4,5,5,6,6,7,7,8,8,9,9,10,10,11,11,12,12,13,13,14,14,15,15,16,16,17,17,18,18,19,19,20,20,21,21,22,22,23,23,24,24,25,25,26,26,27,27,28,28,29,29,30,30,31,31,32,32,33,33,34,34,36,36,37,37,38,38,39,39,40,40,41,41,42,42,43,43,46,46,48,48,49,49,50,50,51,51,52,52,53,53,54,54,55,55,56,56,57,57,58,58,59,59,61,61,62,62],"right_children":[2,4,6,8,10,12,14,16,18,20,22,24,26,28,30,32,34,36,38,40,42,44,46,48,50,52,54,56,58,60,62,64,66,68,70,-1,72,74,76,78,80,82,84,86,-1,-1,88,-1,90,92,94,96,98,100,102,104,106,108,110,112,-1,114,116,-1,-1,-1,-1,-1,-1,-1,-1,-1,-1,-1,-1,-1,-1,-1,-1,-1,-1,-1,-1,-1,-1,-1,-1,-1,-1,-1,-1,-1,-1,-1,-1,-1,-1,-1,-1,-1,-1,-1,-1,-1,-1,-1,-1,-1,-1,-1,-1,-1,-1,-1,-1,-1,-1],"split_conditions":[3.880734E0,2.1660928E-1,2.2055092E-1,2.2886221E-1,4.5780325E-1,4.8317307E-1,-1.223E0,2.5813016E-1,1.136E0,5.2E-2,3.9141414E-1,8.9769673E-1,6.714922E-1,9.0243423E-1,1.05E-1,6.93E1,4.4014084E-1,3.307393E-1,1.47E2,1.63E2,9.179404E-3,2.5934282E-1,4.0350878E-1,1.366E3,9.4E1,1.6245487E-1,-1.336E0,7.580645E-1,-1.361E0,4.6973686E0,1.8470585E-1,8.456572E-1,1.119469E0,5.032328E-1,1.2589073E-1,1.035602E-1,5.1753324E-1,2.3939764E-2,-1.341E0,9.408023E-1,1.0174256E2,1.4975529E0,6.231454E-1,1.6009071E0,5.167451E-2,-7.817317E-2,3.3431086E-1,9.809094E-2,1.2686127E0,1.7692307E0,2.6309663E-1,7.06E1,5.1895046E-1,4.5365855E-1,8.6E1,4.75E2,1.9884688E0,2.9132197E0,1.6823222E-1,1.64E2,-1.15890585E-1,4.3690476E-1,1.2230393E0,-9.282178E-2,1.1994852E-1,1.26502765E-2,-9.3135454E-2,9.91466E-2,-5.2426096E-2,-4.1929238E-2,1.2027954E-1,-1.13782465E-1,8.1490405E-2,3.728026E-2,-1.2512414E-1,1.1129725E-1,-6.9709115E-2,-2.5741188E-2,8.67554E-2,7.5927995E-2,-1.1820459E-1,-1.251633E-1,6.509612E-2,-7.878502E-2,9.493717E-2,-1.2887968E-1,-1.359599E-2,1.3440342E-1,-2.2255322E-2,2.5521517E-2,-1.8970057E-1,1.0843698E-1,3.0286059E-2,5.526303E-2,-1.2691832E-1,1.8263405E-2,-1.2860134E-1,-1.1502213E-2,1.3294762E-1,-9.5636755E-2,5.2524418E-2,9.8207645E-2,-3.330812E-2,3.6043335E-2,-1.3557595E-1,1.12518094E-1,-3.1981584E-2,2.460924E-2,-1.133528E-1,-7.532244E-2,3.7598178E-2,1.0467432E-1,-6.1301585E-2,-7.191224E-2,1.064433E-1,-1.14940405E-1,2.1372924E-2],"split_indices":[23,80,115,76,129,44,62,119,101,20,34,136,133,127,138,21,16,10,37,116,45,124,39,29,103,31,62,151,62,63,50,127,107,79,110,0,79,115,141,127,81,122,44,66,0,0,10,0,73,66,10,21,123,79,103,29,13,70,50,116,0,39,107,0,0,0,0,0,0,0,0,0,0,0,0,0,0,0,0,0,0,0,0,0,0,0,0,0,0,0,0,0,0,0,0,0,0,0,0,0,0,0,0,0,0,0,0,0,0,0,0,0,0,0,0,0,0],"split_type":[0,0,0,0,0,0,0,0,0,0,0,0,0,0,0,0,0,0,0,0,0,0,0,0,0,0,0,0,0,0,0,0,0,0,0,0,0,0,0,0,0,0,0,0,0,0,0,0,0,0,0,0,0,0,0,0,0,0,0,0,0,0,0,0,0,0,0,0,0,0,0,0,0,0,0,0,0,0,0,0,0,0,0,0,0,0,0,0,0,0,0,0,0,0,0,0,0,0,0,0,0,0,0,0,0,0,0,0,0,0,0,0,0,0,0,0,0],"sum_hessian":[1.0840109E3,5.4074493E2,5.432659E2,1.9386076E2,3.4688416E2,3.0193372E2,2.4133221E2,1.4245094E2,5.140982E1,3.2183725E2,2.5046919E1,1.1469364E2,1.8724007E2,1.4508575E2,9.6246475E1,7.542648E1,6.702446E1,7.8461766E0,4.3563644E1,6.4969284E1,2.5686795E2,6.7964153E0,1.8250504E1,7.56087E0,1.0713277E2,7.278059E1,1.1445947E2,3.1614553E1,1.1347119E2,4.8651653E1,4.7594822E1,1.6186504E1,5.923998E1,1.7748325E1,4.9276134E1,4.2082725E0,3.637904E0,3.6208374E1,7.355272E0,4.6855515E1,1.8113771E1,2.2564117E1,2.3430383E2,5.448691E0,1.3477243E0,1.946289E0,1.6304214E1,3.5515687E0,4.009301E0,1.0358787E2,3.544905E0,3.2350338E1,4.043025E1,3.731772E1,7.7141754E1,2.7998161E1,3.616393E0,4.6112183E1,6.735901E1,4.5739178E1,2.9124734E0,1.4189404E1,3.340542E1,1.7879174E0,1.4398587E1,3.799589E1,2.124409E1,6.250386E0,1.1497938E1,3.1349514E0,4.6141186E1,2.503668E0,1.1342359E0,3.1527407E0,3.3055634E1,3.6110325E0,3.7442393E0,2.0977924E1,2.5877592E1,2.1921918E0,1.5921579E1,6.1351852E0,1.6428932E1,2.2984662E2,4.457227E0,4.273681E0,1.17501E0,1.4471803E1,1.8324119E0,1.1669356E0,2.8423657E0,9.120388E1,1.2383981E1,1.9233202E0,1.6215849E0,1.4136015E1,1.8214325E1,3.116804E1,9.262208E0,1.1637621E1,2.5680098E1,7.173557E1,5.406186E0,1.2604362E0,2.6737724E1,2.4223483E0,1.1940448E0,1.808609E1,2.8026094E1,9.782175E0,5.7576836E1,4.004961E1,5.689567E0,2.0094194E0,1.2179984E1,1.7001816E1,1.6403603E1],"tree_param":{"num_deleted":"0","num_feature":"158","num_nodes":"117","size_leaf_vector":"1"}},{"base_weights":[1.7888227E-2,4.3218696E-1,-1.2483781E-1,6.14724E-1,-2.9800293E-1,3.0305296E-1,-2.7625796E-1,-1.1899709E-1,6.46609E-1,-9.256098E-1,2.214153E-1,5.043964E-1,-3.71157E-1,5.403461E-2,-4.5225695E-1,-1.1996943E-1,7.2682005E-1,-1.0667461E0,6.8538055E-2,5.6060696E-1,-8.261419E-1,-2.3225912E-1,7.194105E-1,-1.0777102E0,1.211319E-1,3.044054E-1,-5.7455814E-1,-5.1784194E-1,5.412839E-1,-1.0231032E0,4.526273E-1,1.011414E0,5.27804E-1,-1.2140945E0,4.3758724E-2,1.1066382E0,-4.9389085E-1,4.189577E-1,-1.384932E-1,1.1914793E0,-6.573992E-1,1.250665E-1,5.4833233E-1,-1.3254006E0,9.149083E-2,-4.838142E-1,5.9772396E-1,-1.2180647E-1,6.686918E-1,5.8678067E-1,-7.8324443E-1,-5.9728616E-1,1.0801033E-1,1.0525944E0,-9.4383997E-1,-1.4203002E-1,7.2559915E-2,1.03868686E-1,-1.2281281E-1,-1.5556611E-2,1.0735203E-1,7.4776486E-2,6.799124E-4,2.3524258E-2,-1.3463235E-1,-1.4958379E-2,1.2986352E-1,-1.197385E-1,7.8373864E-2,7.263189E-2,-1.2681253E-2,1.2765156E-1,3.3103928E-2,-1.0754801E-1,7.292319E-2,-1.1938869E-1,6.374248E-2,-1.2123265E-2,-1.4135885E-1,8.733619E-2,-1.0025678E-1,9.285334E-2,-7.218303E-2,-1.1517687E-1,1.5203123E-2,-9.153878E-2,7.762309E-2,-9.361407E-2,9.586971E-2,-5.231178E-3,-1.066797E-1,-7.743972E-2,-3.320057E-2,-6.1339874E-2,6.550432E-2,1.3782369E-1,-1.386295E-2,2.3151977E-2,-1.21855915E-1],"categories":[],"categories_nodes":[],"categories_segments":[],"categories_sizes":[],"default_left":[0,0,0,0,0,0,0,0,0,0,0,0,0,0,0,0,0,0,0,0,0,0,0,0,0,0,0,0,0,0,0,0,0,0,0,0,0,0,0,0,0,0,0,0,0,0,0,0,0,0,0,0,0,0,0,0,0,0,0,0,0,0,0,0,0,0,0,0,0,0,0,0,0,0,0,0,0,0,0,0,0,0,0,0,0,0,0,0,0,0,0,0,0,0,0,0,0,0,0],"id":12,"left_children":[1,3,5,7,9,11,13,-1,15,17,19,21,23,25,27,29,31,33,-1,35,37,39,41,43,45,47,49,51,53,55,57,59,61,63,-1,65,67,69,-1,71,73,-1,75,77,-1,79,81,83,85,87,89,91,93,95,97,-1,-1,-1,-1,-1,-1,-1,-1,-1,-1,-1,-1,-1,-1,-1,-1,-1,-1,-1,-1,-1,-1,-1,-1,-1,-1,-1,-1,-1,-1,-1,-1,-1,-1,-1,-1,-1,-1,-1,-1,-1,-1,-1,-1],"loss_changes":[6.291918E1,3.652162E1,5.1366943E1,1.333886E1,1.8198877E1,2.8336231E1,3.4039974E1,0E0,1.3325058E1,6.458271E0,1.1481336E1,2.5525726E1,1.691726E1,3.2328808E1,2.5161888E1,1.1452928E1,1.05130005E1,5.7515984E0,0E0,1.4377056E1,6.1384983E0,2.3135464E1,1.0599815E1,1.1043686E1,8.748996E0,2.2868416E1,1.4647665E1,1.7899765E1,1.9320038E1,6.9709606E0,1.4769509E1,5.9051285E0,1.3388096E1,4.478237E0,0E0,4.085642E0,8.925247E0,6.3602513E-1,0E0,2.2474575E-1,1.764332E1,0E0,1.5616524E1,1.7533932E0,0E0,1.0368011E1,8.02987E0,1.9489126E1,1.4216679E1,6.2720685E0,1.0318132E1,1.4705429E1,1.6681232E1,7.338728E0,2.4481897E0,0E0,0E0,0E0,0E0,0E0,0E0,0E0,0E0,0E0,0E0,0E0,0E0,0E0,0E0,0E0,0E0,0E0,0E0,0E0,0E0,0E0,0E0,0E0,0E0,0E0,0E0,0E0,0E0,0E0,0E0,0E0,0E0,0E0,0E0,0E0,0E0,0E0,0E0,0E0,0E0,0E0,0E0,0E0,0E0],"parents":[2147483647,0,0,1,1,2,2,3,3,4,4,5,5,6,6,8,8,9,9,10,10,11,11,12,12,13,13,14,14,15,15,16,16,17,17,19,19,20,20,21,21,22,22,23,23,24,24,25,25,26,26,27,27,28,28,29,29,30,30,31,31,32,32,33,33,35,35,36,36,37,37,39,39,40,40,42,42,43,43,45,45,46,46,47,47,48,48,49,49,50,50,51,51,52,52,53,53,54,54],"right_children":[2,4,6,8,10,12,14,-1,16,18,20,22,24,26,28,30,32,34,-1,36,38,40,42,44,46,48,50,52,54,56,58,60,62,64,-1,66,68,70,-1,72,74,-1,76,78,-1,80,82,84,86,88,90,92,94,96,98,-1,-1,-1,-1,-1,-1,-1,-1,-1,-1,-1,-1,-1,-1,-1,-1,-1,-1,-1,-1,-1,-1,-1,-1,-1,-1,-1,-1,-1,-1,-1,-1,-1,-1,-1,-1,-1,-1,-1,-1,-1,-1,-1,-1],"split_conditions":[1.261E0,2.2886221E-1,1.6976704E-1,-1.627E0,1.513261E-1,2.212084E-1,4.9587628E-1,-1.1899709E-1,3.8598326E-1,4.5126355E-1,1.72103E0,1.2712865E-1,1.69E-1,8.8E1,2.1235503E-1,1.83589E0,5.3E-2,5.9866667E-1,6.8538055E-2,4.8742515E-1,1.59E-1,3.0533333E0,7.84124E1,8.9E1,1.52259E0,9.539738E-1,4.2680413E-1,5.540201E-1,3.519418E-1,2.0604554E-1,1.6466849E0,1.1099979E0,1.0275448E2,3.402367E-1,4.3758724E-2,4.107143E-1,6.301542E1,5.0362843E-1,-1.384932E-1,1.1622021E-2,2.1641791E-1,1.250665E-1,-8.2450285E0,4.173333E0,9.149083E-2,-1.218E0,2.090707E0,9.208208E-1,1.448899E-1,2.9804704E-1,4.60441E-1,2.9173544E-1,1.2402318E0,8.65E2,2.376712E-1,-1.4203002E-1,7.2559915E-2,1.03868686E-1,-1.2281281E-1,-1.5556611E-2,1.0735203E-1,7.4776486E-2,6.799124E-4,2.3524258E-2,-1.3463235E-1,-1.4958379E-2,1.2986352E-1,-1.197385E-1,7.8373864E-2,7.263189E-2,-1.2681253E-2,1.2765156E-1,3.3103928E-2,-1.0754801E-1,7.292319E-2,-1.1938869E-1,6.374248E-2,-1.2123265E-2,-1.4135885E-1,8.733619E-2,-1.0025678E-1,9.285334E-2,-7.218303E-2,-1.1517687E-1,1.5203123E-2,-9.153878E-2,7.762309E-2,-9.361407E-2,9.586971E-2,-5.231178E-3,-1.066797E-1,-7.743972E-2,-3.320057E-2,-6.1339874E-2,6.550432E-2,1.3782369E-1,-1.386295E-2,2.3151977E-2,-1.21855915E-1],"split_indices":[101,76,40,62,36,94,44,0,153,8,105,119,58,103,134,53,20,79,0,39,18,63,114,24,43,88,82,123,40,15,43,152,81,82,0,8,125,16,0,134,150,0,75,102,0,141,53,136,50,11,44,129,33,157,90,0,0,0,0,0,0,0,0,0,0,0,0,0,0,0,0,0,0,0,0,0,0,0,0,0,0,0,0,0,0,0,0,0,0,0,0,0,0,0,0,0,0,0,0],"split_type":[0,0,0,0,0,0,0,0,0,0,0,0,0,0,0,0,0,0,0,0,0,0,0,0,0,0,0,0,0,0,0,0,0,0,0,0,0,0,0,0,0,0,0,0,0,0,0,0,0,0,0,0,0,0,0,0,0,0,0,0,0,0,0,0,0,0,0,0,0,0,0,0,0,0,0,0,0,0,0,0,0,0,0,0,0,0,0,0,0,0,0,0,0,0,0,0,0,0,0],"sum_hessian":[1.062148E3,2.716337E2,7.905142E2,2.1743596E2,5.419773E1,2.0636269E2,5.8415155E2,3.1443598E0,2.142916E2,2.4188745E1,3.0008987E1,1.591012E2,4.726149E1,2.0330585E2,3.8084567E2,2.0251549E1,1.9404005E2,2.2550926E1,1.6378193E0,2.3020088E1,6.988899E0,3.592817E1,1.2317302E2,1.8918993E1,2.8342499E1,1.4576347E2,5.754238E1,3.5771146E2,2.3134235E1,7.552506E0,1.2699041E1,7.817183E1,1.15868225E2,2.0714855E1,1.8360709E0,1.5134053E1,7.8860345E0,2.242465E0,4.746434E0,7.847008E0,2.8081161E1,2.8466032E1,9.4706985E1,1.7125118E1,1.7938756E0,1.2482765E1,1.5859733E1,6.7479126E1,7.828434E1,8.48905E0,4.905333E1,3.1745953E2,4.025192E1,1.7425934E1,5.708301E0,6.307606E0,1.2449E0,9.699094E0,2.9999475E0,3.874012E0,7.429781E1,8.11659E1,3.4702316E1,1.6667585E0,1.9048098E1,2.0356765E0,1.3098376E1,5.1262197E0,2.7598147E0,1.2229326E0,1.0195324E0,6.701179E0,1.1458292E0,2.174827E1,6.332892E0,4.004173E0,9.070281E1,1.3306321E0,1.5794486E1,3.2628467E0,9.219918E0,1.2917637E1,2.942096E0,1.349931E1,5.3979816E1,4.4991117E0,7.378523E1,1.3684512E0,7.1205983E0,1.4041667E1,3.5011665E1,1.892141E2,1.2824542E2,1.7306868E1,2.2945053E1,1.3561626E1,3.8643076E0,1.1112356E0,4.5970654E0],"tree_param":{"num_deleted":"0","num_feature":"158","num_nodes":"99","size_leaf_vector":"1"}},{"base_weights":[5.385341E-3,2.447627E-1,-2.254683E-1,7.720222E-1,7.221461E-2,1.1906759E-1,-4.7160172E-1,2.5451702E-1,9.798982E-1,5.410282E-1,-6.037854E-2,-1.8932587E-1,4.2883784E-1,-6.962718E-1,-1.3157997E-1,-1.5045594E-1,4.055841E-1,-3.0253318E-1,1.0232915E0,-4.3388462E-1,7.0541817E-1,3.3554506E-1,-2.8683874E-1,-3.157881E-1,1.15894735E-1,1.1398574E0,2.4577498E-1,-9.990559E-1,-4.4147572E-1,8.386927E-1,-2.8182942E-1,-6.4338213E-1,7.400195E-1,6.9074064E-2,-9.854129E-2,1.1002711E0,2.2367564E-1,7.764827E-1,-9.6226084E-1,8.140354E-1,-9.1113603E-1,4.291806E-1,-1.1108243E0,-7.7104574E-1,-7.151944E-2,-7.800117E-1,1.1497646E-1,1.2352576E-1,-9.154258E-3,4.573808E-1,-3.3862254E-1,-4.800278E-1,-1.1649283E0,4.038236E-2,-6.9850606E-1,1.2576173E-1,-4.831246E-1,-1.2316199E-2,-8.4594405E-1,-1.4155707E-1,7.348918E-2,-7.836239E-2,9.064361E-2,-2.4194693E-2,1.12265706E-1,8.92913E-2,-1.5446246E-1,9.157717E-2,1.4507896E-2,7.0878215E-2,-1.2471401E-1,1.0512538E-1,4.574591E-4,-1.6076725E-2,-1.2073403E-1,7.565343E-2,2.3047868E-3,-2.0028457E-2,-1.3041046E-1,3.578375E-2,-9.5680796E-2,-9.3826205E-2,9.654781E-3,-2.2869257E-2,-1.1737869E-1,-7.525848E-2,6.817074E-2,-2.3395557E-2,7.386743E-2,2.7666563E-2,-7.81612E-2,3.6007416E-2,-1.2806293E-1,8.973147E-3,-1.20346025E-1,-4.488951E-2,8.230717E-2,-3.5230275E-2,-1.2421947E-1,7.490261E-2,-1.24099866E-1,6.663551E-2,-3.2468267E-2,6.326219E-2,-1.1486792E-1],"categories":[],"categories_nodes":[],"categories_segments":[],"categories_sizes":[],"default_left":[0,0,0,0,0,0,0,0,0,0,0,0,0,0,0,0,0,0,0,0,0,0,0,0,0,0,0,0,0,0,0,0,0,0,0,0,0,0,0,0,0,0,0,0,0,0,0,0,0,0,0,0,0,0,0,0,0,0,0,0,0,0,0,0,0,0,0,0,0,0,0,0,0,0,0,0,0,0,0,0,0,0,0,0,0,0,0,0,0,0,0,0,0,0,0,0,0,0,0,0,0,0,0,0,0],"id":13,"left_children":[1,3,5,7,9,11,13,15,17,19,21,23,25,27,29,-1,31,33,35,37,39,41,43,45,-1,47,49,51,53,55,57,59,61,-1,-1,63,65,67,69,71,73,75,77,79,81,83,85,-1,-1,87,89,91,93,95,97,-1,99,101,103,-1,-1,-1,-1,-1,-1,-1,-1,-1,-1,-1,-1,-1,-1,-1,-1,-1,-1,-1,-1,-1,-1,-1,-1,-1,-1,-1,-1,-1,-1,-1,-1,-1,-1,-1,-1,-1,-1,-1,-1,-1,-1,-1,-1,-1,-1],"loss_changes":[5.7738224E1,4.6609596E1,4.5161747E1,1.3344879E1,2.4124228E1,2.1331146E1,2.362481E1,1.05926285E1,5.307022E0,1.4016388E1,2.7265026E1,1.9490152E1,1.4204021E1,1.3962746E1,1.8422974E1,0E0,1.2888368E1,3.1977906E0,5.1147766E0,9.03726E0,1.36620865E1,1.5471244E1,2.0098198E1,2.0752544E1,0E0,2.7573776E0,1.125592E1,6.7177887E0,1.2806959E1,1.0009715E1,1.6526878E1,1.0712927E1,7.630748E0,0E0,0E0,2.6510086E0,1.1915492E1,2.6225471E-1,5.392188E0,1.3336628E1,9.40495E-1,1.3903116E1,9.7257805E-1,1.2798168E1,1.9742107E1,1.0556309E1,2.729335E1,0E0,0E0,1.307207E1,6.8773394E0,1.537346E1,3.1707993E0,1.4476193E1,1.2237709E1,0E0,5.419946E0,1.6035488E1,1.6460926E1,0E0,0E0,0E0,0E0,0E0,0E0,0E0,0E0,0E0,0E0,0E0,0E0,0E0,0E0,0E0,0E0,0E0,0E0,0E0,0E0,0E0,0E0,0E0,0E0,0E0,0E0,0E0,0E0,0E0,0E0,0E0,0E0,0E0,0E0,0E0,0E0,0E0,0E0,0E0,0E0,0E0,0E0,0E0,0E0,0E0,0E0],"parents":[2147483647,0,0,1,1,2,2,3,3,4,4,5,5,6,6,7,7,8,8,9,9,10,10,11,11,12,12,13,13,14,14,16,16,17,17,18,18,19,19,20,20,21,21,22,22,23,23,25,25,26,26,27,27,28,28,29,29,30,30,31,31,32,32,35,35,36,36,37,37,38,38,39,39,40,40,41,41,42,42,43,43,44,44,45,45,46,46,49,49,50,50,51,51,52,52,53,53,54,54,56,56,57,57,58,58],"right_children":[2,4,6,8,10,12,14,16,18,20,22,24,26,28,30,-1,32,34,36,38,40,42,44,46,-1,48,50,52,54,56,58,60,62,-1,-1,64,66,68,70,72,74,76,78,80,82,84,86,-1,-1,88,90,92,94,96,98,-1,100,102,104,-1,-1,-1,-1,-1,-1,-1,-1,-1,-1,-1,-1,-1,-1,-1,-1,-1,-1,-1,-1,-1,-1,-1,-1,-1,-1,-1,-1,-1,-1,-1,-1,-1,-1,-1,-1,-1,-1,-1,-1,-1,-1,-1,-1,-1,-1],"split_conditions":[1.6E-1,1.261E0,3.8289473E0,2.9807693E-1,4.5969126E-1,9.611842E-1,1.334E0,-1.8563221E1,6.79E1,7.988432E-2,4.8317307E-1,1.8676042E2,3.767584E1,3.6E0,9.496685E1,-1.5045594E-1,1.2051547E-1,4.2857143E-1,3.8148147E-1,5.9E-2,4.7355768E-1,1.77E2,3.140387E-1,7.3770493E-1,1.15894735E-1,4.8693585E-1,2.0355281E2,1.401846E-1,3.2189974E-1,6.9E-2,3.8117647E0,1.5260032E0,1.88E2,6.9074064E-2,-9.854129E-2,2.0325203E-1,8.370571E1,2.1232264E-1,1.6254249E-1,1E-1,5.5E-2,7.24E1,3.243243E-1,1.1378907E0,3.2777554E1,1.0627451E0,1.967769E0,1.2352576E-1,-9.154258E-3,2.37403E-2,7.07E1,3.3019942E-1,1.066126E0,1.7523365E-1,2.1109335E0,1.2576173E-1,1.0198841E0,4.3729553E-1,1.869912E0,-1.4155707E-1,7.348918E-2,-7.836239E-2,9.064361E-2,-2.4194693E-2,1.12265706E-1,8.92913E-2,-1.5446246E-1,9.157717E-2,1.4507896E-2,7.0878215E-2,-1.2471401E-1,1.0512538E-1,4.574591E-4,-1.6076725E-2,-1.2073403E-1,7.565343E-2,2.3047868E-3,-2.0028457E-2,-1.3041046E-1,3.578375E-2,-9.5680796E-2,-9.3826205E-2,9.654781E-3,-2.2869257E-2,-1.1737869E-1,-7.525848E-2,6.817074E-2,-2.3395557E-2,7.386743E-2,2.7666563E-2,-7.81612E-2,3.6007416E-2,-1.2806293E-1,8.973147E-3,-1.20346025E-1,-4.488951E-2,8.230717E-2,-3.5230275E-2,-1.2421947E-1,7.490261E-2,-1.24099866E-1,6.663551E-2,-3.2468267E-2,6.326219E-2,-1.1486792E-1],"split_indices":[18,101,102,131,95,127,22,46,61,155,44,35,81,23,114,0,15,79,12,139,42,116,11,151,0,42,75,76,128,20,63,122,27,0,0,52,41,40,40,19,20,140,49,112,120,68,53,0,0,15,140,80,112,71,53,0,9,113,132,0,0,0,0,0,0,0,0,0,0,0,0,0,0,0,0,0,0,0,0,0,0,0,0,0,0,0,0,0,0,0,0,0,0,0,0,0,0,0,0,0,0,0,0,0,0],"split_type":[0,0,0,0,0,0,0,0,0,0,0,0,0,0,0,0,0,0,0,0,0,0,0,0,0,0,0,0,0,0,0,0,0,0,0,0,0,0,0,0,0,0,0,0,0,0,0,0,0,0,0,0,0,0,0,0,0,0,0,0,0,0,0,0,0,0,0,0,0,0,0,0,0,0,0,0,0,0,0,0,0,0,0,0,0,0,0,0,0,0,0,0,0,0,0,0,0,0,0,0,0,0,0,0,0],"sum_hessian":[1.0428265E3,5.1193216E2,5.308943E2,1.2536796E2,3.865642E2,2.2144014E2,3.0945416E2,3.6564754E1,8.88032E1,8.4547325E1,3.020169E2,1.1116152E2,1.10278625E2,1.857029E2,1.23751274E2,2.1832063E0,3.4381546E1,2.7110069E0,8.609219E1,1.1962786E1,7.258453E1,1.0971642E2,1.9230048E2,1.02329254E2,8.832261E0,2.1509344E1,8.876929E1,8.352538E1,1.02177505E2,1.5979262E1,1.0777201E2,8.088367E0,2.6293179E1,1.0997982E0,1.6112087E0,7.8188896E1,7.9033012E0,3.492605E0,8.4701805E0,6.8479774E1,4.1047587E0,1.0370595E2,6.010479E0,5.8397057E1,1.3390341E2,4.8861618E1,5.346764E1,1.9959864E1,1.5494822E0,6.533084E1,2.3438446E1,2.1171616E1,6.2353767E1,3.5836765E1,6.6340744E1,1.2170595E1,3.8086672E0,7.362062E1,3.415139E1,5.1666512E0,2.9217162E0,2.2238333E0,2.4069345E1,1.1217715E0,7.706712E1,6.0925407E0,1.8107605E0,2.4924018E0,1.0002034E0,1.0169504E0,7.4532304E0,5.2728573E1,1.57512045E1,1.5983772E0,2.5063815E0,5.6944447E1,4.6761497E1,1.4089906E0,4.6014886E0,8.120737E0,5.027632E1,2.1003456E1,1.12899956E2,2.1016907E1,2.7844711E1,2.0997055E1,3.2470585E1,1.894295E1,4.638789E1,9.968375E0,1.347007E1,1.059945E1,1.05721655E1,1.818301E0,6.0535465E1,2.2314142E1,1.3522623E1,4.153841E1,2.4802332E1,1.4549257E0,2.3537416E0,2.2847387E1,5.077323E1,5.6188912E0,2.85325E1],"tree_param":{"num_deleted":"0","num_feature":"158","num_nodes":"105","size_leaf_vector":"1"}},{"base_weights":[-1.3246441E-2,-1.3046199E-1,4.3921986E-1,-2.7622446E-1,2.1527033E-1,5.862066E-1,-3.9104354E-1,-2.6759498E-2,-5.669747E-1,4.1843584E-1,-1.8827629E-1,1.9929323E-2,7.6494235E-1,-1.2594905E0,2.1619013E-1,-3.636075E-1,2.0037992E-1,-3.3939996E-1,-8.9382845E-1,6.869588E-1,1.2296388E-1,-3.5633445E-1,1.0600516E0,5.029453E-1,-8.5532564E-1,1.1047955E0,4.709802E-1,-3.0771403E-2,-1.3471423E-1,-5.204238E-1,9.3043095E-1,-6.878579E-1,-2.2325424E-2,7.365618E-1,-7.293153E-2,-5.176048E-1,3.587883E-1,-1.0826133E0,-3.0714464E-1,-1.3690823E-1,7.481922E-1,-7.769938E-2,9.080358E-1,-1.0641218E0,-6.889465E-2,1.1271282E-1,2.30521E-2,8.093773E-1,-1.08728506E-1,7.392208E-1,-1.2961942E0,-5.079927E-2,1.1402535E0,-1.9916512E-1,7.278913E-1,4.252519E-1,-1.2752274E-1,1.2580435E0,-8.065565E-2,-8.003999E-2,7.783272E-2,-1.2934645E-1,1.4452572E-2,2.4205854E-2,1.1553728E-1,-2.5186826E-2,6.464357E-2,-7.210149E-2,-4.8313476E-3,6.127388E-2,-7.7846095E-2,5.466593E-2,-1.1465122E-1,1.1001899E-1,-9.214183E-2,8.214881E-2,-7.4632436E-2,-7.951349E-2,2.2809928E-2,-2.5035454E-2,1.1315986E-1,-1.3538037E-1,2.3814598E-2,1.0680182E-1,-2.5973728E-2,-6.899699E-2,1.11291684E-1,9.971916E-2,-3.1098179E-3,5.003182E-2,-1.5220349E-1,-1.5321689E-2,1.16555534E-1,8.3138645E-2,-8.676103E-2,1.230646E-1,2.0953905E-2,-3.1316493E-2,7.992649E-2,1.415097E-1,9.07991E-3],"categories":[],"categories_nodes":[],"categories_segments":[],"categories_sizes":[],"default_left":[0,0,0,0,0,0,0,0,0,0,0,0,0,0,0,0,0,0,0,0,0,0,0,0,0,0,0,0,0,0,0,0,0,0,0,0,0,0,0,0,0,0,0,0,0,0,0,0,0,0,0,0,0,0,0,0,0,0,0,0,0,0,0,0,0,0,0,0,0,0,0,0,0,0,0,0,0,0,0,0,0,0,0,0,0,0,0,0,0,0,0,0,0,0,0,0,0,0,0,0,0],"id":14,"left_children":[1,3,5,7,9,11,13,15,17,19,21,23,25,27,29,31,33,