{"learner":{"attributes":{},"feature_names":[],"feature_types":[],"gradient_booster":{"model":{"gbtree_model_param":{"num_parallel_tree":"1","num_trees":"1500"},"iteration_indptr":[0,2,4,6,8,10,12,14,16,18,20,22,24,26,28,30,32,34,36,38,40,42,44,46,48,50,52,54,56,58,60,62,64,66,68,70,72,74,76,78,80,82,84,86,88,90,92,94,96,98,100,102,104,106,108,110,112,114,116,118,120,122,124,126,128,130,132,134,136,138,140,142,144,146,148,150,152,154,156,158,160,162,164,166,168,170,172,174,176,178,180,182,184,186,188,190,192,194,196,198,200,202,204,206,208,210,212,214,216,218,220,222,224,226,228,230,232,234,236,238,240,242,244,246,248,250,252,254,256,258,260,262,264,266,268,270,272,274,276,278,280,282,284,286,288,290,292,294,296,298,300,302,304,306,308,310,312,314,316,318,320,322,324,326,328,330,332,334,336,338,340,342,344,346,348,350,352,354,356,358,360,362,364,366,368,370,372,374,376,378,380,382,384,386,388,390,392,394,396,398,400,402,404,406,408,410,412,414,416,418,420,422,424,426,428,430,432,434,436,438,440,442,444,446,448,450,452,454,456,458,460,462,464,466,468,470,472,474,476,478,480,482,484,486,488,490,492,494,496,498,500,502,504,506,508,510,512,514,516,518,520,522,524,526,528,530,532,534,536,538,540,542,544,546,548,550,552,554,556,558,560,562,564,566,568,570,572,574,576,578,580,582,584,586,588,590,592,594,596,598,600,602,604,606,608,610,612,614,616,618,620,622,624,626,628,630,632,634,636,638,640,642,644,646,648,650,652,654,656,658,660,662,664,666,668,670,672,674,676,678,680,682,684,686,688,690,692,694,696,698,700,702,704,706,708,710,712,714,716,718,720,722,724,726,728,730,732,734,736,738,740,742,744,746,748,750,752,754,756,758,760,762,764,766,768,770,772,774,776,778,780,782,784,786,788,790,792,794,796,798,800,802,804,806,808,810,812,814,816,818,820,822,824,826,828,830,832,834,836,838,840,842,844,846,848,850,852,854,856,858,860,862,864,866,868,870,872,874,876,878,880,882,884,886,888,890,892,894,896,898,900,902,904,906,908,910,912,914,916,918,920,922,924,926,928,930,932,934,936,938,940,942,944,946,948,950,952,954,956,958,960,962,964,966,968,970,972,974,976,978,980,982,984,986,988,990,992,994,996,998,1000,1002,1004,1006,1008,1010,1012,1014,1016,1018,1020,1022,1024,1026,1028,1030,1032,1034,1036,1038,1040,1042,1044,1046,1048,1050,1052,1054,1056,1058,1060,1062,1064,1066,1068,1070,1072,1074,1076,1078,1080,1082,1084,1086,1088,1090,1092,1094,1096,1098,1100,1102,1104,1106,1108,1110,1112,1114,1116,1118,1120,1122,1124,1126,1128,1130,1132,1134,1136,1138,1140,1142,1144,1146,1148,1150,1152,1154,1156,1158,1160,1162,1164,1166,1168,1170,1172,1174,1176,1178,1180,1182,1184,1186,1188,1190,1192,1194,1196,1198,1200,1202,1204,1206,1208,1210,1212,1214,1216,1218,1220,1222,1224,1226,1228,1230,1232,1234,1236,1238,1240,1242,1244,1246,1248,1250,1252,1254,1256,1258,1260,1262,1264,1266,1268,1270,1272,1274,1276,1278,1280,1282,1284,1286,1288,1290,1292,1294,1296,1298,1300,1302,1304,1306,1308,1310,1312,1314,1316,1318,1320,1322,1324,1326,1328,1330,1332,1334,1336,1338,1340,1342,1344,1346,1348,1350,1352,1354,1356,1358,1360,1362,1364,1366,1368,1370,1372,1374,1376,1378,1380,1382,1384,1386,1388,1390,1392,1394,1396,1398,1400,1402,1404,1406,1408,1410,1412,1414,1416,1418,1420,1422,1424,1426,1428,1430,1432,1434,1436,1438,1440,1442,1444,1446,1448,1450,1452,1454,1456,1458,1460,1462,1464,1466,1468,1470,1472,1474,1476,1478,1480,1482,1484,1486,1488,1490,1492,1494,1496,1498,1500],"tree_info":[0,1,0,1,0,1,0,1,0,1,0,1,0,1,0,1,0,1,0,1,0,1,0,1,0,1,0,1,0,1,0,1,0,1,0,1,0,1,0,1,0,1,0,1,0,1,0,1,0,1,0,1,0,1,0,1,0,1,0,1,0,1,0,1,0,1,0,1,0,1,0,1,0,1,0,1,0,1,0,1,0,1,0,1,0,1,0,1,0,1,0,1,0,1,0,1,0,1,0,1,0,1,0,1,0,1,0,1,0,1,0,1,0,1,0,1,0,1,0,1,0,1,0,1,0,1,0,1,0,1,0,1,0,1,0,1,0,1,0,1,0,1,0,1,0,1,0,1,0,1,0,1,0,1,0,1,0,1,0,1,0,1,0,1,0,1,0,1,0,1,0,1,0,1,0,1,0,1,0,1,0,1,0,1,0,1,0,1,0,1,0,1,0,1,0,1,0,1,0,1,0,1,0,1,0,1,0,1,0,1,0,1,0,1,0,1,0,1,0,1,0,1,0,1,0,1,0,1,0,1,0,1,0,1,0,1,0,1,0,1,0,1,0,1,0,1,0,1,0,1,0,1,0,1,0,1,0,1,0,1,0,1,0,1,0,1,0,1,0,1,0,1,0,1,0,1,0,1,0,1,0,1,0,1,0,1,0,1,0,1,0,1,0,1,0,1,0,1,0,1,0,1,0,1,0,1,0,1,0,1,0,1,0,1,0,1,0,1,0,1,0,1,0,1,0,1,0,1,0,1,0,1,0,1,0,1,0,1,0,1,0,1,0,1,0,1,0,1,0,1,0,1,0,1,0,1,0,1,0,1,0,1,0,1,0,1,0,1,0,1,0,1,0,1,0,1,0,1,0,1,0,1,0,1,0,1,0,1,0,1,0,1,0,1,0,1,0,1,0,1,0,1,0,1,0,1,0,1,0,1,0,1,0,1,0,1,0,1,0,1,0,1,0,1,0,1,0,1,0,1,0,1,0,1,0,1,0,1,0,1,0,1,0,1,0,1,0,1,0,1,0,1,0,1,0,1,0,1,0,1,0,1,0,1,0,1,0,1,0,1,0,1,0,1,0,1,0,1,0,1,0,1,0,1,0,1,0,1,0,1,0,1,0,1,0,1,0,1,0,1,0,1,0,1,0,1,0,1,0,1,0,1,0,1,0,1,0,1,0,1,0,1,0,1,0,1,0,1,0,1,0,1,0,1,0,1,0,1,0,1,0,1,0,1,0,1,0,1,0,1,0,1,0,1,0,1,0,1,0,1,0,1,0,1,0,1,0,1,0,1,0,1,0,1,0,1,0,1,0,1,0,1,0,1,0,1,0,1,0,1,0,1,0,1,0,1,0,1,0,1,0,1,0,1,0,1,0,1,0,1,0,1,0,1,0,1,0,1,0,1,0,1,0,1,0,1,0,1,0,1,0,1,0,1,0,1,0,1,0,1,0,1,0,1,0,1,0,1,0,1,0,1,0,1,0,1,0,1,0,1,0,1,0,1,0,1,0,1,0,1,0,1,0,1,0,1,0,1,0,1,0,1,0,1,0,1,0,1,0,1,0,1,0,1,0,1,0,1,0,1,0,1,0,1,0,1,0,1,0,1,0,1,0,1,0,1,0,1,0,1,0,1,0,1,0,1,0,1,0,1,0,1,0,1,0,1,0,1,0,1,0,1,0,1,0,1,0,1,0,1,0,1,0,1,0,1,0,1,0,1,0,1,0,1,0,1,0,1,0,1,0,1,0,1,0,1,0,1,0,1,0,1,0,1,0,1,0,1,0,1,0,1,0,1,0,1,0,1,0,1,0,1,0,1,0,1,0,1,0,1,0,1,0,1,0,1,0,1,0,1,0,1,0,1,0,1,0,1,0,1,0,1,0,1,0,1,0,1,0,1,0,1,0,1,0,1,0,1,0,1,0,1,0,1,0,1,0,1,0,1,0,1,0,1,0,1,0,1,0,1,0,1,0,1,0,1,0,1,0,1,0,1,0,1,0,1,0,1,0,1,0,1,0,1,0,1,0,1,0,1,0,1,0,1,0,1,0,1,0,1,0,1,0,1,0,1,0,1,0,1,0,1,0,1,0,1,0,1,0,1,0,1,0,1,0,1,0,1,0,1,0,1,0,1,0,1,0,1,0,1,0,1,0,1,0,1,0,1,0,1,0,1,0,1,0,1,0,1,0,1,0,1,0,1,0,1,0,1,0,1,0,1,0,1,0,1,0,1,0,1,0,1,0,1,0,1,0,1,0,1,0,1,0,1,0,1,0,1,0,1,0,1,0,1,0,1,0,1,0,1,0,1,0,1,0,1,0,1,0,1,0,1,0,1,0,1,0,1,0,1,0,1,0,1,0,1,0,1,0,1,0,1,0,1,0,1,0,1,0,1,0,1,0,1,0,1,0,1,0,1,0,1,0,1,0,1,0,1,0,1,0,1,0,1,0,1,0,1,0,1,0,1,0,1,0,1,0,1,0,1,0,1,0,1,0,1,0,1,0,1,0,1,0,1,0,1,0,1,0,1,0,1,0,1,0,1,0,1,0,1,0,1,0,1,0,1,0,1,0,1,0,1,0,1,0,1,0,1,0,1,0,1,0,1,0,1,0,1,0,1,0,1,0,1,0,1,0,1,0,1,0,1,0,1,0,1,0,1,0,1,0,1,0,1,0,1,0,1,0,1,0,1,0,1,0,1,0,1,0,1,0,1,0,1,0,1,0,1,0,1,0,1,0,1,0,1,0,1,0,1,0,1,0,1,0,1,0,1,0,1,0,1,0,1,0,1,0,1,0,1,0,1,0,1,0,1,0,1,0,1,0,1,0,1,0,1,0,1,0,1,0,1,0,1,0,1,0,1,0,1,0,1,0,1,0,1,0,1,0,1,0,1,0,1,0,1,0,1,0,1,0,1,0,1,0,1,0,1,0,1,0,1,0,1,0,1,0,1,0,1,0,1,0,1,0,1,0,1,0,1,0,1,0,1,0,1,0,1,0,1,0,1,0,1,0,1,0,1,0,1,0,1,0,1,0,1,0,1,0,1,0,1,0,1,0,1,0,1,0,1,0,1,0,1,0,1,0,1,0,1,0,1,0,1,0,1,0,1,0,1,0,1,0,1,0,1,0,1,0,1,0,1,0,1,0,1,0,1,0,1,0,1,0,1,0,1,0,1,0,1,0,1,0,1,0,1,0,1,0,1,0,1,0,1,0,1,0,1,0,1,0,1,0,1,0,1,0,1,0,1,0,1,0,1,0,1,0,1,0,1,0,1,0,1,0,1,0,1,0,1,0,1,0,1,0,1,0,1,0,1,0,1,0,1,0,1,0,1,0,1,0,1,0,1,0,1,0,1,0,1,0,1,0,1,0,1,0,1,0,1],"trees":[{"base_weights":[-5.7412166E-2,-2.0241131E-1,6.706468E-2,-2.800259E-1,-6.5252855E-3,2.7218935E-1,-8.435374E-3,-3.317647E-3,-1.6563147E-3,4.9951026E-4,-2.8502415E-3,5.151515E-3,2.217275E-3,-1.4851484E-3,3.7572253E-4],"categories":[],"categories_nodes":[],"categories_segments":[],"categories_sizes":[],"default_left":[0,0,0,0,0,0,0,0,0,0,0,0,0,0,0],"id":0,"left_children":[1,3,5,7,9,11,13,-1,-1,-1,-1,-1,-1,-1,-1],"loss_changes":[8.426648E1,3.278476E1,3.8913193E1,9.086372E0,9.655863E0,8.173752E0,1.1847761E1,0E0,0E0,0E0,0E0,0E0,0E0,0E0,0E0],"parents":[2147483647,0,0,1,1,2,2,3,3,4,4,5,5,6,6],"right_children":[2,4,6,8,10,12,14,-1,-1,-1,-1,-1,-1,-1,-1],"split_conditions":[8E1,4.51E0,7.4E1,1.8E1,7.68E2,5.6E1,7E1,-3.317647E-3,-1.6563147E-3,4.9951026E-4,-2.8502415E-3,5.151515E-3,2.217275E-3,-1.4851484E-3,3.7572253E-4],"split_indices":[92,38,36,2,98,36,37,0,0,0,0,0,0,0,0],"split_type":[0,0,0,0,0,0,0,0,0,0,0,0,0,0,0],"sum_hessian":[4.667E3,2.1555E3,2.5115E3,1.5435E3,6.12E2,6.75E2,1.8365E3,1.0615E3,4.82E2,5.095E2,1.025E2,1.145E2,5.605E2,4.535E2,1.383E3],"tree_param":{"num_deleted":"0","num_feature":"114","num_nodes":"15","size_leaf_vector":"1"}},{"base_weights":[5.7412166E-2,2.0241131E-1,-6.706468E-2,2.800259E-1,6.5252855E-3,-2.7218935E-1,8.435374E-3,3.317647E-3,1.6563147E-3,-4.9951026E-4,2.8502415E-3,-5.151515E-3,-2.217275E-3,1.4851484E-3,-3.7572253E-4],"categories":[],"categories_nodes":[],"categories_segments":[],"categories_sizes":[],"default_left":[0,0,0,0,0,0,0,0,0,0,0,0,0,0,0],"id":1,"left_children":[1,3,5,7,9,11,13,-1,-1,-1,-1,-1,-1,-1,-1],"loss_changes":[8.426648E1,3.278476E1,3.8913193E1,9.086372E0,9.655863E0,8.173752E0,1.1847761E1,0E0,0E0,0E0,0E0,0E0,0E0,0E0,0E0],"parents":[2147483647,0,0,1,1,2,2,3,3,4,4,5,5,6,6],"right_children":[2,4,6,8,10,12,14,-1,-1,-1,-1,-1,-1,-1,-1],"split_conditions":[8E1,4.51E0,7.4E1,1.8E1,7.68E2,5.6E1,7E1,3.317647E-3,1.6563147E-3,-4.9951026E-4,2.8502415E-3,-5.151515E-3,-2.217275E-3,1.4851484E-3,-3.7572253E-4],"split_indices":[92,38,36,2,98,36,37,0,0,0,0,0,0,0,0],"split_type":[0,0,0,0,0,0,0,0,0,0,0,0,0,0,0],"sum_hessian":[4.667E3,2.1555E3,2.5115E3,1.5435E3,6.12E2,6.75E2,1.8365E3,1.0615E3,4.82E2,5.095E2,1.025E2,1.145E2,5.605E2,4.535E2,1.383E3],"tree_param":{"num_deleted":"0","num_feature":"114","num_nodes":"15","size_leaf_vector":"1"}},{"base_weights":[-5.6838535E-2,-2.003919E-1,6.639669E-2,-2.7723122E-1,-6.4638555E-3,2.6948068E-1,-8.35165E-3,-3.3513526E-3,-1.7695456E-3,8.471481E-4,-1.7564506E-3,5.1005813E-3,2.1951525E-3,-1.470333E-3,3.7196782E-4],"categories":[],"categories_nodes":[],"categories_segments":[],"categories_sizes":[],"default_left":[0,0,0,0,0,0,0,0,0,0,0,0,0,0,0],"id":2,"left_children":[1,3,5,7,9,11,13,-1,-1,-1,-1,-1,-1,-1,-1],"loss_changes":[8.259374E1,3.2132637E1,3.8142376E1,8.908646E0,9.470831E0,8.013859E0,1.1612457E1,0E0,0E0,0E0,0E0,0E0,0E0,0E0,0E0],"parents":[2147483647,0,0,1,1,2,2,3,3,4,4,5,5,6,6],"right_children":[2,4,6,8,10,12,14,-1,-1,-1,-1,-1,-1,-1,-1],"split_conditions":[8E1,4.51E0,7.4E1,1.7E1,4.8E0,5.6E1,7E1,-3.3513526E-3,-1.7695456E-3,8.471481E-4,-1.7564506E-3,5.1005813E-3,2.1951525E-3,-1.470333E-3,3.7196782E-4],"split_indices":[92,38,36,2,94,36,37,0,0,0,0,0,0,0,0],"split_type":[0,0,0,0,0,0,0,0,0,0,0,0,0,0,0],"sum_hessian":[4.666979E3,2.1554858E3,2.511493E3,1.5434869E3,6.11999E2,6.749942E2,1.8364988E3,9.769892E2,5.6649774E2,3.979999E2,2.1399915E2,1.1449696E2,5.6049725E2,4.5349896E2,1.3829999E3],"tree_param":{"num_deleted":"0","num_feature":"114","num_nodes":"15","size_leaf_vector":"1"}},{"base_weights":[5.6838542E-2,2.0039192E-1,-6.63967E-2,2.7723125E-1,6.463869E-3,-2.6948068E-1,8.351634E-3,3.351353E-3,1.7695458E-3,-8.471481E-4,1.7564511E-3,-5.1005804E-3,-2.1951527E-3,1.4703333E-3,-3.719681E-4],"categories":[],"categories_nodes":[],"categories_segments":[],"categories_sizes":[],"default_left":[0,0,0,0,0,0,0,0,0,0,0,0,0,0,0],"id":3,"left_children":[1,3,5,7,9,11,13,-1,-1,-1,-1,-1,-1,-1,-1],"loss_changes":[8.259376E1,3.2132645E1,3.814237E1,8.908661E0,9.470834E0,8.013855E0,1.1612464E1,0E0,0E0,0E0,0E0,0E0,0E0,0E0,0E0],"parents":[2147483647,0,0,1,1,2,2,3,3,4,4,5,5,6,6],"right_children":[2,4,6,8,10,12,14,-1,-1,-1,-1,-1,-1,-1,-1],"split_conditions":[8E1,4.51E0,7.4E1,1.7E1,4.8E0,5.6E1,7E1,3.351353E-3,1.7695458E-3,-8.471481E-4,1.7564511E-3,-5.1005804E-3,-2.1951527E-3,1.4703333E-3,-3.719681E-4],"split_indices":[92,38,36,2,94,36,37,0,0,0,0,0,0,0,0],"split_type":[0,0,0,0,0,0,0,0,0,0,0,0,0,0,0],"sum_hessian":[4.666979E3,2.155486E3,2.5114932E3,1.5434869E3,6.11999E2,6.7499426E2,1.8364989E3,9.769892E2,5.6649774E2,3.979999E2,2.1399915E2,1.1449696E2,5.604973E2,4.53499E2,1.3829999E3],"tree_param":{"num_deleted":"0","num_feature":"114","num_nodes":"15","size_leaf_vector":"1"}},{"base_weights":[-5.6270853E-2,-1.9839452E-1,6.5735765E-2,-2.7446902E-1,-6.4007742E-3,2.6680347E-1,-8.268721E-3,-3.2524182E-3,-1.6221462E-3,4.917572E-4,-2.8046786E-3,5.050411E-3,2.173272E-3,-1.4556716E-3,3.6825135E-4],"categories":[],"categories_nodes":[],"categories_segments":[],"categories_sizes":[],"default_left":[0,0,0,0,0,0,0,0,0,0,0,0,0,0,0],"id":4,"left_children":[1,3,5,7,9,11,13,-1,-1,-1,-1,-1,-1,-1,-1],"loss_changes":[8.095487E1,3.1494926E1,3.7387573E1,8.749779E0,9.35077E0,7.858059E0,1.1381874E1,0E0,0E0,0E0,0E0,0E0,0E0,0E0,0E0],"parents":[2147483647,0,0,1,1,2,2,3,3,4,4,5,5,6,6],"right_children":[2,4,6,8,10,12,14,-1,-1,-1,-1,-1,-1,-1,-1],"split_conditions":[8E1,4.51E0,7.4E1,1.8E1,7.68E2,5.6E1,7E1,-3.2524182E-3,-1.6221462E-3,4.917572E-4,-2.8046786E-3,5.050411E-3,2.173272E-3,-1.4556716E-3,3.6825135E-4],"split_indices":[92,38,36,2,98,36,37,0,0,0,0,0,0,0,0],"split_type":[0,0,0,0,0,0,0,0,0,0,0,0,0,0,0],"sum_hessian":[4.666918E3,2.1554456E3,2.5114724E3,1.5434487E3,6.1199695E2,6.7497705E2,1.8364952E3,1.0614543E3,4.8199435E2,5.094991E2,1.0249783E2,1.1448797E2,5.604891E2,4.53496E2,1.3829993E3],"tree_param":{"num_deleted":"0","num_feature":"114","num_nodes":"15","size_leaf_vector":"1"}},{"base_weights":[5.627085E-2,1.983945E-1,-6.573576E-2,2.7446902E-1,6.400732E-3,-2.6680347E-1,8.26873E-3,3.2524182E-3,1.6221462E-3,-4.917579E-4,2.8046796E-3,-5.050411E-3,-2.173272E-3,1.4556719E-3,-3.6825135E-4],"categories":[],"categories_nodes":[],"categories_segments":[],"categories_sizes":[],"default_left":[0,0,0,0,0,0,0,0,0,0,0,0,0,0,0],"id":5,"left_children":[1,3,5,7,9,11,13,-1,-1,-1,-1,-1,-1,-1,-1],"loss_changes":[8.0954865E1,3.1494934E1,3.7387573E1,8.749779E0,9.350779E0,7.858059E0,1.1381877E1,0E0,0E0,0E0,0E0,0E0,0E0,0E0,0E0],"parents":[2147483647,0,0,1,1,2,2,3,3,4,4,5,5,6,6],"right_children":[2,4,6,8,10,12,14,-1,-1,-1,-1,-1,-1,-1,-1],"split_conditions":[8E1,4.51E0,7.4E1,1.8E1,7.68E2,5.6E1,7E1,3.2524182E-3,1.6221462E-3,-4.917579E-4,2.8046796E-3,-5.050411E-3,-2.173272E-3,1.4556719E-3,-3.6825135E-4],"split_indices":[92,38,36,2,98,36,37,0,0,0,0,0,0,0,0],"split_type":[0,0,0,0,0,0,0,0,0,0,0,0,0,0,0],"sum_hessian":[4.666918E3,2.1554456E3,2.5114724E3,1.5434487E3,6.119969E2,6.7497705E2,1.8364952E3,1.0614543E3,4.8199435E2,5.0949908E2,1.02497826E2,1.1448797E2,5.604891E2,4.5349603E2,1.3829993E3],"tree_param":{"num_deleted":"0","num_feature":"114","num_nodes":"15","size_leaf_vector":"1"}},{"base_weights":[-5.5709593E-2,-1.9642007E-1,6.508175E-2,-2.7173868E-1,-6.340577E-3,2.641572E-1,-8.186649E-3,-3.2856716E-3,-1.7333105E-3,8.3379477E-4,-1.7281866E-3,5.000987E-3,2.1516297E-3,-1.4411625E-3,3.6457187E-4],"categories":[],"categories_nodes":[],"categories_segments":[],"categories_sizes":[],"default_left":[0,0,0,0,0,0,0,0,0,0,0,0,0,0,0],"id":6,"left_children":[1,3,5,7,9,11,13,-1,-1,-1,-1,-1,-1,-1,-1],"loss_changes":[7.934984E1,3.087011E1,3.664844E1,8.579811E0,9.170332E0,7.706211E0,1.115591E1,0E0,0E0,0E0,0E0,0E0,0E0,0E0,0E0],"parents":[2147483647,0,0,1,1,2,2,3,3,4,4,5,5,6,6],"right_children":[2,4,6,8,10,12,14,-1,-1,-1,-1,-1,-1,-1,-1],"split_conditions":[8E1,4.51E0,7.4E1,1.7E1,4.8E0,5.6E1,7E1,-3.2856716E-3,-1.7333105E-3,8.3379477E-4,-1.7281866E-3,5.000987E-3,2.1516297E-3,-1.4411625E-3,3.6457187E-4],"split_indices":[92,38,36,2,94,36,37,0,0,0,0,0,0,0,0],"split_type":[0,0,0,0,0,0,0,0,0,0,0,0,0,0,0],"sum_hessian":[4.666817E3,2.1553787E3,2.5114382E3,1.5433857E3,6.119929E2,6.7494885E2,1.8364895E3,9.769039E2,5.664818E2,3.9799866E2,2.139943E2,1.1447319E2,5.604757E2,4.5349118E2,1.3829983E3],"tree_param":{"num_deleted":"0","num_feature":"114","num_nodes":"15","size_leaf_vector":"1"}},{"base_weights":[5.5709552E-2,1.9642003E-1,-6.5081775E-2,2.717386E-1,6.340577E-3,-2.641572E-1,8.186619E-3,3.2856704E-3,1.7333103E-3,-8.3379477E-4,1.7281866E-3,-5.000987E-3,-2.1516297E-3,1.4411613E-3,-3.6457187E-4],"categories":[],"categories_nodes":[],"categories_segments":[],"categories_sizes":[],"default_left":[0,0,0,0,0,0,0,0,0,0,0,0,0,0,0],"id":7,"left_children":[1,3,5,7,9,11,13,-1,-1,-1,-1,-1,-1,-1,-1],"loss_changes":[7.9349815E1,3.0870102E1,3.6648434E1,8.579796E0,9.170332E0,7.706211E0,1.1155895E1,0E0,0E0,0E0,0E0,0E0,0E0,0E0,0E0],"parents":[2147483647,0,0,1,1,2,2,3,3,4,4,5,5,6,6],"right_children":[2,4,6,8,10,12,14,-1,-1,-1,-1,-1,-1,-1,-1],"split_conditions":[8E1,4.51E0,7.4E1,1.7E1,4.8E0,5.6E1,7E1,3.2856704E-3,1.7333103E-3,-8.3379477E-4,1.7281866E-3,-5.000987E-3,-2.1516297E-3,1.4411613E-3,-3.6457187E-4],"split_indices":[92,38,36,2,94,36,37,0,0,0,0,0,0,0,0],"split_type":[0,0,0,0,0,0,0,0,0,0,0,0,0,0,0],"sum_hessian":[4.666817E3,2.1553787E3,2.5114382E3,1.5433857E3,6.119929E2,6.7494885E2,1.8364895E3,9.769039E2,5.664818E2,3.9799866E2,2.139943E2,1.1447319E2,5.604757E2,4.5349118E2,1.3829983E3],"tree_param":{"num_deleted":"0","num_feature":"114","num_nodes":"15","size_leaf_vector":"1"}},{"base_weights":[-5.5154108E-2,-1.9446698E-1,6.4434595E-2,-2.6903978E-1,-6.2786615E-3,2.6154137E-1,-8.105384E-3,-3.188738E-3,-1.5887166E-3,4.841263E-4,-2.7599595E-3,4.952288E-3,2.1302223E-3,5.261469E-4,-1.0662321E-3],"categories":[],"categories_nodes":[],"categories_segments":[],"categories_sizes":[],"default_left":[0,0,0,0,0,0,0,0,0,0,0,0,0,0,0],"id":8,"left_children":[1,3,5,7,9,11,13,-1,-1,-1,-1,-1,-1,-1,-1],"loss_changes":[7.77772E1,3.0259048E1,3.5924595E1,8.427742E0,9.055662E0,7.5581856E0,1.0997442E1,0E0,0E0,0E0,0E0,0E0,0E0,0E0,0E0],"parents":[2147483647,0,0,1,1,2,2,3,3,4,4,5,5,6,6],"right_children":[2,4,6,8,10,12,14,-1,-1,-1,-1,-1,-1,-1,-1],"split_conditions":[8E1,4.51E0,7.4E1,1.8E1,7.68E2,5.6E1,7.4E1,-3.188738E-3,-1.5887166E-3,4.841263E-4,-2.7599595E-3,4.952288E-3,2.1302223E-3,5.261469E-4,-1.0662321E-3],"split_indices":[92,38,36,2,98,36,93,0,0,0,0,0,0,0,0],"split_type":[0,0,0,0,0,0,0,0,0,0,0,0,0,0,0],"sum_hessian":[4.666678E3,2.1552866E3,2.5113914E3,1.5432988E3,6.119879E2,6.7491003E2,1.8364814E3,1.0613209E3,4.819778E2,5.0949646E2,1.0249144E2,1.1445281E2,5.604572E2,1.1364886E3,6.999928E2],"tree_param":{"num_deleted":"0","num_feature":"114","num_nodes":"15","size_leaf_vector":"1"}},{"base_weights":[5.5154122E-2,1.9446692E-1,-6.443453E-2,2.690397E-1,6.2786615E-3,-2.6154134E-1,8.1054745E-3,3.188737E-3,1.5887157E-3,-4.841263E-4,2.7599595E-3,-4.952288E-3,-2.130222E-3,-5.26146E-4,1.0662329E-3],"categories":[],"categories_nodes":[],"categories_segments":[],"categories_sizes":[],"default_left":[0,0,0,0,0,0,0,0,0,0,0,0,0,0,0],"id":9,"left_children":[1,3,5,7,9,11,13,-1,-1,-1,-1,-1,-1,-1,-1],"loss_changes":[7.7777115E1,3.025904E1,3.5924614E1,8.427719E0,9.055662E0,7.5581894E0,1.0997442E1,0E0,0E0,0E0,0E0,0E0,0E0,0E0,0E0],"parents":[2147483647,0,0,1,1,2,2,3,3,4,4,5,5,6,6],"right_children":[2,4,6,8,10,12,14,-1,-1,-1,-1,-1,-1,-1,-1],"split_conditions":[8E1,4.51E0,7.4E1,1.8E1,7.68E2,5.6E1,7.4E1,3.188737E-3,1.5887157E-3,-4.841263E-4,2.7599595E-3,-4.952288E-3,-2.130222E-3,-5.26146E-4,1.0662329E-3],"split_indices":[92,38,36,2,98,36,93,0,0,0,0,0,0,0,0],"split_type":[0,0,0,0,0,0,0,0,0,0,0,0,0,0,0],"sum_hessian":[4.666678E3,2.1552869E3,2.5113914E3,1.5432988E3,6.119879E2,6.7491E2,1.8364814E3,1.061321E3,4.8197784E2,5.0949646E2,1.0249144E2,1.1445281E2,5.6045715E2,1.1364886E3,6.999928E2],"tree_param":{"num_deleted":"0","num_feature":"114","num_nodes":"15","size_leaf_vector":"1"}},{"base_weights":[-5.460464E-2,-1.9253604E-1,6.379415E-2,-2.663715E-1,-6.2196706E-3,2.589554E-1,-8.024657E-3,-2.1542103E-3,-3.7316533E-3,8.2065456E-4,-1.7004127E-3,4.391269E-3,1.970984E-3,-1.4258724E-3,3.6169472E-4],"categories":[],"categories_nodes":[],"categories_segments":[],"categories_sizes":[],"default_left":[0,0,0,0,0,0,0,0,0,0,0,0,0,0,0],"id":10,"left_children":[1,3,5,7,9,11,13,-1,-1,-1,-1,-1,-1,-1,-1],"loss_changes":[7.6236984E1,2.9660233E1,3.5215668E1,8.321846E0,8.879506E0,7.4458275E0,1.0932425E1,0E0,0E0,0E0,0E0,0E0,0E0,0E0,0E0],"parents":[2147483647,0,0,1,1,2,2,3,3,4,4,5,5,6,6],"right_children":[2,4,6,8,10,12,14,-1,-1,-1,-1,-1,-1,-1,-1],"split_conditions":[8E1,4.51E0,7.4E1,1.41E0,4.8E0,3E1,7E1,-2.1542103E-3,-3.7316533E-3,8.2065456E-4,-1.7004127E-3,4.391269E-3,1.970984E-3,-1.4258724E-3,3.6169472E-4],"split_indices":[92,38,36,101,94,46,37,0,0,0,0,0,0,0,0],"split_type":[0,0,0,0,0,0,0,0,0,0,0,0,0,0,0],"sum_hessian":[4.6665107E3,2.15517E3,2.5113408E3,1.5431888E3,6.119811E2,6.7486084E2,1.8364801E3,1.0467909E3,4.9639795E2,3.9799603E2,2.1398503E2,1.7092032E2,5.039405E2,4.5348367E2,1.3829965E3],"tree_param":{"num_deleted":"0","num_feature":"114","num_nodes":"15","size_leaf_vector":"1"}},{"base_weights":[5.460466E-2,1.9253607E-1,-6.3794136E-2,2.6637152E-1,6.219707E-3,-2.589554E-1,8.024673E-3,2.1542106E-3,3.7316536E-3,-8.206536E-4,1.7004121E-3,-4.391269E-3,-1.970984E-3,1.4258719E-3,-3.616944E-4],"categories":[],"categories_nodes":[],"categories_segments":[],"categories_sizes":[],"default_left":[0,0,0,0,0,0,0,0,0,0,0,0,0,0,0],"id":11,"left_children":[1,3,5,7,9,11,13,-1,-1,-1,-1,-1,-1,-1,-1],"loss_changes":[7.6237E1,2.9660233E1,3.5215675E1,8.321846E0,8.879497E0,7.4458275E0,1.0932414E1,0E0,0E0,0E0,0E0,0E0,0E0,0E0,0E0],"parents":[2147483647,0,0,1,1,2,2,3,3,4,4,5,5,6,6],"right_children":[2,4,6,8,10,12,14,-1,-1,-1,-1,-1,-1,-1,-1],"split_conditions":[8E1,4.51E0,7.4E1,1.41E0,4.8E0,3E1,7E1,2.1542106E-3,3.7316536E-3,-8.206536E-4,1.7004121E-3,-4.391269E-3,-1.970984E-3,1.4258719E-3,-3.616944E-4],"split_indices":[92,38,36,101,94,46,37,0,0,0,0,0,0,0,0],"split_type":[0,0,0,0,0,0,0,0,0,0,0,0,0,0,0],"sum_hessian":[4.6665107E3,2.15517E3,2.511341E3,1.5431888E3,6.119811E2,6.7486084E2,1.8364801E3,1.0467909E3,4.9639795E2,3.9799606E2,2.1398503E2,1.7092032E2,5.039405E2,4.534837E2,1.3829965E3],"tree_param":{"num_deleted":"0","num_feature":"114","num_nodes":"15","size_leaf_vector":"1"}},{"base_weights":[-5.4061275E-2,-1.9062565E-1,6.316003E-2,-2.6373303E-1,-6.1590006E-3,2.5639722E-1,-7.945054E-3,-3.1950914E-3,-1.6716804E-3,4.7661448E-4,-2.7160626E-3,4.8619313E-3,2.0870476E-3,5.2163185E-4,-1.0547054E-3],"categories":[],"categories_nodes":[],"categories_segments":[],"categories_sizes":[],"default_left":[0,0,0,0,0,0,0,0,0,0,0,0,0,0,0],"id":12,"left_children":[1,3,5,7,9,11,13,-1,-1,-1,-1,-1,-1,-1,-1],"loss_changes":[7.472753E1,2.9074425E1,3.4521034E1,8.262947E0,8.770181E0,7.3050156E0,1.0776908E1,0E0,0E0,0E0,0E0,0E0,0E0,0E0,0E0],"parents":[2147483647,0,0,1,1,2,2,3,3,4,4,5,5,6,6],"right_children":[2,4,6,8,10,12,14,-1,-1,-1,-1,-1,-1,-1,-1],"split_conditions":[8E1,4.51E0,7.4E1,1.7E1,7.68E2,5.6E1,7.4E1,-3.1950914E-3,-1.6716804E-3,4.7661448E-4,-2.7160626E-3,4.8619313E-3,2.0870476E-3,5.2163185E-4,-1.0547054E-3],"split_indices":[92,38,36,2,98,36,93,0,0,0,0,0,0,0,0],"split_type":[0,0,0,0,0,0,0,0,0,0,0,0,0,0,0],"sum_hessian":[4.6663105E3,2.1550374E3,2.5112732E3,1.5430641E3,6.119732E2,6.748032E2,1.83647E3,9.7664404E2,5.6642004E2,5.0949216E2,1.0248104E2,1.14399414E2,5.604038E2,1.1364825E3,6.999874E2],"tree_param":{"num_deleted":"0","num_feature":"114","num_nodes":"15","size_leaf_vector":"1"}},{"base_weights":[5.4061297E-2,1.9062567E-1,-6.316E-2,2.6373303E-1,6.1590406E-3,-2.5639722E-1,7.9451E-3,3.1950914E-3,1.6716805E-3,-4.7661396E-4,2.7160626E-3,-4.8619313E-3,-2.087048E-3,-5.21631E-4,1.054705E-3],"categories":[],"categories_nodes":[],"categories_segments":[],"categories_sizes":[],"default_left":[0,0,0,0,0,0,0,0,0,0,0,0,0,0,0],"id":13,"left_children":[1,3,5,7,9,11,13,-1,-1,-1,-1,-1,-1,-1,-1],"loss_changes":[7.472752E1,2.9074425E1,3.4521053E1,8.262947E0,8.770178E0,7.3050117E0,1.0776892E1,0E0,0E0,0E0,0E0,0E0,0E0,0E0,0E0],"parents":[2147483647,0,0,1,1,2,2,3,3,4,4,5,5,6,6],"right_children":[2,4,6,8,10,12,14,-1,-1,-1,-1,-1,-1,-1,-1],"split_conditions":[8E1,4.51E0,7.4E1,1.7E1,7.68E2,5.6E1,7.4E1,3.1950914E-3,1.6716805E-3,-4.7661396E-4,2.7160626E-3,-4.8619313E-3,-2.087048E-3,-5.21631E-4,1.054705E-3],"split_indices":[92,38,36,2,98,36,93,0,0,0,0,0,0,0,0],"split_type":[0,0,0,0,0,0,0,0,0,0,0,0,0,0,0],"sum_hessian":[4.6663105E3,2.1550374E3,2.5112732E3,1.5430641E3,6.1197327E2,6.748032E2,1.8364701E3,9.7664404E2,5.6642004E2,5.094922E2,1.0248104E2,1.14399414E2,5.604038E2,1.1364827E3,6.999874E2],"tree_param":{"num_deleted":"0","num_feature":"114","num_nodes":"15","size_leaf_vector":"1"}},{"base_weights":[-5.3523537E-2,-1.8873703E-1,6.253283E-2,-2.6112485E-1,-6.1012288E-3,2.538695E-1,-7.865913E-3,-2.10685E-3,-3.6686047E-3,8.077213E-4,-1.6731179E-3,4.3102554E-3,1.9306873E-3,-1.4107595E-3,3.5883105E-4],"categories":[],"categories_nodes":[],"categories_segments":[],"categories_sizes":[],"default_left":[0,0,0,0,0,0,0,0,0,0,0,0,0,0,0],"id":14,"left_children":[1,3,5,7,9,11,13,-1,-1,-1,-1,-1,-1,-1,-1],"loss_changes":[7.324935E1,2.8500397E1,3.3840992E1,8.156837E0,8.598011E0,7.1952705E0,1.0713466E1,0E0,0E0,0E0,0E0,0E0,0E0,0E0,0E0],"parents":[2147483647,0,0,1,1,2,2,3,3,4,4,5,5,6,6],"right_children":[2,4,6,8,10,12,14,-1,-1,-1,-1,-1,-1,-1,-1],"split_conditions":[8E1,4.51E0,7.4E1,1.41E0,4.8E0,3E1,7E1,-2.10685E-3,-3.6686047E-3,8.077213E-4,-1.6731179E-3,4.3102554E-3,1.9306873E-3,-1.4107595E-3,3.5883105E-4],"split_indices":[92,38,36,101,94,46,37,0,0,0,0,0,0,0,0],"split_type":[0,0,0,0,0,0,0,0,0,0,0,0,0,0,0],"sum_hessian":[4.6660757E3,2.154875E3,2.511201E3,1.5429113E3,6.119637E2,6.747345E2,1.8364664E3,1.0466245E3,4.962867E2,3.979921E2,2.1397156E2,1.7084676E2,5.0388773E2,4.5347366E2,1.3829928E3],"tree_param":{"num_deleted":"0","num_feature":"114","num_nodes":"15","size_leaf_vector":"1"}},{"base_weights":[5.3523526E-2,1.8873699E-1,-6.2532805E-2,2.6112482E-1,6.101173E-3,-2.5386953E-1,7.865949E-3,2.1068489E-3,3.6686053E-3,-8.077225E-4,1.6731184E-3,-4.3102554E-3,-1.9306876E-3,1.4107594E-3,-3.588305E-4],"categories":[],"categories_nodes":[],"categories_segments":[],"categories_sizes":[],"default_left":[0,0,0,0,0,0,0,0,0,0,0,0,0,0,0],"id":15,"left_children":[1,3,5,7,9,11,13,-1,-1,-1,-1,-1,-1,-1,-1],"loss_changes":[7.324933E1,2.8500397E1,3.3841003E1,8.156845E0,8.598023E0,7.1952744E0,1.0713457E1,0E0,0E0,0E0,0E0,0E0,0E0,0E0,0E0],"parents":[2147483647,0,0,1,1,2,2,3,3,4,4,5,5,6,6],"right_children":[2,4,6,8,10,12,14,-1,-1,-1,-1,-1,-1,-1,-1],"split_conditions":[8E1,4.51E0,7.4E1,1.41E0,4.8E0,3E1,7E1,2.1068489E-3,3.6686053E-3,-8.077225E-4,1.6731184E-3,-4.3102554E-3,-1.9306876E-3,1.4107594E-3,-3.588305E-4],"split_indices":[92,38,36,101,94,46,37,0,0,0,0,0,0,0,0],"split_type":[0,0,0,0,0,0,0,0,0,0,0,0,0,0,0],"sum_hessian":[4.666076E3,2.154875E3,2.511201E3,1.5429113E3,6.119637E2,6.7473456E2,1.8364666E3,1.0466246E3,4.962867E2,3.979921E2,2.1397156E2,1.7084676E2,5.0388776E2,4.5347366E2,1.3829928E3],"tree_param":{"num_deleted":"0","num_feature":"114","num_nodes":"15","size_leaf_vector":"1"}},{"base_weights":[-5.2991644E-2,-1.8686816E-1,6.1911803E-2,-2.5854534E-1,-6.0417047E-3,2.5136867E-1,-7.7878716E-3,-3.0746076E-3,-1.504459E-3,4.6921996E-4,-2.6729645E-3,4.7740014E-3,2.0448177E-3,5.171474E-4,-1.0433127E-3],"categories":[],"categories_nodes":[],"categories_segments":[],"categories_sizes":[],"default_left":[0,0,0,0,0,0,0,0,0,0,0,0,0,0,0],"id":16,"left_children":[1,3,5,7,9,11,13,-1,-1,-1,-1,-1,-1,-1,-1],"loss_changes":[7.1800514E1,2.7938728E1,3.3174603E1,8.116646E0,8.493986E0,7.0629463E0,1.0560807E1,0E0,0E0,0E0,0E0,0E0,0E0,0E0,0E0],"parents":[2147483647,0,0,1,1,2,2,3,3,4,4,5,5,6,6],"right_children":[2,4,6,8,10,12,14,-1,-1,-1,-1,-1,-1,-1,-1],"split_conditions":[8E1,4.51E0,7.4E1,1.8E1,7.68E2,5.6E1,7.4E1,-3.0746076E-3,-1.504459E-3,4.6921996E-4,-2.6729645E-3,4.7740014E-3,2.0448177E-3,5.171474E-4,-1.0433127E-3],"split_indices":[92,38,36,2,98,36,93,0,0,0,0,0,0,0,0],"split_type":[0,0,0,0,0,0,0,0,0,0,0,0,0,0,0],"sum_hessian":[4.66581E3,2.1546982E3,2.511112E3,1.542745E3,6.119531E2,6.7465796E2,1.8364541E3,1.0608582E3,4.8188684E2,5.0948633E2,1.02466835E2,1.1432763E2,5.603303E2,1.1364747E3,6.999794E2],"tree_param":{"num_deleted":"0","num_feature":"114","num_nodes":"15","size_leaf_vector":"1"}},{"base_weights":[5.2991625E-2,1.8686813E-1,-6.1911818E-2,2.585453E-1,6.0416646E-3,-2.5136876E-1,7.787885E-3,3.0746076E-3,1.5044586E-3,-4.6922045E-4,2.6729645E-3,-4.7740014E-3,-2.0448188E-3,-5.171472E-4,1.0433127E-3],"categories":[],"categories_nodes":[],"categories_segments":[],"categories_sizes":[],"default_left":[0,0,0,0,0,0,0,0,0,0,0,0,0,0,0],"id":17,"left_children":[1,3,5,7,9,11,13,-1,-1,-1,-1,-1,-1,-1,-1],"loss_changes":[7.1800514E1,2.793872E1,3.3174633E1,8.116653E0,8.493989E0,7.0629425E0,1.0560804E1,0E0,0E0,0E0,0E0,0E0,0E0,0E0,0E0],"parents":[2147483647,0,0,1,1,2,2,3,3,4,4,5,5,6,6],"right_children":[2,4,6,8,10,12,14,-1,-1,-1,-1,-1,-1,-1,-1],"split_conditions":[8E1,4.51E0,7.4E1,1.8E1,7.68E2,5.6E1,7.4E1,3.0746076E-3,1.5044586E-3,-4.6922045E-4,2.6729645E-3,-4.7740014E-3,-2.0448188E-3,-5.171472E-4,1.0433127E-3],"split_indices":[92,38,36,2,98,36,93,0,0,0,0,0,0,0,0],"split_type":[0,0,0,0,0,0,0,0,0,0,0,0,0,0,0],"sum_hessian":[4.66581E3,2.154698E3,2.511112E3,1.542745E3,6.119531E2,6.7465796E2,1.8364541E3,1.0608582E3,4.8188687E2,5.094863E2,1.02466835E2,1.1432763E2,5.603303E2,1.1364747E3,6.999794E2],"tree_param":{"num_deleted":"0","num_feature":"114","num_nodes":"15","size_leaf_vector":"1"}},{"base_weights":[-5.2465193E-2,-1.8502036E-1,6.129753E-2,-2.5599504E-1,-5.9850067E-3,2.488974E-1,-7.710301E-3,-2.0605375E-3,-3.607009E-3,3.7685168E-4,-3.174965E-3,4.2312937E-3,1.8912678E-3,-1.3958224E-3,3.559818E-4],"categories":[],"categories_nodes":[],"categories_segments":[],"categories_sizes":[],"default_left":[0,0,0,0,0,0,0,0,0,0,0,0,0,0,0],"id":18,"left_children":[1,3,5,7,9,11,13,-1,-1,-1,-1,-1,-1,-1,-1],"loss_changes":[7.038158E1,2.738826E1,3.252217E1,7.997139E0,8.350267E0,6.9553413E0,1.0498957E1,0E0,0E0,0E0,0E0,0E0,0E0,0E0,0E0],"parents":[2147483647,0,0,1,1,2,2,3,3,4,4,5,5,6,6],"right_children":[2,4,6,8,10,12,14,-1,-1,-1,-1,-1,-1,-1,-1],"split_conditions":[8E1,4.51E0,7.4E1,1.41E0,7.88E2,3E1,7E1,-2.0605375E-3,-3.607009E-3,3.7685168E-4,-3.174965E-3,4.2312937E-3,1.8912678E-3,-1.3958224E-3,3.559818E-4],"split_indices":[92,38,36,101,98,46,37,0,0,0,0,0,0,0,0],"split_type":[0,0,0,0,0,0,0,0,0,0,0,0,0,0,0],"sum_hessian":[4.665512E3,2.154493E3,2.5110193E3,1.5425519E3,6.11941E2,6.745709E2,1.8364485E3,1.0464143E3,4.9613754E2,5.374728E2,7.446821E1,1.7075095E2,5.0382E2,4.5346115E2,1.3829873E3],"tree_param":{"num_deleted":"0","num_feature":"114","num_nodes":"15","size_leaf_vector":"1"}},{"base_weights":[5.2465197E-2,1.8502037E-1,-6.1297536E-2,2.5599506E-1,5.9849857E-3,-2.4889742E-1,7.710292E-3,2.060538E-3,3.607009E-3,-3.76852E-4,3.174966E-3,-4.231294E-3,-1.8912678E-3,1.3958218E-3,-3.559817E-4],"categories":[],"categories_nodes":[],"categories_segments":[],"categories_sizes":[],"default_left":[0,0,0,0,0,0,0,0,0,0,0,0,0,0,0],"id":19,"left_children":[1,3,5,7,9,11,13,-1,-1,-1,-1,-1,-1,-1,-1],"loss_changes":[7.038159E1,2.7388275E1,3.252217E1,7.9971313E0,8.350273E0,6.955345E0,1.0498947E1,0E0,0E0,0E0,0E0,0E0,0E0,0E0,0E0],"parents":[2147483647,0,0,1,1,2,2,3,3,4,4,5,5,6,6],"right_children":[2,4,6,8,10,12,14,-1,-1,-1,-1,-1,-1,-1,-1],"split_conditions":[8E1,4.51E0,7.4E1,1.41E0,7.88E2,3E1,7E1,2.060538E-3,3.607009E-3,-3.76852E-4,3.174966E-3,-4.231294E-3,-1.8912678E-3,1.3958218E-3,-3.559817E-4],"split_indices":[92,38,36,101,98,46,37,0,0,0,0,0,0,0,0],"split_type":[0,0,0,0,0,0,0,0,0,0,0,0,0,0,0],"sum_hessian":[4.665512E3,2.154493E3,2.5110195E3,1.5425519E3,6.11941E2,6.745709E2,1.8364485E3,1.0464143E3,4.9613754E2,5.374728E2,7.446821E1,1.7075095E2,5.0382E2,4.5346115E2,1.3829873E3],"tree_param":{"num_deleted":"0","num_feature":"114","num_nodes":"15","size_leaf_vector":"1"}},{"base_weights":[-5.1944926E-2,-1.8319266E-1,6.0689256E-2,-2.5347266E-1,-5.9298836E-3,2.4645211E-1,-7.633821E-3,-3.082294E-3,-1.5870966E-3,7.912395E-4,-1.637814E-3,4.6883854E-3,2.0035058E-3,5.1269395E-4,-1.0320544E-3],"categories":[],"categories_nodes":[],"categories_segments":[],"categories_sizes":[],"default_left":[0,0,0,0,0,0,0,0,0,0,0,0,0,0,0],"id":20,"left_children":[1,3,5,7,9,11,13,-1,-1,-1,-1,-1,-1,-1,-1],"loss_changes":[6.899126E1,2.6848991E1,3.1882778E1,7.959366E0,8.242075E0,6.831295E0,1.0349083E1,0E0,0E0,0E0,0E0,0E0,0E0,0E0,0E0],"parents":[2147483647,0,0,1,1,2,2,3,3,4,4,5,5,6,6],"right_children":[2,4,6,8,10,12,14,-1,-1,-1,-1,-1,-1,-1,-1],"split_conditions":[8E1,4.51E0,7.4E1,1.7E1,4.8E0,5.6E1,7.4E1,-3.082294E-3,-1.5870966E-3,7.912395E-4,-1.637814E-3,4.6883854E-3,2.0035058E-3,5.1269395E-4,-1.0320544E-3],"split_indices":[92,38,36,2,94,36,93,0,0,0,0,0,0,0,0],"split_type":[0,0,0,0,0,0,0,0,0,0,0,0,0,0,0],"sum_hessian":[4.6651865E3,2.154276E3,2.510911E3,1.5423464E3,6.119295E2,6.744766E2,1.8364342E3,9.760843E2,5.6626215E2,3.9798514E2,2.1394432E2,1.1423852E2,5.602381E2,1.1364653E3,6.999689E2],"tree_param":{"num_deleted":"0","num_feature":"114","num_nodes":"15","size_leaf_vector":"1"}},{"base_weights":[5.1944945E-2,1.8319269E-1,-6.068924E-2,2.5347272E-1,5.929869E-3,-2.4645214E-1,7.6338514E-3,3.0822952E-3,1.5870964E-3,-7.912395E-4,1.6378135E-3,-4.6883854E-3,-2.003506E-3,-5.1269337E-4,1.0320543E-3],"categories":[],"categories_nodes":[],"categories_segments":[],"categories_sizes":[],"default_left":[0,0,0,0,0,0,0,0,0,0,0,0,0,0,0],"id":21,"left_children":[1,3,5,7,9,11,13,-1,-1,-1,-1,-1,-1,-1,-1],"loss_changes":[6.899127E1,2.6848999E1,3.1882792E1,7.9593887E0,8.242072E0,6.831295E0,1.0349074E1,0E0,0E0,0E0,0E0,0E0,0E0,0E0,0E0],"parents":[2147483647,0,0,1,1,2,2,3,3,4,4,5,5,6,6],"right_children":[2,4,6,8,10,12,14,-1,-1,-1,-1,-1,-1,-1,-1],"split_conditions":[8E1,4.51E0,7.4E1,1.7E1,4.8E0,5.6E1,7.4E1,3.0822952E-3,1.5870964E-3,-7.912395E-4,1.6378135E-3,-4.6883854E-3,-2.003506E-3,-5.1269337E-4,1.0320543E-3],"split_indices":[92,38,36,2,94,36,93,0,0,0,0,0,0,0,0],"split_type":[0,0,0,0,0,0,0,0,0,0,0,0,0,0,0],"sum_hessian":[4.6651865E3,2.154276E3,2.510911E3,1.5423464E3,6.119295E2,6.744767E2,1.8364342E3,9.760842E2,5.6626215E2,3.9798514E2,2.1394432E2,1.1423852E2,5.6023816E2,1.1364653E3,6.999688E2],"tree_param":{"num_deleted":"0","num_feature":"114","num_nodes":"15","size_leaf_vector":"1"}},{"base_weights":[-5.1429316E-2,-1.8138403E-1,6.008754E-2,-2.509787E-1,-5.87207E-3,2.4403538E-1,-7.5578294E-3,-3.0453294E-3,-1.5536954E-3,3.71491E-4,-3.128166E-3,4.154295E-3,1.8526999E-3,-1.3810577E-3,3.5314588E-4],"categories":[],"categories_nodes":[],"categories_segments":[],"categories_sizes":[],"default_left":[0,0,0,0,0,0,0,0,0,0,0,0,0,0,0],"id":22,"left_children":[1,3,5,7,9,11,13,-1,-1,-1,-1,-1,-1,-1,-1],"loss_changes":[6.762877E1,2.6321594E1,3.1256706E1,7.853859E0,8.105242E0,6.7254143E0,1.0288778E1,0E0,0E0,0E0,0E0,0E0,0E0,0E0,0E0],"parents":[2147483647,0,0,1,1,2,2,3,3,4,4,5,5,6,6],"right_children":[2,4,6,8,10,12,14,-1,-1,-1,-1,-1,-1,-1,-1],"split_conditions":[8E1,4.51E0,7.4E1,5.01E2,7.88E2,3E1,7E1,-3.0453294E-3,-1.5536954E-3,3.71491E-4,-3.128166E-3,4.154295E-3,1.8526999E-3,-1.3810577E-3,3.5314588E-4],"split_indices":[92,38,36,43,98,46,37,0,0,0,0,0,0,0,0],"split_type":[0,0,0,0,0,0,0,0,0,0,0,0,0,0,0],"sum_hessian":[4.66483E3,2.1540312E3,2.5107988E3,1.5421156E3,6.1191565E2,6.7437244E2,1.8364264E3,9.870482E2,5.550674E2,5.37464E2,7.4451675E1,1.7063423E2,5.037382E2,4.5344626E2,1.3829801E3],"tree_param":{"num_deleted":"0","num_feature":"114","num_nodes":"15","size_leaf_vector":"1"}},{"base_weights":[5.142928E-2,1.8138403E-1,-6.0087603E-2,2.509787E-1,5.8720857E-3,-2.4403547E-1,7.557777E-3,3.0453294E-3,1.5536952E-3,-3.714908E-4,3.128166E-3,-4.154295E-3,-1.8527011E-3,1.3810568E-3,-3.5314634E-4],"categories":[],"categories_nodes":[],"categories_segments":[],"categories_sizes":[],"default_left":[0,0,0,0,0,0,0,0,0,0,0,0,0,0,0],"id":23,"left_children":[1,3,5,7,9,11,13,-1,-1,-1,-1,-1,-1,-1,-1],"loss_changes":[6.76288E1,2.6321579E1,3.1256718E1,7.8538666E0,8.105241E0,6.7254066E0,1.0288776E1,0E0,0E0,0E0,0E0,0E0,0E0,0E0,0E0],"parents":[2147483647,0,0,1,1,2,2,3,3,4,4,5,5,6,6],"right_children":[2,4,6,8,10,12,14,-1,-1,-1,-1,-1,-1,-1,-1],"split_conditions":[8E1,4.51E0,7.4E1,5.01E2,7.88E2,3E1,7E1,3.0453294E-3,1.5536952E-3,-3.714908E-4,3.128166E-3,-4.154295E-3,-1.8527011E-3,1.3810568E-3,-3.5314634E-4],"split_indices":[92,38,36,43,98,46,37,0,0,0,0,0,0,0,0],"split_type":[0,0,0,0,0,0,0,0,0,0,0,0,0,0,0],"sum_hessian":[4.66483E3,2.1540312E3,2.5107988E3,1.5421156E3,6.1191565E2,6.7437244E2,1.8364264E3,9.870482E2,5.550674E2,5.37464E2,7.4451675E1,1.7063423E2,5.037382E2,4.5344626E2,1.3829801E3],"tree_param":{"num_deleted":"0","num_feature":"114","num_nodes":"15","size_leaf_vector":"1"}},{"base_weights":[-5.0919745E-2,-1.79595E-1,5.949174E-2,-2.485109E-1,-5.818019E-3,2.4164398E-1,-7.4829003E-3,-1.990382E-3,-3.5226056E-3,7.7965384E-4,-1.6132493E-3,4.6049776E-3,1.9630862E-3,5.082702E-4,-1.0209284E-3],"categories":[],"categories_nodes":[],"categories_segments":[],"categories_sizes":[],"default_left":[0,0,0,0,0,0,0,0,0,0,0,0,0,0,0],"id":24,"left_children":[1,3,5,7,9,11,13,-1,-1,-1,-1,-1,-1,-1,-1],"loss_changes":[6.6293755E1,2.5804153E1,3.0643143E1,7.849121E0,7.9980145E0,6.609421E0,1.0141626E1,0E0,0E0,0E0,0E0,0E0,0E0,0E0,0E0],"parents":[2147483647,0,0,1,1,2,2,3,3,4,4,5,5,6,6],"right_children":[2,4,6,8,10,12,14,-1,-1,-1,-1,-1,-1,-1,-1],"split_conditions":[8E1,4.51E0,7.4E1,1.41E0,4.8E0,5.6E1,7.4E1,-1.990382E-3,-3.5226056E-3,7.7965384E-4,-1.6132493E-3,4.6049776E-3,1.9630862E-3,5.082702E-4,-1.0209284E-3],"split_indices":[92,38,36,101,94,36,93,0,0,0,0,0,0,0,0],"split_type":[0,0,0,0,0,0,0,0,0,0,0,0,0,0,0],"sum_hessian":[4.664448E3,2.1537769E3,2.5106714E3,1.541875E3,6.1190186E2,6.742614E2,1.83641E3,1.0460078E3,4.9586716E2,3.9797894E2,2.1392291E2,1.1413311E2,5.601283E2,1.1364542E3,6.999558E2],"tree_param":{"num_deleted":"0","num_feature":"114","num_nodes":"15","size_leaf_vector":"1"}},{"base_weights":[5.091973E-2,1.7959498E-1,-5.9491757E-2,2.4851088E-1,5.8180634E-3,-2.416439E-1,7.4828495E-3,1.9903814E-3,3.5226059E-3,-7.7965297E-4,1.6132488E-3,-4.6049776E-3,-1.9630853E-3,-5.082709E-4,1.0209281E-3],"categories":[],"categories_nodes":[],"categories_segments":[],"categories_sizes":[],"default_left":[0,0,0,0,0,0,0,0,0,0,0,0,0,0,0],"id":25,"left_children":[1,3,5,7,9,11,13,-1,-1,-1,-1,-1,-1,-1,-1],"loss_changes":[6.629377E1,2.5804146E1,3.0643116E1,7.8491135E0,7.9980054E0,6.6094246E0,1.0141632E1,0E0,0E0,0E0,0E0,0E0,0E0,0E0,0E0],"parents":[2147483647,0,0,1,1,2,2,3,3,4,4,5,5,6,6],"right_children":[2,4,6,8,10,12,14,-1,-1,-1,-1,-1,-1,-1,-1],"split_conditions":[8E1,4.51E0,7.4E1,1.41E0,4.8E0,5.6E1,7.4E1,1.9903814E-3,3.5226059E-3,-7.7965297E-4,1.6132488E-3,-4.6049776E-3,-1.9630853E-3,-5.082709E-4,1.0209281E-3],"split_indices":[92,38,36,101,94,36,93,0,0,0,0,0,0,0,0],"split_type":[0,0,0,0,0,0,0,0,0,0,0,0,0,0,0],"sum_hessian":[4.664448E3,2.1537769E3,2.5106714E3,1.541875E3,6.119019E2,6.742615E2,1.83641E3,1.0460079E3,4.9586716E2,3.9797897E2,2.1392291E2,1.1413311E2,5.6012836E2,1.1364542E3,6.999558E2],"tree_param":{"num_deleted":"0","num_feature":"114","num_nodes":"15","size_leaf_vector":"1"}},{"base_weights":[-5.0415013E-2,-1.7782483E-1,5.8902364E-2,-2.4607086E-1,-5.761362E-3,2.3928016E-1,-7.408371E-3,-2.9400447E-3,-1.402027E-3,3.662062E-4,-3.0821883E-3,4.079175E-3,1.8149632E-3,-1.3664631E-3,3.5032455E-4],"categories":[],"categories_nodes":[],"categories_segments":[],"categories_sizes":[],"default_left":[0,0,0,0,0,0,0,0,0,0,0,0,0,0,0],"id":26,"left_children":[1,3,5,7,9,11,13,-1,-1,-1,-1,-1,-1,-1,-1],"loss_changes":[6.4985695E1,2.5298126E1,3.0042282E1,7.78701E0,7.8677154E0,6.5048866E0,1.0082864E1,0E0,0E0,0E0,0E0,0E0,0E0,0E0,0E0],"parents":[2147483647,0,0,1,1,2,2,3,3,4,4,5,5,6,6],"right_children":[2,4,6,8,10,12,14,-1,-1,-1,-1,-1,-1,-1,-1],"split_conditions":[8E1,4.51E0,7.4E1,1.8E1,7.88E2,3E1,7E1,-2.9400447E-3,-1.402027E-3,3.662062E-4,-3.0821883E-3,4.079175E-3,1.8149632E-3,-1.3664631E-3,3.5032455E-4],"split_indices":[92,38,36,2,98,46,37,0,0,0,0,0,0,0,0],"split_type":[0,0,0,0,0,0,0,0,0,0,0,0,0,0,0],"sum_hessian":[4.6640435E3,2.153502E3,2.5105413E3,1.5416162E3,6.1188586E2,6.7414105E2,1.8364003E3,1.0599354E3,4.816808E2,5.374538E2,7.443202E1,1.7049783E2,5.0364325E2,4.5342902E2,1.3829712E3],"tree_param":{"num_deleted":"0","num_feature":"114","num_nodes":"15","size_leaf_vector":"1"}},{"base_weights":[5.0415013E-2,1.7782484E-1,-5.890238E-2,2.4607088E-1,5.7613757E-3,-2.392802E-1,7.4083633E-3,2.940045E-3,1.4020269E-3,-3.6620614E-4,3.0821892E-3,-4.0791756E-3,-1.8149635E-3,1.3664628E-3,-3.5032455E-4],"categories":[],"categories_nodes":[],"categories_segments":[],"categories_sizes":[],"default_left":[0,0,0,0,0,0,0,0,0,0,0,0,0,0,0],"id":27,"left_children":[1,3,5,7,9,11,13,-1,-1,-1,-1,-1,-1,-1,-1],"loss_changes":[6.498571E1,2.529815E1,3.0042286E1,7.78701E0,7.867719E0,6.5048943E0,1.008286E1,0E0,0E0,0E0,0E0,0E0,0E0,0E0,0E0],"parents":[2147483647,0,0,1,1,2,2,3,3,4,4,5,5,6,6],"right_children":[2,4,6,8,10,12,14,-1,-1,-1,-1,-1,-1,-1,-1],"split_conditions":[8E1,4.51E0,7.4E1,1.8E1,7.88E2,3E1,7E1,2.940045E-3,1.4020269E-3,-3.6620614E-4,3.0821892E-3,-4.0791756E-3,-1.8149635E-3,1.3664628E-3,-3.5032455E-4],"split_indices":[92,38,36,2,98,46,37,0,0,0,0,0,0,0,0],"split_type":[0,0,0,0,0,0,0,0,0,0,0,0,0,0,0],"sum_hessian":[4.6640435E3,2.153502E3,2.5105413E3,1.5416162E3,6.1188586E2,6.741411E2,1.8364003E3,1.0599354E3,4.816808E2,5.374538E2,7.443202E1,1.7049782E2,5.0364328E2,4.5342905E2,1.3829712E3],"tree_param":{"num_deleted":"0","num_feature":"114","num_nodes":"15","size_leaf_vector":"1"}},{"base_weights":[-4.9916122E-2,-1.7607446E-1,5.8318723E-2,-2.4365789E-1,-5.708381E-3,2.3694089E-1,-7.334937E-3,9.288472E-4,-2.585108E-3,5.079599E-4,-2.3125897E-3,4.523678E-3,1.9235334E-3,5.03878E-4,-1.0099325E-3],"categories":[],"categories_nodes":[],"categories_segments":[],"categories_sizes":[],"default_left":[0,0,0,0,0,0,0,0,0,0,0,0,0,0,0],"id":28,"left_children":[1,3,5,7,9,11,13,-1,-1,-1,-1,-1,-1,-1,-1],"loss_changes":[6.370411E1,2.4801933E1,2.9453388E1,7.7335815E0,7.822526E0,6.39674E0,9.938371E0,0E0,0E0,0E0,0E0,0E0,0E0,0E0,0E0],"parents":[2147483647,0,0,1,1,2,2,3,3,4,4,5,5,6,6],"right_children":[2,4,6,8,10,12,14,-1,-1,-1,-1,-1,-1,-1,-1],"split_conditions":[8E1,4.51E0,7.4E1,2.64E2,7.23E2,5.6E1,7.4E1,9.288472E-4,-2.585108E-3,5.079599E-4,-2.3125897E-3,4.523678E-3,1.9235334E-3,5.03878E-4,-1.0099325E-3],"split_indices":[92,38,36,97,9,36,93,0,0,0,0,0,0,0,0],"split_type":[0,0,0,0,0,0,0,0,0,0,0,0,0,0,0],"sum_hessian":[4.6635996E3,2.1532031E3,2.5103965E3,1.5413334E3,6.1186993E2,6.740144E2,1.8363821E3,6.492752E1,1.4764058E3,4.8991293E2,1.2195697E2,1.1401238E2,5.600021E2,1.1364415E3,6.999405E2],"tree_param":{"num_deleted":"0","num_feature":"114","num_nodes":"15","size_leaf_vector":"1"}},{"base_weights":[4.9916103E-2,1.7607446E-1,-5.8318753E-2,2.4365789E-1,5.708345E-3,-2.3694089E-1,7.3348973E-3,-9.288474E-4,2.585108E-3,-5.0796027E-4,2.3125894E-3,-4.523678E-3,-1.9235334E-3,-5.0387875E-4,1.0099326E-3],"categories":[],"categories_nodes":[],"categories_segments":[],"categories_sizes":[],"default_left":[0,0,0,0,0,0,0,0,0,0,0,0,0,0,0],"id":29,"left_children":[1,3,5,7,9,11,13,-1,-1,-1,-1,-1,-1,-1,-1],"loss_changes":[6.3704124E1,2.4801949E1,2.9453375E1,7.733574E0,7.8225255E0,6.39674E0,9.938382E0,0E0,0E0,0E0,0E0,0E0,0E0,0E0,0E0],"parents":[2147483647,0,0,1,1,2,2,3,3,4,4,5,5,6,6],"right_children":[2,4,6,8,10,12,14,-1,-1,-1,-1,-1,-1,-1,-1],"split_conditions":[8E1,4.51E0,7.4E1,2.64E2,7.23E2,5.6E1,7.4E1,-9.288474E-4,2.585108E-3,-5.0796027E-4,2.3125894E-3,-4.523678E-3,-1.9235334E-3,-5.0387875E-4,1.0099326E-3],"split_indices":[92,38,36,97,9,36,93,0,0,0,0,0,0,0,0],"split_type":[0,0,0,0,0,0,0,0,0,0,0,0,0,0,0],"sum_hessian":[4.6635996E3,2.1532031E3,2.5103965E3,1.5413333E3,6.118699E2,6.740144E2,1.8363821E3,6.492752E1,1.4764058E3,4.899129E2,1.2195697E2,1.14012375E2,5.600021E2,1.1364415E3,6.999405E2],"tree_param":{"num_deleted":"0","num_feature":"114","num_nodes":"15","size_leaf_vector":"1"}},{"base_weights":[-4.9421098E-2,-1.7433906E-1,5.7741392E-2,-2.412676E-1,-5.654307E-3,2.3462842E-1,-7.2618807E-3,-2.0962006E-3,-4.0089968E-3,7.686139E-4,-1.5882576E-3,6.0246035E-4,2.8841454E-3,-1.3520364E-3,3.4751763E-4],"categories":[],"categories_nodes":[],"categories_segments":[],"categories_sizes":[],"default_left":[0,0,0,0,0,0,0,0,0,0,0,0,0,0,0],"id":30,"left_children":[1,3,5,7,9,11,13,-1,-1,-1,-1,-1,-1,-1,-1],"loss_changes":[6.2446957E1,2.4315933E1,2.887664E1,7.7063217E0,7.7582574E0,6.3125534E0,9.881116E0,0E0,0E0,0E0,0E0,0E0,0E0,0E0,0E0],"parents":[2147483647,0,0,1,1,2,2,3,3,4,4,5,5,6,6],"right_children":[2,4,6,8,10,12,14,-1,-1,-1,-1,-1,-1,-1,-1],"split_conditions":[8E1,4.51E0,7.4E1,1.02E2,4.8E0,1.216E3,7E1,-2.0962006E-3,-4.0089968E-3,7.686139E-4,-1.5882576E-3,6.0246035E-4,2.8841454E-3,-1.3520364E-3,3.4751763E-4],"split_indices":[92,38,36,93,94,44,37,0,0,0,0,0,0,0,0],"split_type":[0,0,0,0,0,0,0,0,0,0,0,0,0,0,0],"sum_hessian":[4.6631616E3,2.152912E3,2.5102493E3,1.5410457E3,6.1186646E2,6.73879E2,1.8363704E3,1.2880073E3,2.530383E2,3.9797156E2,2.1389487E2,1.5935318E2,5.145258E2,4.534096E2,1.3829607E3],"tree_param":{"num_deleted":"0","num_feature":"114","num_nodes":"15","size_leaf_vector":"1"}},{"base_weights":[4.9421087E-2,1.7433904E-1,-5.7741396E-2,2.4126762E-1,5.6542647E-3,-2.3462835E-1,7.2618467E-3,2.0962006E-3,4.0089968E-3,-7.686143E-4,1.5882573E-3,-6.0245954E-4,-2.8841447E-3,1.3520364E-3,-3.475181E-4],"categories":[],"categories_nodes":[],"categories_segments":[],"categories_sizes":[],"default_left":[0,0,0,0,0,0,0,0,0,0,0,0,0,0,0],"id":31,"left_children":[1,3,5,7,9,11,13,-1,-1,-1,-1,-1,-1,-1,-1],"loss_changes":[6.2446953E1,2.431594E1,2.8876616E1,7.7063293E0,7.7582574E0,6.3125534E0,9.881122E0,0E0,0E0,0E0,0E0,0E0,0E0,0E0,0E0],"parents":[2147483647,0,0,1,1,2,2,3,3,4,4,5,5,6,6],"right_children":[2,4,6,8,10,12,14,-1,-1,-1,-1,-1,-1,-1,-1],"split_conditions":[8E1,4.51E0,7.4E1,1.02E2,4.8E0,1.216E3,7E1,2.0962006E-3,4.0089968E-3,-7.686143E-4,1.5882573E-3,-6.0245954E-4,-2.8841447E-3,1.3520364E-3,-3.475181E-4],"split_indices":[92,38,36,93,94,44,37,0,0,0,0,0,0,0,0],"split_type":[0,0,0,0,0,0,0,0,0,0,0,0,0,0,0],"sum_hessian":[4.6631616E3,2.152912E3,2.5102493E3,1.5410457E3,6.1186646E2,6.7387897E2,1.8363704E3,1.2880073E3,2.530383E2,3.979716E2,2.1389488E2,1.5935318E2,5.145258E2,4.534096E2,1.3829607E3],"tree_param":{"num_deleted":"0","num_feature":"114","num_nodes":"15","size_leaf_vector":"1"}},{"base_weights":[-4.8932843E-2,-1.7262484E-1,5.7168435E-2,-2.3890619E-1,-5.5991965E-3,2.3233223E-1,-7.1898825E-3,-2.9197298E-3,-1.4420437E-3,5.03345E-4,-2.2888125E-3,3.9786045E-3,1.7566977E-3,4.995169E-4,-9.99065E-4],"categories":[],"categories_nodes":[],"categories_segments":[],"categories_sizes":[],"default_left":[0,0,0,0,0,0,0,0,0,0,0,0,0,0,0],"id":32,"left_children":[1,3,5,7,9,11,13,-1,-1,-1,-1,-1,-1,-1,-1],"loss_changes":[6.121557E1,2.3840393E1,2.8309916E1,7.705948E0,7.665377E0,6.2587357E0,9.739223E0,0E0,0E0,0E0,0E0,0E0,0E0,0E0,0E0],"parents":[2147483647,0,0,1,1,2,2,3,3,4,4,5,5,6,6],"right_children":[2,4,6,8,10,12,14,-1,-1,-1,-1,-1,-1,-1,-1],"split_conditions":[8E1,4.51E0,7.4E1,5.01E2,7.23E2,3E1,7.4E1,-2.9197298E-3,-1.4420437E-3,5.03345E-4,-2.2888125E-3,3.9786045E-3,1.7566977E-3,4.995169E-4,-9.99065E-4],"split_indices":[92,38,36,43,9,46,93,0,0,0,0,0,0,0,0],"split_type":[0,0,0,0,0,0,0,0,0,0,0,0,0,0,0],"sum_hessian":[4.66269E3,2.1525906E3,2.5100994E3,1.5407422E3,6.1184827E2,6.737491E2,1.8363502E3,9.8609454E2,5.5464764E2,4.898996E2,1.21948654E2,1.7028203E2,5.0346707E2,1.1364274E3,6.999229E2],"tree_param":{"num_deleted":"0","num_feature":"114","num_nodes":"15","size_leaf_vector":"1"}},{"base_weights":[4.8932843E-2,1.7262484E-1,-5.716844E-2,2.3890617E-1,5.5992207E-3,-2.3233224E-1,7.189893E-3,2.9197296E-3,1.4420435E-3,-5.033448E-4,2.288813E-3,-3.9786045E-3,-1.7566981E-3,-4.995168E-4,9.99065E-4],"categories":[],"categories_nodes":[],"categories_segments":[],"categories_sizes":[],"default_left":[0,0,0,0,0,0,0,0,0,0,0,0,0,0,0],"id":33,"left_children":[1,3,5,7,9,11,13,-1,-1,-1,-1,-1,-1,-1,-1],"loss_changes":[6.121557E1,2.3840363E1,2.8309923E1,7.7059555E0,7.6653786E0,6.2587357E0,9.739221E0,0E0,0E0,0E0,0E0,0E0,0E0,0E0,0E0],"parents":[2147483647,0,0,1,1,2,2,3,3,4,4,5,5,6,6],"right_children":[2,4,6,8,10,12,14,-1,-1,-1,-1,-1,-1,-1,-1],"split_conditions":[8E1,4.51E0,7.4E1,5.01E2,7.23E2,3E1,7.4E1,2.9197296E-3,1.4420435E-3,-5.033448E-4,2.288813E-3,-3.9786045E-3,-1.7566981E-3,-4.995168E-4,9.99065E-4],"split_indices":[92,38,36,43,9,46,93,0,0,0,0,0,0,0,0],"split_type":[0,0,0,0,0,0,0,0,0,0,0,0,0,0,0],"sum_hessian":[4.66269E3,2.1525906E3,2.5100994E3,1.5407423E3,6.1184827E2,6.737491E2,1.8363502E3,9.860946E2,5.5464764E2,4.898996E2,1.21948654E2,1.7028203E2,5.0346707E2,1.1364272E3,6.999229E2],"tree_param":{"num_deleted":"0","num_feature":"114","num_nodes":"15","size_leaf_vector":"1"}},{"base_weights":[-4.8448797E-2,-1.7092746E-1,5.660257E-2,-2.3656939E-1,-5.546162E-3,2.300681E-1,-7.1183024E-3,-1.8780424E-3,-3.388867E-3,7.6132856E-4,-1.5717399E-3,4.41796E-3,1.8630272E-3,-1.3377756E-3,3.4472524E-4],"categories":[],"categories_nodes":[],"categories_segments":[],"categories_sizes":[],"default_left":[0,0,0,0,0,0,0,0,0,0,0,0,0,0,0],"id":34,"left_children":[1,3,5,7,9,11,13,-1,-1,-1,-1,-1,-1,-1,-1],"loss_changes":[6.0009014E1,2.337442E1,2.7755972E1,7.6273117E0,7.601915E0,6.1687927E0,9.68345E0,0E0,0E0,0E0,0E0,0E0,0E0,0E0,0E0],"parents":[2147483647,0,0,1,1,2,2,3,3,4,4,5,5,6,6],"right_children":[2,4,6,8,10,12,14,-1,-1,-1,-1,-1,-1,-1,-1],"split_conditions":[8E1,4.51E0,7.4E1,1.41E0,4.8E0,5.6E1,7E1,-1.8780424E-3,-3.388867E-3,7.6132856E-4,-1.5717399E-3,4.41796E-3,1.8630272E-3,-1.3377756E-3,3.4472524E-4],"split_indices":[92,38,36,101,94,36,37,0,0,0,0,0,0,0,0],"split_type":[0,0,0,0,0,0,0,0,0,0,0,0,0,0,0],"sum_hessian":[4.662203E3,2.1522651E3,2.509938E3,1.5404219E3,6.1184326E2,6.7360144E2,1.8363367E3,1.0451376E3,4.9528424E2,3.9796503E2,2.1387828E2,1.13828384E2,5.59773E2,4.5338806E2,1.3829486E3],"tree_param":{"num_deleted":"0","num_feature":"114","num_nodes":"15","size_leaf_vector":"1"}},{"base_weights":[4.8448797E-2,1.7092745E-1,-5.6602567E-2,2.3656936E-1,5.5461926E-3,-2.300681E-1,7.118313E-3,1.8780421E-3,3.3888668E-3,-7.6132827E-4,1.5717401E-3,-4.41796E-3,-1.8630273E-3,1.3377754E-3,-3.4472506E-4],"categories":[],"categories_nodes":[],"categories_segments":[],"categories_sizes":[],"default_left":[0,0,0,0,0,0,0,0,0,0,0,0,0,0,0],"id":35,"left_children":[1,3,5,7,9,11,13,-1,-1,-1,-1,-1,-1,-1,-1],"loss_changes":[6.000901E1,2.3374405E1,2.7755981E1,7.6273117E0,7.6019144E0,6.168789E0,9.683447E0,0E0,0E0,0E0,0E0,0E0,0E0,0E0,0E0],"parents":[2147483647,0,0,1,1,2,2,3,3,4,4,5,5,6,6],"right_children":[2,4,6,8,10,12,14,-1,-1,-1,-1,-1,-1,-1,-1],"split_conditions":[8E1,4.51E0,7.4E1,1.41E0,4.8E0,5.6E1,7E1,1.8780421E-3,3.3888668E-3,-7.6132827E-4,1.5717401E-3,-4.41796E-3,-1.8630273E-3,1.3377754E-3,-3.4472506E-4],"split_indices":[92,38,36,101,94,36,37,0,0,0,0,0,0,0,0],"split_type":[0,0,0,0,0,0,0,0,0,0,0,0,0,0,0],"sum_hessian":[4.662203E3,2.1522651E3,2.509938E3,1.5404219E3,6.1184326E2,6.7360144E2,1.8363365E3,1.0451376E3,4.9528424E2,3.97965E2,2.1387827E2,1.13828384E2,5.597731E2,4.5338803E2,1.3829486E3],"tree_param":{"num_deleted":"0","num_feature":"114","num_nodes":"15","size_leaf_vector":"1"}},{"base_weights":[-4.7970027E-2,-1.3199541E-1,1.02852866E-1,-3.8418703E-2,-2.4751107E-1,2.6398534E-1,4.2434562E-2,-1.4856263E-3,5.2957603E-4,-3.929531E-3,-1.9949577E-3,1.1144145E-3,3.3736583E-3,8.011296E-4,-1.2060327E-3],"categories":[],"categories_nodes":[],"categories_segments":[],"categories_sizes":[],"default_left":[0,0,0,0,0,0,0,0,0,0,0,0,0,0,0],"id":36,"left_children":[1,3,5,7,9,11,13,-1,-1,-1,-1,-1,-1,-1,-1],"loss_changes":[5.9103363E1,3.236376E1,1.623514E1,1.6672104E1,9.28035E0,5.0544453E0,7.4727883E0,0E0,0E0,0E0,0E0,0E0,0E0,0E0,0E0],"parents":[2147483647,0,0,1,1,2,2,3,3,4,4,5,5,6,6],"right_children":[2,4,6,8,10,12,14,-1,-1,-1,-1,-1,-1,-1,-1],"split_conditions":[8.7E1,8.3E1,7.4E1,6.9E1,3.4E1,6.7E1,9.5E1,-1.4856263E-3,5.2957603E-4,-3.929531E-3,-1.9949577E-3,1.1144145E-3,3.3736583E-3,8.011296E-4,-1.2060327E-3],"split_indices":[92,36,36,92,102,51,36,0,0,0,0,0,0,0,0],"split_type":[0,0,0,0,0,0,0,0,0,0,0,0,0,0,0],"sum_hessian":[4.6616694E3,2.99387E3,1.667799E3,1.6547367E3,1.3391335E3,4.5390057E2,1.2138984E3,7.5003156E2,9.0470514E2,3.3058426E2,1.00854926E3,1.4824551E2,3.0565506E2,9.864389E2,2.2745953E2],"tree_param":{"num_deleted":"0","num_feature":"114","num_nodes":"15","size_leaf_vector":"1"}},{"base_weights":[4.7970038E-2,1.3199542E-1,-1.0285286E-1,3.841872E-2,2.4751107E-1,-2.639853E-1,-4.2434555E-2,1.4856266E-3,-5.295758E-4,3.929531E-3,1.9949577E-3,-1.1144144E-3,-3.373658E-3,-8.0112956E-4,1.2060329E-3],"categories":[],"categories_nodes":[],"categories_segments":[],"categories_sizes":[],"default_left":[0,0,0,0,0,0,0,0,0,0,0,0,0,0,0],"id":37,"left_children":[1,3,5,7,9,11,13,-1,-1,-1,-1,-1,-1,-1,-1],"loss_changes":[5.910336E1,3.236376E1,1.6235142E1,1.6672104E1,9.280357E0,5.0544453E0,7.47279E0,0E0,0E0,0E0,0E0,0E0,0E0,0E0,0E0],"parents":[2147483647,0,0,1,1,2,2,3,3,4,4,5,5,6,6],"right_children":[2,4,6,8,10,12,14,-1,-1,-1,-1,-1,-1,-1,-1],"split_conditions":[8.7E1,8.3E1,7.4E1,6.9E1,3.4E1,6.7E1,9.5E1,1.4856266E-3,-5.295758E-4,3.929531E-3,1.9949577E-3,-1.1144144E-3,-3.373658E-3,-8.0112956E-4,1.2060329E-3],"split_indices":[92,36,36,92,102,51,36,0,0,0,0,0,0,0,0],"split_type":[0,0,0,0,0,0,0,0,0,0,0,0,0,0,0],"sum_hessian":[4.661669E3,2.99387E3,1.6677991E3,1.6547367E3,1.3391334E3,4.5390057E2,1.2138984E3,7.5003156E2,9.0470514E2,3.3058423E2,1.00854926E3,1.4824551E2,3.0565506E2,9.864389E2,2.2745955E2],"tree_param":{"num_deleted":"0","num_feature":"114","num_nodes":"15","size_leaf_vector":"1"}},{"base_weights":[-4.7495805E-2,-1.3069269E-1,1.018351E-1,-3.803662E-2,-2.4509074E-1,2.6142347E-1,4.201046E-2,-1.4709124E-3,5.2428775E-4,-3.8920045E-3,-1.975291E-3,8.121183E-5,3.0467212E-3,7.9313386E-4,-1.194064E-3],"categories":[],"categories_nodes":[],"categories_segments":[],"categories_sizes":[],"default_left":[0,0,0,0,0,0,0,0,0,0,0,0,0,0,0],"id":38,"left_children":[1,3,5,7,9,11,13,-1,-1,-1,-1,-1,-1,-1,-1],"loss_changes":[5.7935814E1,3.1731731E1,1.5920288E1,1.6342018E1,9.106644E0,4.97966E0,7.3246646E0,0E0,0E0,0E0,0E0,0E0,0E0,0E0,0E0],"parents":[2147483647,0,0,1,1,2,2,3,3,4,4,5,5,6,6],"right_children":[2,4,6,8,10,12,14,-1,-1,-1,-1,-1,-1,-1,-1],"split_conditions":[8.7E1,8.3E1,7.4E1,6.9E1,3.4E1,7.2E1,9.5E1,-1.4709124E-3,5.2428775E-4,-3.8920045E-3,-1.975291E-3,8.121183E-5,3.0467212E-3,7.9313386E-4,-1.194064E-3],"split_indices":[92,36,36,92,102,103,36,0,0,0,0,0,0,0,0],"split_type":[0,0,0,0,0,0,0,0,0,0,0,0,0,0,0],"sum_hessian":[4.661196E3,2.9935312E3,1.6676644E3,1.6546715E3,1.3388597E3,4.5378275E2,1.2138817E3,7.4996936E2,9.047022E2,3.3044437E2,1.0084154E3,6.63524E1,3.8743036E2,9.864296E2,2.2745212E2],"tree_param":{"num_deleted":"0","num_feature":"114","num_nodes":"15","size_leaf_vector":"1"}},{"base_weights":[4.7495805E-2,1.3069269E-1,-1.0183511E-1,3.803662E-2,2.4509074E-1,-2.6142347E-1,-4.2010467E-2,1.4709122E-3,-5.2428775E-4,3.8920045E-3,1.975291E-3,-8.1211874E-5,-3.0467212E-3,-7.9313386E-4,1.1940638E-3],"categories":[],"categories_nodes":[],"categories_segments":[],"categories_sizes":[],"default_left":[0,0,0,0,0,0,0,0,0,0,0,0,0,0,0],"id":39,"left_children":[1,3,5,7,9,11,13,-1,-1,-1,-1,-1,-1,-1,-1],"loss_changes":[5.793582E1,3.1731735E1,1.5920282E1,1.6342018E1,9.106636E0,4.979664E0,7.3246627E0,0E0,0E0,0E0,0E0,0E0,0E0,0E0,0E0],"parents":[2147483647,0,0,1,1,2,2,3,3,4,4,5,5,6,6],"right_children":[2,4,6,8,10,12,14,-1,-1,-1,-1,-1,-1,-1,-1],"split_conditions":[8.7E1,8.3E1,7.4E1,6.9E1,3.4E1,7.2E1,9.5E1,1.4709122E-3,-5.2428775E-4,3.8920045E-3,1.975291E-3,-8.1211874E-5,-3.0467212E-3,-7.9313386E-4,1.1940638E-3],"split_indices":[92,36,36,92,102,103,36,0,0,0,0,0,0,0,0],"split_type":[0,0,0,0,0,0,0,0,0,0,0,0,0,0,0],"sum_hessian":[4.661196E3,2.9935312E3,1.6676644E3,1.6546715E3,1.3388597E3,4.5378278E2,1.2138817E3,7.499693E2,9.047022E2,3.3044437E2,1.0084154E3,6.63524E1,3.8743036E2,9.8642957E2,2.274521E2],"tree_param":{"num_deleted":"0","num_feature":"114","num_nodes":"15","size_leaf_vector":"1"}},{"base_weights":[-4.7026798E-2,-1.2940364E-1,1.0082686E-1,-3.7658405E-2,-2.4269685E-1,2.58885E-1,4.1590624E-2,3.648974E-4,-1.6915654E-3,-3.8549379E-3,-1.955831E-3,1.0793579E-3,3.3153032E-3,7.852186E-4,-1.1822178E-3],"categories":[],"categories_nodes":[],"categories_segments":[],"categories_sizes":[],"default_left":[0,0,0,0,0,0,0,0,0,0,0,0,0,0,0],"id":40,"left_children":[1,3,5,7,9,11,13,-1,-1,-1,-1,-1,-1,-1,-1],"loss_changes":[5.679123E1,3.111264E1,1.5611254E1,1.6148872E1,8.936836E0,4.9499283E0,7.179491E0,0E0,0E0,0E0,0E0,0E0,0E0,0E0,0E0],"parents":[2147483647,0,0,1,1,2,2,3,3,4,4,5,5,6,6],"right_children":[2,4,6,8,10,12,14,-1,-1,-1,-1,-1,-1,-1,-1],"split_conditions":[8.7E1,8.3E1,7.4E1,4.62E0,3.4E1,6.7E1,9.5E1,3.648974E-4,-1.6915654E-3,-3.8549379E-3,-1.955831E-3,1.0793579E-3,3.3153032E-3,7.852186E-4,-1.1822178E-3],"split_indices":[92,36,36,94,102,51,36,0,0,0,0,0,0,0,0],"split_type":[0,0,0,0,0,0,0,0,0,0,0,0,0,0,0],"sum_hessian":[4.6607E3,2.9931743E3,1.6675256E3,1.6546033E3,1.3385709E3,4.536624E2,1.2138633E3,1.0584789E3,5.961244E2,3.3029587E2,1.0082751E3,1.4820145E2,3.0546097E2,9.864192E2,2.2744409E2],"tree_param":{"num_deleted":"0","num_feature":"114","num_nodes":"15","size_leaf_vector":"1"}},{"base_weights":[4.7026787E-2,1.2940362E-1,-1.0082686E-1,3.7658405E-2,2.4269682E-1,-2.5888497E-1,-4.159065E-2,-3.6489745E-4,1.6915654E-3,3.8549374E-3,1.9558307E-3,-1.0793578E-3,-3.3153025E-3,-7.852186E-4,1.1822167E-3],"categories":[],"categories_nodes":[],"categories_segments":[],"categories_sizes":[],"default_left":[0,0,0,0,0,0,0,0,0,0,0,0,0,0,0],"id":41,"left_children":[1,3,5,7,9,11,13,-1,-1,-1,-1,-1,-1,-1,-1],"loss_changes":[5.6791225E1,3.1112633E1,1.5611244E1,1.6148872E1,8.936836E0,4.9499283E0,7.1794825E0,0E0,0E0,0E0,0E0,0E0,0E0,0E0,0E0],"parents":[2147483647,0,0,1,1,2,2,3,3,4,4,5,5,6,6],"right_children":[2,4,6,8,10,12,14,-1,-1,-1,-1,-1,-1,-1,-1],"split_conditions":[8.7E1,8.3E1,7.4E1,4.62E0,3.4E1,6.7E1,9.5E1,-3.6489745E-4,1.6915654E-3,3.8549374E-3,1.9558307E-3,-1.0793578E-3,-3.3153025E-3,-7.852186E-4,1.1822167E-3],"split_indices":[92,36,36,94,102,51,36,0,0,0,0,0,0,0,0],"split_type":[0,0,0,0,0,0,0,0,0,0,0,0,0,0,0],"sum_hessian":[4.6607E3,2.9931743E3,1.6675258E3,1.6546033E3,1.3385709E3,4.536624E2,1.2138633E3,1.0584789E3,5.961244E2,3.3029587E2,1.0082751E3,1.4820146E2,3.0546097E2,9.864192E2,2.2744409E2],"tree_param":{"num_deleted":"0","num_feature":"114","num_nodes":"15","size_leaf_vector":"1"}},{"base_weights":[-4.656242E-2,-1.6472027E-1,5.474813E-2,-2.287363E-1,-3.556233E-3,2.2225623E-1,-6.7391167E-3,1.0137225E-3,-2.4332416E-3,5.1737006E-4,-2.243227E-3,5.1736366E-4,2.7490747E-3,-1.2908017E-3,3.3427734E-4],"categories":[],"categories_nodes":[],"categories_segments":[],"categories_sizes":[],"default_left":[0,0,0,0,0,0,0,0,0,0,0,0,0,0,0],"id":42,"left_children":[1,3,5,7,9,11,13,-1,-1,-1,-1,-1,-1,-1,-1],"loss_changes":[5.5806377E1,2.220089E1,2.5856092E1,7.4413834E0,7.4918175E0,6.0374794E0,9.032397E0,0E0,0E0,0E0,0E0,0E0,0E0,0E0,0E0],"parents":[2147483647,0,0,1,1,2,2,3,3,4,4,5,5,6,6],"right_children":[2,4,6,8,10,12,14,-1,-1,-1,-1,-1,-1,-1,-1],"split_conditions":[8E1,4.51E0,7.4E1,2.64E2,7.23E2,1.216E3,7E1,1.0137225E-3,-2.4332416E-3,5.1737006E-4,-2.243227E-3,5.1736366E-4,2.7490747E-3,-1.2908017E-3,3.3427734E-4],"split_indices":[92,38,36,97,9,44,37,0,0,0,0,0,0,0,0],"split_type":[0,0,0,0,0,0,0,0,0,0,0,0,0,0,0],"sum_hessian":[4.6601855E3,2.1509363E3,2.5092493E3,1.5391505E3,6.117859E2,6.730532E2,1.8361962E3,6.488649E1,1.474264E3,4.8986084E2,1.2192505E2,1.5925664E2,5.1379663E2,4.533029E2,1.3828932E3],"tree_param":{"num_deleted":"0","num_feature":"114","num_nodes":"15","size_leaf_vector":"1"}},{"base_weights":[4.6562396E-2,1.6472024E-1,-5.474815E-2,2.2873627E-1,3.5562292E-3,-2.2225624E-1,6.739087E-3,-1.0137227E-3,2.4332413E-3,-5.173701E-4,2.243227E-3,-5.173641E-4,-2.7490747E-3,1.2908021E-3,-3.3427792E-4],"categories":[],"categories_nodes":[],"categories_segments":[],"categories_sizes":[],"default_left":[0,0,0,0,0,0,0,0,0,0,0,0,0,0,0],"id":43,"left_children":[1,3,5,7,9,11,13,-1,-1,-1,-1,-1,-1,-1,-1],"loss_changes":[5.5806377E1,2.220089E1,2.5856085E1,7.4413834E0,7.491818E0,6.037483E0,9.03241E0,0E0,0E0,0E0,0E0,0E0,0E0,0E0,0E0],"parents":[2147483647,0,0,1,1,2,2,3,3,4,4,5,5,6,6],"right_children":[2,4,6,8,10,12,14,-1,-1,-1,-1,-1,-1,-1,-1],"split_conditions":[8E1,4.51E0,7.4E1,2.64E2,7.23E2,1.216E3,7E1,-1.0137227E-3,2.4332413E-3,-5.173701E-4,2.243227E-3,-5.173641E-4,-2.7490747E-3,1.2908021E-3,-3.3427792E-4],"split_indices":[92,38,36,97,9,44,37,0,0,0,0,0,0,0,0],"split_type":[0,0,0,0,0,0,0,0,0,0,0,0,0,0,0],"sum_hessian":[4.6601855E3,2.1509365E3,2.5092493E3,1.5391505E3,6.117859E2,6.730532E2,1.836196E3,6.488649E1,1.474264E3,4.8986084E2,1.2192506E2,1.5925664E2,5.137966E2,4.533029E2,1.3828932E3],"tree_param":{"num_deleted":"0","num_feature":"114","num_nodes":"15","size_leaf_vector":"1"}},{"base_weights":[-4.6102725E-2,-1.2710574E-1,9.9270865E-2,-3.684556E-2,-2.3859772E-1,2.5417817E-1,4.1244898E-2,-1.4880259E-3,4.7984673E-4,-3.7952752E-3,-1.9212282E-3,3.791813E-5,2.9695863E-3,7.752681E-4,-1.1576917E-3],"categories":[],"categories_nodes":[],"categories_segments":[],"categories_sizes":[],"default_left":[0,0,0,0,0,0,0,0,0,0,0,0,0,0,0],"id":44,"left_children":[1,3,5,7,9,11,13,-1,-1,-1,-1,-1,-1,-1,-1],"loss_changes":[5.4894547E1,3.011433E1,1.4984732E1,1.5728787E1,8.697113E0,4.8664036E0,6.9295573E0,0E0,0E0,0E0,0E0,0E0,0E0,0E0,0E0],"parents":[2147483647,0,0,1,1,2,2,3,3,4,4,5,5,6,6],"right_children":[2,4,6,8,10,12,14,-1,-1,-1,-1,-1,-1,-1,-1],"split_conditions":[8.7E1,8.3E1,7.4E1,6.8E1,3.4E1,7.2E1,9.5E1,-1.4880259E-3,4.7984673E-4,-3.7952752E-3,-1.9212282E-3,3.791813E-5,2.9695863E-3,7.752681E-4,-1.1576917E-3],"split_indices":[92,36,36,92,102,103,36,0,0,0,0,0,0,0,0],"split_type":[0,0,0,0,0,0,0,0,0,0,0,0,0,0,0],"sum_hessian":[4.6596084E3,2.9923687E3,1.6672397E3,1.6543734E3,1.3379952E3,4.5341458E2,1.2138252E3,7.1283527E2,9.4153815E2,3.3003503E2,1.00796014E3,6.632354E1,3.8709103E2,9.863998E2,2.2742543E2],"tree_param":{"num_deleted":"0","num_feature":"114","num_nodes":"15","size_leaf_vector":"1"}},{"base_weights":[4.6102714E-2,1.2710574E-1,-9.927089E-2,3.6845557E-2,2.3859772E-1,-2.541782E-1,-4.1244924E-2,1.4880259E-3,-4.7984679E-4,3.795275E-3,1.9212282E-3,-3.79185E-5,-2.9695865E-3,-7.752682E-4,1.1576907E-3],"categories":[],"categories_nodes":[],"categories_segments":[],"categories_sizes":[],"default_left":[0,0,0,0,0,0,0,0,0,0,0,0,0,0,0],"id":45,"left_children":[1,3,5,7,9,11,13,-1,-1,-1,-1,-1,-1,-1,-1],"loss_changes":[5.4894554E1,3.011433E1,1.49847355E1,1.5728789E1,8.697105E0,4.8664036E0,6.929551E0,0E0,0E0,0E0,0E0,0E0,0E0,0E0,0E0],"parents":[2147483647,0,0,1,1,2,2,3,3,4,4,5,5,6,6],"right_children":[2,4,6,8,10,12,14,-1,-1,-1,-1,-1,-1,-1,-1],"split_conditions":[8.7E1,8.3E1,7.4E1,6.8E1,3.4E1,7.2E1,9.5E1,1.4880259E-3,-4.7984679E-4,3.795275E-3,1.9212282E-3,-3.79185E-5,-2.9695865E-3,-7.752682E-4,1.1576907E-3],"split_indices":[92,36,36,92,102,103,36,0,0,0,0,0,0,0,0],"split_type":[0,0,0,0,0,0,0,0,0,0,0,0,0,0,0],"sum_hessian":[4.6596084E3,2.9923687E3,1.6672399E3,1.6543734E3,1.3379952E3,4.5341458E2,1.2138252E3,7.1283527E2,9.4153815E2,3.3003503E2,1.00796014E3,6.632354E1,3.8709103E2,9.863998E2,2.2742543E2],"tree_param":{"num_deleted":"0","num_feature":"114","num_nodes":"15","size_leaf_vector":"1"}},{"base_weights":[-4.5648098E-2,-1.2585388E-1,9.828913E-2,1.8473744E-2,-1.9438858E-1,2.5171834E-1,4.0832877E-2,7.5148867E-4,-2.1647618E-3,-1.590516E-3,-3.45249E-3,1.0269098E-3,3.2348728E-3,7.675331E-4,-1.1462137E-3],"categories":[],"categories_nodes":[],"categories_segments":[],"categories_sizes":[],"default_left":[0,0,0,0,0,0,0,0,0,0,0,0,0,0,0],"id":46,"left_children":[1,3,5,7,9,11,13,-1,-1,-1,-1,-1,-1,-1,-1],"loss_changes":[5.381079E1,2.9608402E1,1.4694641E1,1.2860058E1,1.0763817E1,4.8255444E0,6.7922354E0,0E0,0E0,0E0,0E0,0E0,0E0,0E0,0E0],"parents":[2147483647,0,0,1,1,2,2,3,3,4,4,5,5,6,6],"right_children":[2,4,6,8,10,12,14,-1,-1,-1,-1,-1,-1,-1,-1],"split_conditions":[8.7E1,1.1E1,7.4E1,9.7E1,1E2,6.7E1,9.5E1,7.5148867E-4,-2.1647618E-3,-1.590516E-3,-3.45249E-3,1.0269098E-3,3.2348728E-3,7.675331E-4,-1.1462137E-3],"split_indices":[92,35,36,93,93,51,36,0,0,0,0,0,0,0,0],"split_type":[0,0,0,0,0,0,0,0,0,0,0,0,0,0,0],"sum_hessian":[4.659052E3,2.9919697E3,1.667082E3,9.635515E2,2.0284181E3,4.532794E2,1.2138026E3,7.768405E2,1.8671098E2,1.6451246E3,3.8329352E2,1.481268E2,3.051526E2,9.863869E2,2.2741574E2],"tree_param":{"num_deleted":"0","num_feature":"114","num_nodes":"15","size_leaf_vector":"1"}},{"base_weights":[4.564809E-2,1.2585387E-1,-9.828915E-2,-1.8473746E-2,1.9438858E-1,-2.517184E-1,-4.0832877E-2,-7.5148867E-4,2.1647618E-3,1.590516E-3,3.45249E-3,-1.0269104E-3,-3.2348735E-3,-7.675331E-4,1.1462137E-3],"categories":[],"categories_nodes":[],"categories_segments":[],"categories_sizes":[],"default_left":[0,0,0,0,0,0,0,0,0,0,0,0,0,0,0],"id":47,"left_children":[1,3,5,7,9,11,13,-1,-1,-1,-1,-1,-1,-1,-1],"loss_changes":[5.3810795E1,2.9608406E1,1.4694653E1,1.2860057E1,1.0763817E1,4.8255444E0,6.7922354E0,0E0,0E0,0E0,0E0,0E0,0E0,0E0,0E0],"parents":[2147483647,0,0,1,1,2,2,3,3,4,4,5,5,6,6],"right_children":[2,4,6,8,10,12,14,-1,-1,-1,-1,-1,-1,-1,-1],"split_conditions":[8.7E1,1.1E1,7.4E1,9.7E1,1E2,6.7E1,9.5E1,-7.5148867E-4,2.1647618E-3,1.590516E-3,3.45249E-3,-1.0269104E-3,-3.2348735E-3,-7.675331E-4,1.1462137E-3],"split_indices":[92,35,36,93,93,51,36,0,0,0,0,0,0,0,0],"split_type":[0,0,0,0,0,0,0,0,0,0,0,0,0,0,0],"sum_hessian":[4.659052E3,2.9919697E3,1.667082E3,9.635515E2,2.0284181E3,4.5327936E2,1.2138026E3,7.768405E2,1.8671098E2,1.6451246E3,3.832935E2,1.4812679E2,3.0515256E2,9.863869E2,2.2741574E2],"tree_param":{"num_deleted":"0","num_feature":"114","num_nodes":"15","size_leaf_vector":"1"}},{"base_weights":[-4.5198012E-2,-1.6020387E-1,5.338106E-2,-2.2277354E-1,-2.7841611E-3,2.1643706E-1,-6.434897E-3,-2.7464968E-3,-1.3026628E-3,5.190175E-4,-2.2115766E-3,4.2473106E-3,1.734859E-3,4.7442215E-4,-9.3864347E-4],"categories":[],"categories_nodes":[],"categories_segments":[],"categories_sizes":[],"default_left":[0,0,0,0,0,0,0,0,0,0,0,0,0,0,0],"id":48,"left_children":[1,3,5,7,9,11,13,-1,-1,-1,-1,-1,-1,-1,-1],"loss_changes":[5.283362E1,2.1184101E1,2.4478966E1,7.3500214E0,7.328862E0,5.952551E0,8.657869E0,0E0,0E0,0E0,0E0,0E0,0E0,0E0,0E0],"parents":[2147483647,0,0,1,1,2,2,3,3,4,4,5,5,6,6],"right_children":[2,4,6,8,10,12,14,-1,-1,-1,-1,-1,-1,-1,-1],"split_conditions":[8E1,4.51E0,7.4E1,5.01E2,7.23E2,5.6E1,7.4E1,-2.7464968E-3,-1.3026628E-3,5.190175E-4,-2.2115766E-3,4.2473106E-3,1.734859E-3,4.7442215E-4,-9.3864347E-4],"split_indices":[92,38,36,43,9,36,93,0,0,0,0,0,0,0,0],"split_type":[0,0,0,0,0,0,0,0,0,0,0,0,0,0,0],"sum_hessian":[4.658457E3,2.1497993E3,2.5086577E3,1.5380536E3,6.1174585E2,6.725886E2,1.8360692E3,9.841782E2,5.538753E2,4.8984048E2,1.21905365E2,1.134616E2,5.59127E2,1.1362991E3,6.9977014E2],"tree_param":{"num_deleted":"0","num_feature":"114","num_nodes":"15","size_leaf_vector":"1"}},{"base_weights":[4.5197997E-2,1.6020386E-1,-5.3381078E-2,2.2277354E-1,2.784143E-3,-2.1643706E-1,6.4348676E-3,2.7464963E-3,1.3026627E-3,-5.1901775E-4,2.2115766E-3,-4.247311E-3,-1.734859E-3,-4.744225E-4,9.3864335E-4],"categories":[],"categories_nodes":[],"categories_segments":[],"categories_sizes":[],"default_left":[0,0,0,0,0,0,0,0,0,0,0,0,0,0,0],"id":49,"left_children":[1,3,5,7,9,11,13,-1,-1,-1,-1,-1,-1,-1,-1],"loss_changes":[5.283362E1,2.1184113E1,2.4478958E1,7.3500137E0,7.328863E0,5.9525547E0,8.657871E0,0E0,0E0,0E0,0E0,0E0,0E0,0E0,0E0],"parents":[2147483647,0,0,1,1,2,2,3,3,4,4,5,5,6,6],"right_children":[2,4,6,8,10,12,14,-1,-1,-1,-1,-1,-1,-1,-1],"split_conditions":[8E1,4.51E0,7.4E1,5.01E2,7.23E2,5.6E1,7.4E1,2.7464963E-3,1.3026627E-3,-5.1901775E-4,2.2115766E-3,-4.247311E-3,-1.734859E-3,-4.744225E-4,9.3864335E-4],"split_indices":[92,38,36,43,9,36,93,0,0,0,0,0,0,0,0],"split_type":[0,0,0,0,0,0,0,0,0,0,0,0,0,0,0],"sum_hessian":[4.658457E3,2.1497993E3,2.508658E3,1.5380536E3,6.1174585E2,6.725886E2,1.8360692E3,9.841782E2,5.538753E2,4.8984048E2,1.21905365E2,1.1346159E2,5.59127E2,1.1362991E3,6.9977014E2],"tree_param":{"num_deleted":"0","num_feature":"114","num_nodes":"15","size_leaf_vector":"1"}},{"base_weights":[-4.4752233E-2,-1.3028438E-1,8.522873E-2,-2.2784442E-1,-2.6445596E-2,2.4144256E-1,2.7829843E-2,-1.6856423E-3,-3.4416984E-3,1.766703E-4,-2.1918213E-3,4.9763597E-3,1.9526335E-3,-8.4005174E-4,6.8950077E-4],"categories":[],"categories_nodes":[],"categories_segments":[],"categories_sizes":[],"default_left":[0,0,0,0,0,0,0,0,0,0,0,0,0,0,0],"id":50,"left_children":[1,3,5,7,9,11,13,-1,-1,-1,-1,-1,-1,-1,-1],"loss_changes":[5.1805786E1,2.8463135E1,1.6577564E1,9.932571E0,1.1587538E1,5.7811146E0,6.23112E0,0E0,0E0,0E0,0E0,0E0,0E0,0E0,0E0],"parents":[2147483647,0,0,1,1,2,2,3,3,4,4,5,5,6,6],"right_children":[2,4,6,8,10,12,14,-1,-1,-1,-1,-1,-1,-1,-1],"split_conditions":[8.6E1,1.28E0,7.4E1,4.66E0,9.9E1,5.5E1,6.59E2,-1.6856423E-3,-3.4416984E-3,1.766703E-4,-2.1918213E-3,4.9763597E-3,1.9526335E-3,-8.4005174E-4,6.8950077E-4],"split_indices":[92,45,36,94,93,36,41,0,0,0,0,0,0,0,0],"split_type":[0,0,0,0,0,0,0,0,0,0,0,0,0,0,0],"sum_hessian":[4.657821E3,2.8092385E3,1.8485823E3,1.4477936E3,1.3614451E3,4.958625E2,1.3527198E3,9.60676E2,4.8711755E2,1.1086182E3,2.5282692E2,7.423649E1,4.21626E2,3.6338257E2,9.893373E2],"tree_param":{"num_deleted":"0","num_feature":"114","num_nodes":"15","size_leaf_vector":"1"}},{"base_weights":[4.4752207E-2,1.3028438E-1,-8.52288E-2,2.2784442E-1,2.6445597E-2,-2.4144259E-1,-2.7829917E-2,1.6856422E-3,3.4416988E-3,-1.7667032E-4,2.1918216E-3,-4.9763597E-3,-1.9526338E-3,8.4005116E-4,-6.895016E-4],"categories":[],"categories_nodes":[],"categories_segments":[],"categories_sizes":[],"default_left":[0,0,0,0,0,0,0,0,0,0,0,0,0,0,0],"id":51,"left_children":[1,3,5,7,9,11,13,-1,-1,-1,-1,-1,-1,-1,-1],"loss_changes":[5.1805817E1,2.8463135E1,1.6577557E1,9.932571E0,1.158754E1,5.7811127E0,6.2311215E0,0E0,0E0,0E0,0E0,0E0,0E0,0E0,0E0],"parents":[2147483647,0,0,1,1,2,2,3,3,4,4,5,5,6,6],"right_children":[2,4,6,8,10,12,14,-1,-1,-1,-1,-1,-1,-1,-1],"split_conditions":[8.6E1,1.28E0,7.4E1,4.66E0,9.9E1,5.5E1,6.59E2,1.6856422E-3,3.4416988E-3,-1.7667032E-4,2.1918216E-3,-4.9763597E-3,-1.9526338E-3,8.4005116E-4,-6.895016E-4],"split_indices":[92,45,36,94,93,36,41,0,0,0,0,0,0,0,0],"split_type":[0,0,0,0,0,0,0,0,0,0,0,0,0,0,0],"sum_hessian":[4.657821E3,2.8092385E3,1.8485823E3,1.4477936E3,1.3614451E3,4.958625E2,1.3527198E3,9.60676E2,4.8711755E2,1.1086182E3,2.5282692E2,7.423649E1,4.21626E2,3.6338257E2,9.893372E2],"tree_param":{"num_deleted":"0","num_feature":"114","num_nodes":"15","size_leaf_vector":"1"}},{"base_weights":[-4.4310663E-2,-1.5722555E-1,5.245501E-2,-2.1876869E-1,-2.462791E-3,2.1259189E-1,-6.260486E-3,1.0743111E-3,-2.3319921E-3,7.885592E-4,-1.4611249E-3,4.5171464E-4,2.6434052E-3,-1.2506753E-3,3.27399E-4],"categories":[],"categories_nodes":[],"categories_segments":[],"categories_sizes":[],"default_left":[0,0,0,0,0,0,0,0,0,0,0,0,0,0,0],"id":52,"left_children":[1,3,5,7,9,11,13,-1,-1,-1,-1,-1,-1,-1,-1],"loss_changes":[5.090516E1,2.0477043E1,2.3594473E1,7.2659683E0,7.1689415E0,5.820755E0,8.515918E0,0E0,0E0,0E0,0E0,0E0,0E0,0E0,0E0],"parents":[2147483647,0,0,1,1,2,2,3,3,4,4,5,5,6,6],"right_children":[2,4,6,8,10,12,14,-1,-1,-1,-1,-1,-1,-1,-1],"split_conditions":[8E1,4.51E0,7.4E1,2.64E2,6.5E1,1.216E3,7E1,1.0743111E-3,-2.3319921E-3,7.885592E-4,-1.4611249E-3,4.5171464E-4,2.6434052E-3,-1.2506753E-3,3.27399E-4],"split_indices":[92,38,36,97,36,44,37,0,0,0,0,0,0,0,0],"split_type":[0,0,0,0,0,0,0,0,0,0,0,0,0,0,0],"sum_hessian":[4.6572085E3,2.148971E3,2.5082373E3,1.5372521E3,6.1171893E2,6.7222723E2,1.8360101E3,6.485146E1,1.4724005E3,3.9089056E2,2.2082835E2,1.5916376E2,5.130635E2,4.5320447E2,1.3828057E3],"tree_param":{"num_deleted":"0","num_feature":"114","num_nodes":"15","size_leaf_vector":"1"}},{"base_weights":[4.4310685E-2,1.5722555E-1,-5.245497E-2,2.1876869E-1,2.4628113E-3,-2.1259189E-1,6.2605403E-3,-1.0743104E-3,2.3319921E-3,-7.8855915E-4,1.4611251E-3,-4.5171482E-4,-2.6434052E-3,1.2506756E-3,-3.2739833E-4],"categories":[],"categories_nodes":[],"categories_segments":[],"categories_sizes":[],"default_left":[0,0,0,0,0,0,0,0,0,0,0,0,0,0,0],"id":53,"left_children":[1,3,5,7,9,11,13,-1,-1,-1,-1,-1,-1,-1,-1],"loss_changes":[5.0905144E1,2.047704E1,2.359449E1,7.2659607E0,7.1689434E0,5.820751E0,8.515914E0,0E0,0E0,0E0,0E0,0E0,0E0,0E0,0E0],"parents":[2147483647,0,0,1,1,2,2,3,3,4,4,5,5,6,6],"right_children":[2,4,6,8,10,12,14,-1,-1,-1,-1,-1,-1,-1,-1],"split_conditions":[8E1,4.51E0,7.4E1,2.64E2,6.5E1,1.216E3,7E1,-1.0743104E-3,2.3319921E-3,-7.8855915E-4,1.4611251E-3,-4.5171482E-4,-2.6434052E-3,1.2506756E-3,-3.2739833E-4],"split_indices":[92,38,36,97,36,44,37,0,0,0,0,0,0,0,0],"split_type":[0,0,0,0,0,0,0,0,0,0,0,0,0,0,0],"sum_hessian":[4.6572085E3,2.148971E3,2.5082373E3,1.5372521E3,6.1171893E2,6.7222723E2,1.8360101E3,6.485146E1,1.4724005E3,3.9089056E2,2.2082835E2,1.5916376E2,5.130635E2,4.5320447E2,1.3828057E3],"tree_param":{"num_deleted":"0","num_feature":"114","num_nodes":"15","size_leaf_vector":"1"}},{"base_weights":[-4.387381E-2,-1.2130891E-1,9.505828E-2,-3.4111857E-2,-2.2909373E-1,2.4276003E-1,3.9813843E-2,3.71156E-4,-1.604952E-3,-3.6594241E-3,-1.8402525E-3,-4.6166348E-5,2.8507647E-3,7.4968726E-4,-1.1233458E-3],"categories":[],"categories_nodes":[],"categories_segments":[],"categories_sizes":[],"default_left":[0,0,0,0,0,0,0,0,0,0,0,0,0,0,0],"id":54,"left_children":[1,3,5,7,9,11,13,-1,-1,-1,-1,-1,-1,-1,-1],"loss_changes":[5.0118458E1,2.8104187E1,1.3596134E1,1.4900991E1,8.181572E0,4.7507057E0,6.505762E0,0E0,0E0,0E0,0E0,0E0,0E0,0E0,0E0],"parents":[2147483647,0,0,1,1,2,2,3,3,4,4,5,5,6,6],"right_children":[2,4,6,8,10,12,14,-1,-1,-1,-1,-1,-1,-1,-1],"split_conditions":[8.7E1,8.3E1,7.4E1,4.62E0,3.4E1,7.2E1,9.5E1,3.71156E-4,-1.604952E-3,-3.6594241E-3,-1.8402525E-3,-4.6166348E-5,2.8507647E-3,7.4968726E-4,-1.1233458E-3],"split_indices":[92,36,36,94,102,103,36,0,0,0,0,0,0,0,0],"split_type":[0,0,0,0,0,0,0,0,0,0,0,0,0,0,0],"sum_hessian":[4.6565483E3,2.9901096E3,1.6664387E3,1.6536426E3,1.336467E3,4.5270102E2,1.2137378E3,1.0580503E3,5.9559235E2,3.293348E2,1.0071322E3,6.625767E1,3.8644333E2,9.863439E2,2.2739389E2],"tree_param":{"num_deleted":"0","num_feature":"114","num_nodes":"15","size_leaf_vector":"1"}},{"base_weights":[4.3873794E-2,1.21308886E-1,-9.505828E-2,3.4111835E-2,2.2909372E-1,-2.4276005E-1,-3.9813846E-2,-3.7115632E-4,1.604952E-3,3.6594241E-3,1.8402524E-3,4.616581E-5,-2.8507647E-3,-7.496875E-4,1.1233464E-3],"categories":[],"categories_nodes":[],"categories_segments":[],"categories_sizes":[],"default_left":[0,0,0,0,0,0,0,0,0,0,0,0,0,0,0],"id":55,"left_children":[1,3,5,7,9,11,13,-1,-1,-1,-1,-1,-1,-1,-1],"loss_changes":[5.0118454E1,2.8104187E1,1.3596138E1,1.4900996E1,8.181564E0,4.7507E0,6.505769E0,0E0,0E0,0E0,0E0,0E0,0E0,0E0,0E0],"parents":[2147483647,0,0,1,1,2,2,3,3,4,4,5,5,6,6],"right_children":[2,4,6,8,10,12,14,-1,-1,-1,-1,-1,-1,-1,-1],"split_conditions":[8.7E1,8.3E1,7.4E1,4.62E0,3.4E1,7.2E1,9.5E1,-3.7115632E-4,1.604952E-3,3.6594241E-3,1.8402524E-3,4.616581E-5,-2.8507647E-3,-7.496875E-4,1.1233464E-3],"split_indices":[92,36,36,94,102,103,36,0,0,0,0,0,0,0,0],"split_type":[0,0,0,0,0,0,0,0,0,0,0,0,0,0,0],"sum_hessian":[4.6565483E3,2.9901096E3,1.6664388E3,1.6536426E3,1.336467E3,4.52701E2,1.2137378E3,1.0580503E3,5.9559235E2,3.293348E2,1.0071322E3,6.625767E1,3.8644333E2,9.8634393E2,2.2739389E2],"tree_param":{"num_deleted":"0","num_feature":"114","num_nodes":"15","size_leaf_vector":"1"}},{"base_weights":[-4.3442003E-2,-1.2011649E-1,9.411967E-2,-3.3773042E-2,-2.268716E-1,2.4042174E-1,3.9416343E-2,3.6744753E-4,-1.5891325E-3,-3.6251221E-3,-1.8221976E-3,9.364349E-4,3.111926E-3,7.4221095E-4,-1.112216E-3],"categories":[],"categories_nodes":[],"categories_segments":[],"categories_sizes":[],"default_left":[0,0,0,0,0,0,0,0,0,0,0,0,0,0,0],"id":56,"left_children":[1,3,5,7,9,11,13,-1,-1,-1,-1,-1,-1,-1,-1],"loss_changes":[4.9129936E1,2.7559021E1,1.3333918E1,1.460676E1,8.032158E0,4.6821117E0,6.37688E0,0E0,0E0,0E0,0E0,0E0,0E0,0E0,0E0],"parents":[2147483647,0,0,1,1,2,2,3,3,4,4,5,5,6,6],"right_children":[2,4,6,8,10,12,14,-1,-1,-1,-1,-1,-1,-1,-1],"split_conditions":[8.7E1,8.3E1,7.4E1,4.62E0,3.4E1,6.7E1,9.5E1,3.6744753E-4,-1.5891325E-3,-3.6251221E-3,-1.8221976E-3,9.364349E-4,3.111926E-3,7.4221095E-4,-1.112216E-3],"split_indices":[92,36,36,94,102,51,36,0,0,0,0,0,0,0,0],"split_type":[0,0,0,0,0,0,0,0,0,0,0,0,0,0,0],"sum_hessian":[4.655911E3,2.989656E3,1.6662554E3,1.6535679E3,1.336088E3,4.52545E2,1.2137103E3,1.0580515E3,5.955165E2,3.29137E2,1.00695105E3,1.479731E2,3.0457193E2,9.863276E2,2.2738274E2],"tree_param":{"num_deleted":"0","num_feature":"114","num_nodes":"15","size_leaf_vector":"1"}},{"base_weights":[4.3442003E-2,1.2011646E-1,-9.411962E-2,3.3773024E-2,2.2687155E-1,-2.4042176E-1,-3.941627E-2,-3.6744776E-4,1.5891325E-3,3.6251226E-3,1.822197E-3,-9.3643554E-4,-3.111926E-3,-7.4221013E-4,1.1122166E-3],"categories":[],"categories_nodes":[],"categories_segments":[],"categories_sizes":[],"default_left":[0,0,0,0,0,0,0,0,0,0,0,0,0,0,0],"id":57,"left_children":[1,3,5,7,9,11,13,-1,-1,-1,-1,-1,-1,-1,-1],"loss_changes":[4.9129906E1,2.7559021E1,1.333393E1,1.4606762E1,8.03215E0,4.68211E0,6.376878E0,0E0,0E0,0E0,0E0,0E0,0E0,0E0,0E0],"parents":[2147483647,0,0,1,1,2,2,3,3,4,4,5,5,6,6],"right_children":[2,4,6,8,10,12,14,-1,-1,-1,-1,-1,-1,-1,-1],"split_conditions":[8.7E1,8.3E1,7.4E1,4.62E0,3.4E1,6.7E1,9.5E1,-3.6744776E-4,1.5891325E-3,3.6251226E-3,1.822197E-3,-9.3643554E-4,-3.111926E-3,-7.4221013E-4,1.1122166E-3],"split_indices":[92,36,36,94,102,51,36,0,0,0,0,0,0,0,0],"split_type":[0,0,0,0,0,0,0,0,0,0,0,0,0,0,0],"sum_hessian":[4.655911E3,2.989656E3,1.6662554E3,1.6535679E3,1.336088E3,4.52545E2,1.2137103E3,1.0580514E3,5.955165E2,3.29137E2,1.00695105E3,1.479731E2,3.0457193E2,9.8632764E2,2.2738274E2],"tree_param":{"num_deleted":"0","num_feature":"114","num_nodes":"15","size_leaf_vector":"1"}},{"base_weights":[-4.3014407E-2,-1.5296546E-1,5.1180836E-2,-2.1334569E-1,-1.2362186E-3,2.0720078E-1,-5.986027E-3,-4.02159E-3,-1.8841092E-3,5.229239E-4,-2.1505312E-3,4.114445E-3,1.6517987E-3,2.5981877E-4,-1.4370893E-3],"categories":[],"categories_nodes":[],"categories_segments":[],"categories_sizes":[],"default_left":[0,0,0,0,0,0,0,0,0,0,0,0,0,0,0],"id":58,"left_children":[1,3,5,7,9,11,13,-1,-1,-1,-1,-1,-1,-1,-1],"loss_changes":[4.8232002E1,1.9684883E1,2.237549E1,7.1605835E0,7.023389E0,5.705551E0,8.090857E0,0E0,0E0,0E0,0E0,0E0,0E0,0E0,0E0],"parents":[2147483647,0,0,1,1,2,2,3,3,4,4,5,5,6,6],"right_children":[2,4,6,8,10,12,14,-1,-1,-1,-1,-1,-1,-1,-1],"split_conditions":[8E1,4.51E0,7.4E1,3.49E0,7.23E2,5.6E1,9.4E1,-4.02159E-3,-1.8841092E-3,5.229239E-4,-2.1505312E-3,4.114445E-3,1.6517987E-3,2.5981877E-4,-1.4370893E-3],"split_indices":[92,38,36,38,9,36,36,0,0,0,0,0,0,0,0],"split_type":[0,0,0,0,0,0,0,0,0,0,0,0,0,0,0],"sum_hessian":[4.6552515E3,2.1476938E3,2.5075574E3,1.5360293E3,6.116646E2,6.717074E2,1.83585E3,1.7742053E2,1.3586088E3,4.8979974E2,1.2186488E2,1.13115425E2,5.58592E2,1.4906543E3,3.4519568E2],"tree_param":{"num_deleted":"0","num_feature":"114","num_nodes":"15","size_leaf_vector":"1"}},{"base_weights":[4.30144E-2,1.5296546E-1,-5.118085E-2,2.1334568E-1,1.2362351E-3,-2.0720081E-1,5.986019E-3,4.02159E-3,1.884109E-3,-5.229237E-4,2.1505314E-3,-4.114445E-3,-1.6517992E-3,-2.598189E-4,1.4370893E-3],"categories":[],"categories_nodes":[],"categories_segments":[],"categories_sizes":[],"default_left":[0,0,0,0,0,0,0,0,0,0,0,0,0,0,0],"id":59,"left_children":[1,3,5,7,9,11,13,-1,-1,-1,-1,-1,-1,-1,-1],"loss_changes":[4.8232006E1,1.9684883E1,2.2375496E1,7.160591E0,7.023389E0,5.7055492E0,8.0908575E0,0E0,0E0,0E0,0E0,0E0,0E0,0E0,0E0],"parents":[2147483647,0,0,1,1,2,2,3,3,4,4,5,5,6,6],"right_children":[2,4,6,8,10,12,14,-1,-1,-1,-1,-1,-1,-1,-1],"split_conditions":[8E1,4.51E0,7.4E1,3.49E0,7.23E2,5.6E1,9.4E1,4.02159E-3,1.884109E-3,-5.229237E-4,2.1505314E-3,-4.114445E-3,-1.6517992E-3,-2.598189E-4,1.4370893E-3],"split_indices":[92,38,36,38,9,36,36,0,0,0,0,0,0,0,0],"split_type":[0,0,0,0,0,0,0,0,0,0,0,0,0,0,0],"sum_hessian":[4.655251E3,2.1476938E3,2.5075574E3,1.5360292E3,6.116646E2,6.717074E2,1.83585E3,1.7742053E2,1.3586086E3,4.8979974E2,1.2186488E2,1.13115425E2,5.58592E2,1.4906543E3,3.4519568E2],"tree_param":{"num_deleted":"0","num_feature":"114","num_nodes":"15","size_leaf_vector":"1"}},{"base_weights":[-4.2591453E-2,-1.179992E-1,9.268265E-2,-2.0957105E-1,-2.0255243E-2,2.360868E-1,3.90983E-2,-1.5307177E-3,-3.3177184E-3,2.024498E-4,-2.1097364E-3,-8.6252585E-5,2.7798351E-3,7.324246E-4,-1.0869667E-3],"categories":[],"categories_nodes":[],"categories_segments":[],"categories_sizes":[],"default_left":[0,0,0,0,0,0,0,0,0,0,0,0,0,0,0],"id":60,"left_children":[1,3,5,7,9,11,13,-1,-1,-1,-1,-1,-1,-1,-1],"loss_changes":[4.750077E1,2.6754978E1,1.2799455E1,1.0605629E1,1.1182652E1,4.649126E0,6.13754E0,0E0,0E0,0E0,0E0,0E0,0E0,0E0,0E0],"parents":[2147483647,0,0,1,1,2,2,3,3,4,4,5,5,6,6],"right_children":[2,4,6,8,10,12,14,-1,-1,-1,-1,-1,-1,-1,-1],"split_conditions":[8.7E1,1.28E0,7.4E1,4.66E0,9.9E1,7.2E1,9.5E1,-1.5307177E-3,-3.3177184E-3,2.024498E-4,-2.1097364E-3,-8.6252585E-5,2.7798351E-3,7.324246E-4,-1.0869667E-3],"split_indices":[92,45,36,94,93,103,36,0,0,0,0,0,0,0,0],"split_type":[0,0,0,0,0,0,0,0,0,0,0,0,0,0,0],"sum_hessian":[4.65454E3,2.988658E3,1.665882E3,1.5424567E3,1.4462012E3,4.5222284E2,1.213659E3,1.0563214E3,4.8613528E2,1.1936221E3,2.5257913E2,6.622242E1,3.8600043E2,9.863038E2,2.2735529E2],"tree_param":{"num_deleted":"0","num_feature":"114","num_nodes":"15","size_leaf_vector":"1"}},{"base_weights":[4.2591456E-2,1.179992E-1,-9.2682645E-2,2.0957105E-1,2.0255243E-2,-2.360868E-1,-3.9098293E-2,1.5307177E-3,3.3177182E-3,-2.0244985E-4,2.1097367E-3,8.6252476E-5,-2.7798351E-3,-7.3242455E-4,1.0869668E-3],"categories":[],"categories_nodes":[],"categories_segments":[],"categories_sizes":[],"default_left":[0,0,0,0,0,0,0,0,0,0,0,0,0,0,0],"id":61,"left_children":[1,3,5,7,9,11,13,-1,-1,-1,-1,-1,-1,-1,-1],"loss_changes":[4.7500767E1,2.6754974E1,1.2799456E1,1.0605629E1,1.1182654E1,4.649122E0,6.1375394E0,0E0,0E0,0E0,0E0,0E0,0E0,0E0,0E0],"parents":[2147483647,0,0,1,1,2,2,3,3,4,4,5,5,6,6],"right_children":[2,4,6,8,10,12,14,-1,-1,-1,-1,-1,-1,-1,-1],"split_conditions":[8.7E1,1.28E0,7.4E1,4.66E0,9.9E1,7.2E1,9.5E1,1.5307177E-3,3.3177182E-3,-2.0244985E-4,2.1097367E-3,8.6252476E-5,-2.7798351E-3,-7.3242455E-4,1.0869668E-3],"split_indices":[92,45,36,94,93,103,36,0,0,0,0,0,0,0,0],"split_type":[0,0,0,0,0,0,0,0,0,0,0,0,0,0,0],"sum_hessian":[4.6545396E3,2.988658E3,1.665882E3,1.5424567E3,1.4462012E3,4.5222284E2,1.213659E3,1.0563214E3,4.8613528E2,1.1936221E3,2.5257913E2,6.622241E1,3.8600043E2,9.863038E2,2.2735527E2],"tree_param":{"num_deleted":"0","num_feature":"114","num_nodes":"15","size_leaf_vector":"1"}},{"base_weights":[-4.217276E-2,-1.1684055E-1,9.176824E-2,-3.2322217E-2,-2.2139612E-1,2.3381867E-1,3.870797E-2,-1.3852944E-3,4.8091376E-4,-3.5433013E-3,-1.7767992E-3,8.874831E-4,3.0382501E-3,7.2512095E-4,-1.0762046E-3],"categories":[],"categories_nodes":[],"categories_segments":[],"categories_sizes":[],"default_left":[0,0,0,0,0,0,0,0,0,0,0,0,0,0,0],"id":62,"left_children":[1,3,5,7,9,11,13,-1,-1,-1,-1,-1,-1,-1,-1],"loss_changes":[4.656433E1,2.6407776E1,1.2553133E1,1.4133926E1,7.701187E0,4.574198E0,6.015967E0,0E0,0E0,0E0,0E0,0E0,0E0,0E0,0E0],"parents":[2147483647,0,0,1,1,2,2,3,3,4,4,5,5,6,6],"right_children":[2,4,6,8,10,12,14,-1,-1,-1,-1,-1,-1,-1,-1],"split_conditions":[8.7E1,8.3E1,7.4E1,6.8E1,3.4E1,6.7E1,9.5E1,-1.3852944E-3,4.8091376E-4,-3.5433013E-3,-1.7767992E-3,8.874831E-4,3.0382501E-3,7.2512095E-4,-1.0762046E-3],"split_indices":[92,36,36,92,102,51,36,0,0,0,0,0,0,0,0],"split_type":[0,0,0,0,0,0,0,0,0,0,0,0,0,0,0],"sum_hessian":[4.653859E3,2.9881753E3,1.6656836E3,1.6531487E3,1.3350267E3,4.5205554E2,1.213628E3,7.1201874E2,9.4113E2,3.2862503E2,1.0064017E3,1.4787988E2,3.0417566E2,9.862854E2,2.2734268E2],"tree_param":{"num_deleted":"0","num_feature":"114","num_nodes":"15","size_leaf_vector":"1"}},{"base_weights":[4.217276E-2,1.1684055E-1,-9.176825E-2,3.2322213E-2,2.2139613E-1,-2.3381868E-1,-3.8707968E-2,1.3852944E-3,-4.8091385E-4,3.5433013E-3,1.7767992E-3,-8.874832E-4,-3.0382504E-3,-7.2512095E-4,1.0762047E-3],"categories":[],"categories_nodes":[],"categories_segments":[],"categories_sizes":[],"default_left":[0,0,0,0,0,0,0,0,0,0,0,0,0,0,0],"id":63,"left_children":[1,3,5,7,9,11,13,-1,-1,-1,-1,-1,-1,-1,-1],"loss_changes":[4.6564335E1,2.640778E1,1.2553136E1,1.4133927E1,7.701187E0,4.574198E0,6.0159683E0,0E0,0E0,0E0,0E0,0E0,0E0,0E0,0E0],"parents":[2147483647,0,0,1,1,2,2,3,3,4,4,5,5,6,6],"right_children":[2,4,6,8,10,12,14,-1,-1,-1,-1,-1,-1,-1,-1],"split_conditions":[8.7E1,8.3E1,7.4E1,6.8E1,3.4E1,6.7E1,9.5E1,1.3852944E-3,-4.8091385E-4,3.5433013E-3,1.7767992E-3,-8.874832E-4,-3.0382504E-3,-7.2512095E-4,1.0762047E-3],"split_indices":[92,36,36,92,102,51,36,0,0,0,0,0,0,0,0],"split_type":[0,0,0,0,0,0,0,0,0,0,0,0,0,0,0],"sum_hessian":[4.653859E3,2.9881753E3,1.6656836E3,1.6531487E3,1.3350267E3,4.5205554E2,1.213628E3,7.1201874E2,9.4112994E2,3.2862503E2,1.0064017E3,1.4787988E2,3.0417566E2,9.862854E2,2.2734267E2],"tree_param":{"num_deleted":"0","num_feature":"114","num_nodes":"15","size_leaf_vector":"1"}},{"base_weights":[-4.175806E-2,-1.4879999E-1,4.9913287E-2,-2.0790163E-1,-4.0026824E-4,2.0195009E-1,-5.752173E-3,-3.9411485E-3,-1.8332779E-3,3.9242275E-4,-2.8395057E-3,3.7906985E-4,2.527222E-3,4.5191144E-4,-8.843436E-4],"categories":[],"categories_nodes":[],"categories_segments":[],"categories_sizes":[],"default_left":[0,0,0,0,0,0,0,0,0,0,0,0,0,0,0],"id":64,"left_children":[1,3,5,7,9,11,13,-1,-1,-1,-1,-1,-1,-1,-1],"loss_changes":[4.567708E1,1.8833382E1,2.1225368E1,6.9551163E0,6.89733E0,5.588541E0,7.7403016E0,0E0,0E0,0E0,0E0,0E0,0E0,0E0,0E0],"parents":[2147483647,0,0,1,1,2,2,3,3,4,4,5,5,6,6],"right_children":[2,4,6,8,10,12,14,-1,-1,-1,-1,-1,-1,-1,-1],"split_conditions":[8E1,4.51E0,7.4E1,3.49E0,7.88E2,1.216E3,7.4E1,-3.9411485E-3,-1.8332779E-3,3.9242275E-4,-2.8395057E-3,3.7906985E-4,2.527222E-3,4.5191144E-4,-8.843436E-4],"split_indices":[92,38,36,38,98,44,93,0,0,0,0,0,0,0,0],"split_type":[0,0,0,0,0,0,0,0,0,0,0,0,0,0,0],"sum_hessian":[4.653148E3,2.1463247E3,2.5068232E3,1.5347103E3,6.116144E2,6.711394E2,1.8356837E3,1.7716536E2,1.3575449E3,5.373502E2,7.426415E1,1.5903827E2,5.1210114E2,1.1361292E3,6.995545E2],"tree_param":{"num_deleted":"0","num_feature":"114","num_nodes":"15","size_leaf_vector":"1"}},{"base_weights":[4.175805E-2,1.4879997E-1,-4.9913306E-2,2.0790163E-1,4.0023497E-4,-2.019501E-1,5.7521523E-3,3.9411485E-3,1.8332779E-3,-3.9242313E-4,2.8395057E-3,-3.7907E-4,-2.527222E-3,-4.5191194E-4,8.8434387E-4],"categories":[],"categories_nodes":[],"categories_segments":[],"categories_sizes":[],"default_left":[0,0,0,0,0,0,0,0,0,0,0,0,0,0,0],"id":65,"left_children":[1,3,5,7,9,11,13,-1,-1,-1,-1,-1,-1,-1,-1],"loss_changes":[4.5677086E1,1.8833385E1,2.1225365E1,6.955124E0,6.8973308E0,5.588543E0,7.7403097E0,0E0,0E0,0E0,0E0,0E0,0E0,0E0,0E0],"parents":[2147483647,0,0,1,1,2,2,3,3,4,4,5,5,6,6],"right_children":[2,4,6,8,10,12,14,-1,-1,-1,-1,-1,-1,-1,-1],"split_conditions":[8E1,4.51E0,7.4E1,3.49E0,7.88E2,1.216E3,7.4E1,3.9411485E-3,1.8332779E-3,-3.9242313E-4,2.8395057E-3,-3.7907E-4,-2.527222E-3,-4.5191194E-4,8.8434387E-4],"split_indices":[92,38,36,38,98,44,93,0,0,0,0,0,0,0,0],"split_type":[0,0,0,0,0,0,0,0,0,0,0,0,0,0,0],"sum_hessian":[4.653148E3,2.1463247E3,2.506823E3,1.5347103E3,6.116144E2,6.711394E2,1.8356836E3,1.7716536E2,1.3575449E3,5.373502E2,7.426415E1,1.5903827E2,5.1210114E2,1.1361292E3,6.995545E2],"tree_param":{"num_deleted":"0","num_feature":"114","num_nodes":"15","size_leaf_vector":"1"}},{"base_weights":[-4.1348446E-2,-1.1460655E-1,9.004562E-2,-3.143412E-2,-2.1753854E-1,2.295966E-1,3.7955586E-2,3.7116997E-4,-1.5313983E-3,-3.3378145E-3,-1.6862778E-3,-1.2369563E-4,2.710615E-3,7.1414333E-4,-1.0687782E-3],"categories":[],"categories_nodes":[],"categories_segments":[],"categories_sizes":[],"default_left":[0,0,0,0,0,0,0,0,0,0,0,0,0,0,0],"id":66,"left_children":[1,3,5,7,9,11,13,-1,-1,-1,-1,-1,-1,-1,-1],"loss_changes":[4.4802452E1,2.5574509E1,1.2104045E1,1.3803804E1,7.535301E0,4.5455647E0,5.8934536E0,0E0,0E0,0E0,0E0,0E0,0E0,0E0,0E0],"parents":[2147483647,0,0,1,1,2,2,3,3,4,4,5,5,6,6],"right_children":[2,4,6,8,10,12,14,-1,-1,-1,-1,-1,-1,-1,-1],"split_conditions":[8.7E1,8.3E1,7.4E1,4.62E0,6.9E1,7.2E1,9.5E1,3.7116997E-4,-1.5313983E-3,-3.3378145E-3,-1.6862778E-3,-1.2369563E-4,2.710615E-3,7.1414333E-4,-1.0687782E-3],"split_indices":[92,36,36,94,92,103,36,0,0,0,0,0,0,0,0],"split_type":[0,0,0,0,0,0,0,0,0,0,0,0,0,0,0],"sum_hessian":[4.6523994E3,2.98709E3,1.6653093E3,1.6528435E3,1.3342466E3,4.517223E2,1.213587E3,1.0577549E3,5.950886E2,3.9341623E2,9.408303E2,6.6187935E1,3.8553433E2,9.862541E2,2.27333E2],"tree_param":{"num_deleted":"0","num_feature":"114","num_nodes":"15","size_leaf_vector":"1"}},{"base_weights":[4.1348446E-2,1.1460655E-1,-9.0045616E-2,3.143411E-2,2.1753854E-1,-2.2959661E-1,-3.7955575E-2,-3.7117008E-4,1.5313983E-3,3.3378145E-3,1.6862779E-3,1.236957E-4,-2.710615E-3,-7.141433E-4,1.0687783E-3],"categories":[],"categories_nodes":[],"categories_segments":[],"categories_sizes":[],"default_left":[0,0,0,0,0,0,0,0,0,0,0,0,0,0,0],"id":67,"left_children":[1,3,5,7,9,11,13,-1,-1,-1,-1,-1,-1,-1,-1],"loss_changes":[4.480245E1,2.557452E1,1.210405E1,1.3803806E1,7.5352936E0,4.5455647E0,5.8934546E0,0E0,0E0,0E0,0E0,0E0,0E0,0E0,0E0],"parents":[2147483647,0,0,1,1,2,2,3,3,4,4,5,5,6,6],"right_children":[2,4,6,8,10,12,14,-1,-1,-1,-1,-1,-1,-1,-1],"split_conditions":[8.7E1,8.3E1,7.4E1,4.62E0,6.9E1,7.2E1,9.5E1,-3.7117008E-4,1.5313983E-3,3.3378145E-3,1.6862779E-3,1.236957E-4,-2.710615E-3,-7.141433E-4,1.0687783E-3],"split_indices":[92,36,36,94,92,103,36,0,0,0,0,0,0,0,0],"split_type":[0,0,0,0,0,0,0,0,0,0,0,0,0,0,0],"sum_hessian":[4.6523994E3,2.98709E3,1.6653093E3,1.6528435E3,1.3342466E3,4.517223E2,1.213587E3,1.0577549E3,5.950886E2,3.9341623E2,9.408303E2,6.6187935E1,3.8553436E2,9.862541E2,2.27333E2],"tree_param":{"num_deleted":"0","num_feature":"114","num_nodes":"15","size_leaf_vector":"1"}},{"base_weights":[-4.094232E-2,-1.4604892E-1,4.9048655E-2,-2.043156E-1,1.775944E-4,1.9841526E-1,-5.610288E-3,-2.544908E-3,-1.1496015E-3,7.955223E-4,-1.4009711E-3,4.0014535E-3,1.5699816E-3,-1.1778156E-3,3.119844E-4],"categories":[],"categories_nodes":[],"categories_segments":[],"categories_sizes":[],"default_left":[0,0,0,0,0,0,0,0,0,0,0,0,0,0,0],"id":68,"left_children":[1,3,5,7,9,11,13,-1,-1,-1,-1,-1,-1,-1,-1],"loss_changes":[4.4015118E1,1.8287212E1,2.047144E1,6.851845E0,6.831572E0,5.5496616E0,7.5866814E0,0E0,0E0,0E0,0E0,0E0,0E0,0E0,0E0],"parents":[2147483647,0,0,1,1,2,2,3,3,4,4,5,5,6,6],"right_children":[2,4,6,8,10,12,14,-1,-1,-1,-1,-1,-1,-1,-1],"split_conditions":[8E1,4.51E0,7.4E1,5.01E2,6.5E1,5.6E1,7E1,-2.544908E-3,-1.1496015E-3,7.955223E-4,-1.4009711E-3,4.0014535E-3,1.5699816E-3,-1.1778156E-3,3.119844E-4],"split_indices":[92,38,36,43,36,36,37,0,0,0,0,0,0,0,0],"split_type":[0,0,0,0,0,0,0,0,0,0,0,0,0,0,0],"sum_hessian":[4.6516694E3,2.145348E3,2.5063213E3,1.5337854E3,6.1156256E2,6.70745E2,1.8355764E3,9.810528E2,5.527326E2,3.908388E2,2.2072379E2,1.1277774E2,5.579673E2,4.5297528E2,1.3826011E3],"tree_param":{"num_deleted":"0","num_feature":"114","num_nodes":"15","size_leaf_vector":"1"}},{"base_weights":[4.0942322E-2,1.4604893E-1,-4.904865E-2,2.043156E-1,-1.7759937E-4,-1.9841525E-1,5.610285E-3,2.544908E-3,1.1496017E-3,-7.955223E-4,1.400971E-3,-4.0014535E-3,-1.5699812E-3,1.1778157E-3,-3.1198448E-4],"categories":[],"categories_nodes":[],"categories_segments":[],"categories_sizes":[],"default_left":[0,0,0,0,0,0,0,0,0,0,0,0,0,0,0],"id":69,"left_children":[1,3,5,7,9,11,13,-1,-1,-1,-1,-1,-1,-1,-1],"loss_changes":[4.4015118E1,1.8287209E1,2.0471434E1,6.851845E0,6.8315716E0,5.5496635E0,7.5866833E0,0E0,0E0,0E0,0E0,0E0,0E0,0E0,0E0],"parents":[2147483647,0,0,1,1,2,2,3,3,4,4,5,5,6,6],"right_children":[2,4,6,8,10,12,14,-1,-1,-1,-1,-1,-1,-1,-1],"split_conditions":[8E1,4.51E0,7.4E1,5.01E2,6.5E1,5.6E1,7E1,2.544908E-3,1.1496017E-3,-7.955223E-4,1.400971E-3,-4.0014535E-3,-1.5699812E-3,1.1778157E-3,-3.1198448E-4],"split_indices":[92,38,36,43,36,36,37,0,0,0,0,0,0,0,0],"split_type":[0,0,0,0,0,0,0,0,0,0,0,0,0,0,0],"sum_hessian":[4.6516694E3,2.145348E3,2.5063213E3,1.5337854E3,6.1156256E2,6.70745E2,1.8355764E3,9.810528E2,5.527326E2,3.9083878E2,2.2072379E2,1.1277773E2,5.579673E2,4.5297528E2,1.3826011E3],"tree_param":{"num_deleted":"0","num_feature":"114","num_nodes":"15","size_leaf_vector":"1"}},{"base_weights":[-4.0539682E-2,-1.1258423E-1,8.8661976E-2,-2.0098017E-1,-1.8315183E-2,3.6799952E-1,6.356855E-2,-2.9245291E-3,-1.2923614E-3,2.0881045E-4,-2.030432E-3,2.299435E-3,4.8627704E-3,-7.636783E-4,9.98214E-4],"categories":[],"categories_nodes":[],"categories_segments":[],"categories_sizes":[],"default_left":[0,0,0,0,0,0,0,0,0,0,0,0,0,0,0],"id":70,"left_children":[1,3,5,7,9,11,13,-1,-1,-1,-1,-1,-1,-1,-1],"loss_changes":[4.3311035E1,2.4886906E1,1.1653785E1,1.0077923E1,1.0478375E1,2.1269875E0,7.7683983E0,0E0,0E0,0E0,0E0,0E0,0E0,0E0,0E0],"parents":[2147483647,0,0,1,1,2,2,3,3,4,4,5,5,6,6],"right_children":[2,4,6,8,10,12,14,-1,-1,-1,-1,-1,-1,-1,-1],"split_conditions":[8.7E1,1.28E0,3E1,1.428E3,9.9E1,9.3E1,6.59E2,-2.9245291E-3,-1.2923614E-3,2.0881045E-4,-2.030432E-3,2.299435E-3,4.8627704E-3,-7.636783E-4,9.98214E-4],"split_indices":[92,45,46,95,93,103,41,0,0,0,0,0,0,0,0],"split_type":[0,0,0,0,0,0,0,0,0,0,0,0,0,0,0],"sum_hessian":[4.6508877E3,2.9859893E3,1.6648984E3,1.5404138E3,1.4455756E3,1.3610672E2,1.5287916E3,6.757563E2,8.6465753E2,1.1932703E3,2.5230524E2,6.416088E1,7.194585E1,3.1433786E2,1.2144539E3],"tree_param":{"num_deleted":"0","num_feature":"114","num_nodes":"15","size_leaf_vector":"1"}},{"base_weights":[4.0539674E-2,1.1258423E-1,-8.8662006E-2,2.0098017E-1,1.8315187E-2,-3.6799955E-1,-6.356858E-2,2.9245291E-3,1.2923614E-3,-2.0881038E-4,2.030432E-3,-2.2994354E-3,-4.8627704E-3,7.6367764E-4,-9.982141E-4],"categories":[],"categories_nodes":[],"categories_segments":[],"categories_sizes":[],"default_left":[0,0,0,0,0,0,0,0,0,0,0,0,0,0,0],"id":71,"left_children":[1,3,5,7,9,11,13,-1,-1,-1,-1,-1,-1,-1,-1],"loss_changes":[4.3311047E1,2.4886898E1,1.1653784E1,1.0077927E1,1.0478374E1,2.1269875E0,7.768393E0,0E0,0E0,0E0,0E0,0E0,0E0,0E0,0E0],"parents":[2147483647,0,0,1,1,2,2,3,3,4,4,5,5,6,6],"right_children":[2,4,6,8,10,12,14,-1,-1,-1,-1,-1,-1,-1,-1],"split_conditions":[8.7E1,1.28E0,3E1,1.428E3,9.9E1,9.3E1,6.59E2,2.9245291E-3,1.2923614E-3,-2.0881038E-4,2.030432E-3,-2.2994354E-3,-4.8627704E-3,7.6367764E-4,-9.982141E-4],"split_indices":[92,45,46,95,93,103,41,0,0,0,0,0,0,0,0],"split_type":[0,0,0,0,0,0,0,0,0,0,0,0,0,0,0],"sum_hessian":[4.6508877E3,2.9859893E3,1.6648984E3,1.5404138E3,1.4455756E3,1.3610672E2,1.5287916E3,6.757563E2,8.6465753E2,1.1932703E3,2.5230524E2,6.416088E1,7.194585E1,3.1433786E2,1.2144539E3],"tree_param":{"num_deleted":"0","num_feature":"114","num_nodes":"15","size_leaf_vector":"1"}},{"base_weights":[-4.014024E-2,-1.1767984E-1,7.7604905E-2,-2.0819353E-1,-2.1537201E-2,3.721134E-1,5.1946737E-2,-1.5264533E-3,-3.1751315E-3,1.9480116E-4,-2.0107336E-3,3.2916511E-3,8.179143E-3,-7.9432875E-4,8.769416E-4],"categories":[],"categories_nodes":[],"categories_segments":[],"categories_sizes":[],"default_left":[0,0,0,0,0,0,0,0,0,0,0,0,0,0,0],"id":72,"left_children":[1,3,5,7,9,11,13,-1,-1,-1,-1,-1,-1,-1,-1],"loss_changes":[4.2473934E1,2.4403332E1,1.394059E1,8.723679E0,1.0028021E1,2.5622902E0,7.9933615E0,0E0,0E0,0E0,0E0,0E0,0E0,0E0,0E0],"parents":[2147483647,0,0,1,1,2,2,3,3,4,4,5,5,6,6],"right_children":[2,4,6,8,10,12,14,-1,-1,-1,-1,-1,-1,-1,-1],"split_conditions":[8.6E1,1.28E0,3E1,4.66E0,9.9E1,3.3E1,6.59E2,-1.5264533E-3,-3.1751315E-3,1.9480116E-4,-2.0107336E-3,3.2916511E-3,8.179143E-3,-7.9432875E-4,8.769416E-4],"split_indices":[92,45,46,94,93,63,41,0,0,0,0,0,0,0,0],"split_type":[0,0,0,0,0,0,0,0,0,0,0,0,0,0,0],"sum_hessian":[4.650174E3,2.8037798E3,1.8463938E3,1.4435662E3,1.3602137E3,1.4688795E2,1.6995059E3,9.5878076E2,4.847853E2,1.1079744E3,2.5223935E2,1.3556595E2,1.1322E1,3.6325223E2,1.3362535E3],"tree_param":{"num_deleted":"0","num_feature":"114","num_nodes":"15","size_leaf_vector":"1"}},{"base_weights":[4.0140234E-2,1.1767983E-1,-7.7604905E-2,2.0819348E-1,2.153721E-2,-3.7211338E-1,-5.1946733E-2,1.5264528E-3,3.1751315E-3,-1.9480105E-4,2.0107336E-3,-3.2916511E-3,-8.179142E-3,7.943291E-4,-8.7694166E-4],"categories":[],"categories_nodes":[],"categories_segments":[],"categories_sizes":[],"default_left":[0,0,0,0,0,0,0,0,0,0,0,0,0,0,0],"id":73,"left_children":[1,3,5,7,9,11,13,-1,-1,-1,-1,-1,-1,-1,-1],"loss_changes":[4.247393E1,2.4403328E1,1.3940592E1,8.723679E0,1.0028019E1,2.5622864E0,7.993365E0,0E0,0E0,0E0,0E0,0E0,0E0,0E0,0E0],"parents":[2147483647,0,0,1,1,2,2,3,3,4,4,5,5,6,6],"right_children":[2,4,6,8,10,12,14,-1,-1,-1,-1,-1,-1,-1,-1],"split_conditions":[8.6E1,1.28E0,3E1,4.66E0,9.9E1,3.3E1,6.59E2,1.5264528E-3,3.1751315E-3,-1.9480105E-4,2.0107336E-3,-3.2916511E-3,-8.179142E-3,7.943291E-4,-8.7694166E-4],"split_indices":[92,45,46,94,93,63,41,0,0,0,0,0,0,0,0],"split_type":[0,0,0,0,0,0,0,0,0,0,0,0,0,0,0],"sum_hessian":[4.6501733E3,2.8037798E3,1.8463937E3,1.4435662E3,1.3602137E3,1.4688794E2,1.6995057E3,9.5878076E2,4.847853E2,1.1079744E3,2.5223935E2,1.3556595E2,1.1321999E1,3.632522E2,1.3362535E3],"tree_param":{"num_deleted":"0","num_feature":"114","num_nodes":"15","size_leaf_vector":"1"}},{"base_weights":[-3.9744142E-2,-1.10442616E-1,8.702546E-2,-2.9428031E-2,-2.1078159E-1,2.2226977E-1,3.6612585E-2,3.7527154E-4,-1.4835437E-3,-3.3936708E-3,-1.6858408E-3,-1.646253E-4,2.6323125E-3,6.91916E-4,-1.0441985E-3],"categories":[],"categories_nodes":[],"categories_segments":[],"categories_sizes":[],"default_left":[0,0,0,0,0,0,0,0,0,0,0,0,0,0,0],"id":74,"left_children":[1,3,5,7,9,11,13,-1,-1,-1,-1,-1,-1,-1,-1],"loss_changes":[4.1688736E1,2.4265968E1,1.1347538E1,1.3169543E1,7.1794586E0,4.424917E0,5.5873632E0,0E0,0E0,0E0,0E0,0E0,0E0,0E0,0E0],"parents":[2147483647,0,0,1,1,2,2,3,3,4,4,5,5,6,6],"right_children":[2,4,6,8,10,12,14,-1,-1,-1,-1,-1,-1,-1,-1],"split_conditions":[8.7E1,8.3E1,7.4E1,4.62E0,3.4E1,7.2E1,9.5E1,3.7527154E-4,-1.4835437E-3,-3.3936708E-3,-1.6858408E-3,-1.646253E-4,2.6323125E-3,6.91916E-4,-1.0441985E-3],"split_indices":[92,36,36,94,102,103,36,0,0,0,0,0,0,0,0],"split_type":[0,0,0,0,0,0,0,0,0,0,0,0,0,0,0],"sum_hessian":[4.6494336E3,2.9849036E3,1.66453E3,1.6521978E3,1.3327059E3,4.510565E2,1.2134735E3,1.0575082E3,5.946896E2,3.2754843E2,1.0051575E3,6.614534E1,3.8491116E2,9.861732E2,2.2730025E2],"tree_param":{"num_deleted":"0","num_feature":"114","num_nodes":"15","size_leaf_vector":"1"}},{"base_weights":[3.974415E-2,1.10442616E-1,-8.702545E-2,2.9428033E-2,2.1078159E-1,-2.2226979E-1,-3.6612563E-2,-3.7527163E-4,1.4835438E-3,3.3936708E-3,1.6858408E-3,1.6462516E-4,-2.6323127E-3,-6.919157E-4,1.0441985E-3],"categories":[],"categories_nodes":[],"categories_segments":[],"categories_sizes":[],"default_left":[0,0,0,0,0,0,0,0,0,0,0,0,0,0,0],"id":75,"left_children":[1,3,5,7,9,11,13,-1,-1,-1,-1,-1,-1,-1,-1],"loss_changes":[4.1688732E1,2.4265968E1,1.134754E1,1.3169546E1,7.1794624E0,4.424917E0,5.5873604E0,0E0,0E0,0E0,0E0,0E0,0E0,0E0,0E0],"parents":[2147483647,0,0,1,1,2,2,3,3,4,4,5,5,6,6],"right_children":[2,4,6,8,10,12,14,-1,-1,-1,-1,-1,-1,-1,-1],"split_conditions":[8.7E1,8.3E1,7.4E1,4.62E0,3.4E1,7.2E1,9.5E1,-3.7527163E-4,1.4835438E-3,3.3936708E-3,1.6858408E-3,1.6462516E-4,-2.6323127E-3,-6.919157E-4,1.0441985E-3],"split_indices":[92,36,36,94,102,103,36,0,0,0,0,0,0,0,0],"split_type":[0,0,0,0,0,0,0,0,0,0,0,0,0,0,0],"sum_hessian":[4.6494336E3,2.9849036E3,1.6645299E3,1.6521978E3,1.3327059E3,4.510565E2,1.2134734E3,1.0575082E3,5.946896E2,3.2754843E2,1.0051575E3,6.614534E1,3.8491116E2,9.8617316E2,2.2730025E2],"tree_param":{"num_deleted":"0","num_feature":"114","num_nodes":"15","size_leaf_vector":"1"}},{"base_weights":[-3.9354257E-2,-1.4082175E-1,4.7474425E-2,-1.9747637E-1,1.2001743E-3,1.9259655E-1,-5.5779475E-3,1.1737373E-3,-2.1144983E-3,5.331018E-4,-2.0708393E-3,3.2036527E-4,2.4236534E-3,2.4595438E-4,-1.3562121E-3],"categories":[],"categories_nodes":[],"categories_segments":[],"categories_sizes":[],"default_left":[0,0,0,0,0,0,0,0,0,0,0,0,0,0,0],"id":76,"left_children":[1,3,5,7,9,11,13,-1,-1,-1,-1,-1,-1,-1,-1],"loss_changes":[4.0971497E1,1.7254013E1,1.9297382E1,6.768734E0,6.6586375E0,5.3539753E0,7.208824E0,0E0,0E0,0E0,0E0,0E0,0E0,0E0,0E0],"parents":[2147483647,0,0,1,1,2,2,3,3,4,4,5,5,6,6],"right_children":[2,4,6,8,10,12,14,-1,-1,-1,-1,-1,-1,-1,-1],"split_conditions":[8E1,4.51E0,7.4E1,2.64E2,7.23E2,1.216E3,9.4E1,1.1737373E-3,-2.1144983E-3,5.331018E-4,-2.0708393E-3,3.2036527E-4,2.4236534E-3,2.4595438E-4,-1.3562121E-3],"split_indices":[92,38,36,97,9,44,36,0,0,0,0,0,0,0,0],"split_type":[0,0,0,0,0,0,0,0,0,0,0,0,0,0,0],"sum_hessian":[4.648655E3,2.143339E3,2.5053157E3,1.5318654E3,6.1147375E2,6.6998224E2,1.8353334E3,6.47827E1,1.4670828E3,4.8970093E2,1.21772835E2,1.5892265E2,5.110596E2,1.4903456E3,3.4498773E2],"tree_param":{"num_deleted":"0","num_feature":"114","num_nodes":"15","size_leaf_vector":"1"}},{"base_weights":[3.935427E-2,1.4082177E-1,-4.7474414E-2,1.9747637E-1,-1.2001797E-3,-1.9259654E-1,5.5779605E-3,-1.1737368E-3,2.1144985E-3,-5.3310196E-4,2.0708395E-3,-3.203646E-4,-2.4236536E-3,-2.459542E-4,1.3562121E-3],"categories":[],"categories_nodes":[],"categories_segments":[],"categories_sizes":[],"default_left":[0,0,0,0,0,0,0,0,0,0,0,0,0,0,0],"id":77,"left_children":[1,3,5,7,9,11,13,-1,-1,-1,-1,-1,-1,-1,-1],"loss_changes":[4.0971493E1,1.7254013E1,1.9297384E1,6.76873E0,6.65864E0,5.353977E0,7.2088223E0,0E0,0E0,0E0,0E0,0E0,0E0,0E0,0E0],"parents":[2147483647,0,0,1,1,2,2,3,3,4,4,5,5,6,6],"right_children":[2,4,6,8,10,12,14,-1,-1,-1,-1,-1,-1,-1,-1],"split_conditions":[8E1,4.51E0,7.4E1,2.64E2,7.23E2,1.216E3,9.4E1,-1.1737368E-3,2.1144985E-3,