{"learner":{"attributes":{},"feature_names":[],"feature_types":[],"gradient_booster":{"model":{"gbtree_model_param":{"num_parallel_tree":"1","num_trees":"1000"},"iteration_indptr":[0,2,4,6,8,10,12,14,16,18,20,22,24,26,28,30,32,34,36,38,40,42,44,46,48,50,52,54,56,58,60,62,64,66,68,70,72,74,76,78,80,82,84,86,88,90,92,94,96,98,100,102,104,106,108,110,112,114,116,118,120,122,124,126,128,130,132,134,136,138,140,142,144,146,148,150,152,154,156,158,160,162,164,166,168,170,172,174,176,178,180,182,184,186,188,190,192,194,196,198,200,202,204,206,208,210,212,214,216,218,220,222,224,226,228,230,232,234,236,238,240,242,244,246,248,250,252,254,256,258,260,262,264,266,268,270,272,274,276,278,280,282,284,286,288,290,292,294,296,298,300,302,304,306,308,310,312,314,316,318,320,322,324,326,328,330,332,334,336,338,340,342,344,346,348,350,352,354,356,358,360,362,364,366,368,370,372,374,376,378,380,382,384,386,388,390,392,394,396,398,400,402,404,406,408,410,412,414,416,418,420,422,424,426,428,430,432,434,436,438,440,442,444,446,448,450,452,454,456,458,460,462,464,466,468,470,472,474,476,478,480,482,484,486,488,490,492,494,496,498,500,502,504,506,508,510,512,514,516,518,520,522,524,526,528,530,532,534,536,538,540,542,544,546,548,550,552,554,556,558,560,562,564,566,568,570,572,574,576,578,580,582,584,586,588,590,592,594,596,598,600,602,604,606,608,610,612,614,616,618,620,622,624,626,628,630,632,634,636,638,640,642,644,646,648,650,652,654,656,658,660,662,664,666,668,670,672,674,676,678,680,682,684,686,688,690,692,694,696,698,700,702,704,706,708,710,712,714,716,718,720,722,724,726,728,730,732,734,736,738,740,742,744,746,748,750,752,754,756,758,760,762,764,766,768,770,772,774,776,778,780,782,784,786,788,790,792,794,796,798,800,802,804,806,808,810,812,814,816,818,820,822,824,826,828,830,832,834,836,838,840,842,844,846,848,850,852,854,856,858,860,862,864,866,868,870,872,874,876,878,880,882,884,886,888,890,892,894,896,898,900,902,904,906,908,910,912,914,916,918,920,922,924,926,928,930,932,934,936,938,940,942,944,946,948,950,952,954,956,958,960,962,964,966,968,970,972,974,976,978,980,982,984,986,988,990,992,994,996,998,1000],"tree_info":[0,1,0,1,0,1,0,1,0,1,0,1,0,1,0,1,0,1,0,1,0,1,0,1,0,1,0,1,0,1,0,1,0,1,0,1,0,1,0,1,0,1,0,1,0,1,0,1,0,1,0,1,0,1,0,1,0,1,0,1,0,1,0,1,0,1,0,1,0,1,0,1,0,1,0,1,0,1,0,1,0,1,0,1,0,1,0,1,0,1,0,1,0,1,0,1,0,1,0,1,0,1,0,1,0,1,0,1,0,1,0,1,0,1,0,1,0,1,0,1,0,1,0,1,0,1,0,1,0,1,0,1,0,1,0,1,0,1,0,1,0,1,0,1,0,1,0,1,0,1,0,1,0,1,0,1,0,1,0,1,0,1,0,1,0,1,0,1,0,1,0,1,0,1,0,1,0,1,0,1,0,1,0,1,0,1,0,1,0,1,0,1,0,1,0,1,0,1,0,1,0,1,0,1,0,1,0,1,0,1,0,1,0,1,0,1,0,1,0,1,0,1,0,1,0,1,0,1,0,1,0,1,0,1,0,1,0,1,0,1,0,1,0,1,0,1,0,1,0,1,0,1,0,1,0,1,0,1,0,1,0,1,0,1,0,1,0,1,0,1,0,1,0,1,0,1,0,1,0,1,0,1,0,1,0,1,0,1,0,1,0,1,0,1,0,1,0,1,0,1,0,1,0,1,0,1,0,1,0,1,0,1,0,1,0,1,0,1,0,1,0,1,0,1,0,1,0,1,0,1,0,1,0,1,0,1,0,1,0,1,0,1,0,1,0,1,0,1,0,1,0,1,0,1,0,1,0,1,0,1,0,1,0,1,0,1,0,1,0,1,0,1,0,1,0,1,0,1,0,1,0,1,0,1,0,1,0,1,0,1,0,1,0,1,0,1,0,1,0,1,0,1,0,1,0,1,0,1,0,1,0,1,0,1,0,1,0,1,0,1,0,1,0,1,0,1,0,1,0,1,0,1,0,1,0,1,0,1,0,1,0,1,0,1,0,1,0,1,0,1,0,1,0,1,0,1,0,1,0,1,0,1,0,1,0,1,0,1,0,1,0,1,0,1,0,1,0,1,0,1,0,1,0,1,0,1,0,1,0,1,0,1,0,1,0,1,0,1,0,1,0,1,0,1,0,1,0,1,0,1,0,1,0,1,0,1,0,1,0,1,0,1,0,1,0,1,0,1,0,1,0,1,0,1,0,1,0,1,0,1,0,1,0,1,0,1,0,1,0,1,0,1,0,1,0,1,0,1,0,1,0,1,0,1,0,1,0,1,0,1,0,1,0,1,0,1,0,1,0,1,0,1,0,1,0,1,0,1,0,1,0,1,0,1,0,1,0,1,0,1,0,1,0,1,0,1,0,1,0,1,0,1,0,1,0,1,0,1,0,1,0,1,0,1,0,1,0,1,0,1,0,1,0,1,0,1,0,1,0,1,0,1,0,1,0,1,0,1,0,1,0,1,0,1,0,1,0,1,0,1,0,1,0,1,0,1,0,1,0,1,0,1,0,1,0,1,0,1,0,1,0,1,0,1,0,1,0,1,0,1,0,1,0,1,0,1,0,1,0,1,0,1,0,1,0,1,0,1,0,1,0,1,0,1,0,1,0,1,0,1,0,1,0,1,0,1,0,1,0,1,0,1,0,1,0,1,0,1,0,1,0,1,0,1,0,1,0,1,0,1,0,1,0,1,0,1,0,1,0,1,0,1,0,1,0,1,0,1,0,1,0,1,0,1,0,1,0,1,0,1,0,1,0,1,0,1,0,1,0,1,0,1,0,1,0,1,0,1,0,1,0,1,0,1,0,1,0,1,0,1,0,1,0,1,0,1,0,1,0,1,0,1,0,1,0,1,0,1,0,1,0,1,0,1,0,1,0,1,0,1,0,1,0,1,0,1,0,1,0,1,0,1,0,1,0,1,0,1,0,1,0,1,0,1,0,1,0,1,0,1,0,1,0,1,0,1,0,1,0,1,0,1,0,1,0,1,0,1,0,1,0,1,0,1,0,1,0,1,0,1,0,1,0,1,0,1,0,1,0,1,0,1,0,1,0,1,0,1,0,1,0,1,0,1,0,1,0,1,0,1,0,1,0,1,0,1,0,1,0,1,0,1,0,1,0,1,0,1,0,1,0,1,0,1,0,1,0,1,0,1,0,1,0,1,0,1,0,1,0,1,0,1,0,1,0,1,0,1,0,1,0,1,0,1,0,1,0,1,0,1,0,1,0,1,0,1,0,1,0,1],"trees":[{"base_weights":[-7.875895E-2,1.748879E-1,-3.6363637E-1,-2.3529412E-1,3.5031846E-1,-5.0617284E-1,2.631579E-1,-5.6603774E-2,-7.647059E-1,5.2136755E-1,-1.4285715E-1,-6.09375E-1,-1.1111111E-1,-9.090909E-2,6.666667E-1,-1.5625E-2,1.5217391E-2,-4.3333333E-2,-0E0,3.2222223E-2,5.1724142E-3,-2.0000001E-2,2.1428572E-2,-3.5454545E-2,-0E0,3.75E-2,-1.6666668E-2,-2.857143E-2,3.0000001E-2,-1.0000001E-2,4.3333333E-2],"categories":[],"categories_nodes":[],"categories_segments":[],"categories_sizes":[],"default_left":[0,0,0,0,0,0,0,0,0,0,0,0,0,0,0,0,0,0,0,0,0,0,0,0,0,0,0,0,0,0,0],"id":0,"left_children":[1,3,5,7,9,11,13,15,17,19,21,23,25,27,29,-1,-1,-1,-1,-1,-1,-1,-1,-1,-1,-1,-1,-1,-1,-1,-1],"loss_changes":[1.52017E1,8.105797E0,8.977967E0,3.173141E0,6.6965227E0,3.2347603E0,2.7751195E0,2.5428119E0,6.62745E-1,2.9423513E0,3.2571428E0,3.8889198E0,3.6944442E0,3.9948053E0,1.7333331E0,0E0,0E0,0E0,0E0,0E0,0E0,0E0,0E0,0E0,0E0,0E0,0E0,0E0,0E0,0E0,0E0],"parents":[2147483647,0,0,1,1,2,2,3,3,4,4,5,5,6,6,7,7,8,8,9,9,10,10,11,11,12,12,13,13,14,14],"right_children":[2,4,6,8,10,12,14,16,18,20,22,24,26,28,30,-1,-1,-1,-1,-1,-1,-1,-1,-1,-1,-1,-1,-1,-1,-1,-1],"split_conditions":[3.9234E1,2E1,6.5E1,2.2E1,3E0,4.83E2,3.5E1,3.6638E1,9E0,5.625E1,2.56E2,6.06E2,1.1E1,2.1176E1,1E1,-1.5625E-2,1.5217391E-2,-4.3333333E-2,-0E0,3.2222223E-2,5.1724142E-3,-2.0000001E-2,2.1428572E-2,-3.5454545E-2,-0E0,3.75E-2,-1.6666668E-2,-2.857143E-2,3.0000001E-2,-1.0000001E-2,4.3333333E-2],"split_indices":[17,33,50,1,16,60,9,17,48,18,34,61,8,57,40,0,0,0,0,0,0,0,0,0,0,0,0,0,0,0,0],"split_type":[0,0,0,0,0,0,0,0,0,0,0,0,0,0,0,0,0,0,0,0,0,0,0,0,0,0,0,0,0,0,0],"sum_hessian":[2.085E2,1.105E2,9.8E1,3.3E1,7.75E1,8E1,1.8E1,2.55E1,7.5E0,5.75E1,2E1,6.3E1,1.7E1,1E1,8E0,1.5E1,1.05E1,6.5E0,1E0,4.4E1,1.35E1,1.4E1,6E0,5.4E1,9E0,3E0,1.4E1,6E0,4E0,1.5E0,6.5E0],"tree_param":{"num_deleted":"0","num_feature":"63","num_nodes":"31","size_leaf_vector":"1"}},{"base_weights":[6.855792E-2,4.5864663E-1,-1.0958904E-1,5.409836E-1,-3.846154E-1,-2.744186E-1,3.4177214E-1,6E-1,-3.3333334E-1,-1.1111111E-1,-3.3333335E-2,-3.5678393E-1,6.666667E-1,-2.2222222E-1,4.920635E-1,3.84058E-2,1.6666668E-2,-3.5714287E-2,2.5E-2,1.6666668E-2,-3.0000001E-2,-2.385621E-2,2.0833334E-3,-0E0,4.2857144E-2,-3.0000001E-2,1.0000001E-2,2.9310346E-2,-2.1428572E-2],"categories":[],"categories_nodes":[],"categories_segments":[],"categories_sizes":[],"default_left":[0,0,0,0,0,0,0,0,0,0,0,0,0,0,0,0,0,0,0,0,0,0,0,0,0,0,0,0,0],"id":1,"left_children":[1,3,5,7,9,11,13,15,17,19,-1,21,23,25,27,-1,-1,-1,-1,-1,-1,-1,-1,-1,-1,-1,-1,-1,-1],"loss_changes":[1.4748056E1,4.8252754E0,1.0955849E1,3.3475418E0,4.2735052E-1,8.570479E0,3.4575043E0,2.3217373E0,1.7857141E0,1.1777778E0,0E0,4.7908707E0,1.1428571E0,1.5555556E0,2.9813905E0,0E0,0E0,0E0,0E0,0E0,0E0,0E0,0E0,0E0,0E0,0E0,0E0,0E0,0E0],"parents":[2147483647,0,0,1,1,2,2,3,3,4,4,5,5,6,6,7,7,8,8,9,9,11,11,12,12,13,13,14,14],"right_children":[2,4,6,8,10,12,14,16,18,20,-1,22,24,26,28,-1,-1,-1,-1,-1,-1,-1,-1,-1,-1,-1,-1,-1,-1],"split_conditions":[1.8529E1,1.19E2,4.87E2,3.9565E1,2.37E2,4.7085E1,8.056E1,2.1E1,2.3E1,2.2E1,-3.3333335E-2,5.8621E1,2.07E2,2.0588E1,6.716E1,3.84058E-2,1.6666668E-2,-3.5714287E-2,2.5E-2,1.6666668E-2,-3.0000001E-2,-2.385621E-2,2.0833334E-3,-0E0,4.2857144E-2,-3.0000001E-2,1.0000001E-2,2.9310346E-2,-2.1428572E-2],"split_indices":[57,21,28,49,2,17,52,46,1,31,0,18,43,25,51,0,0,0,0,0,0,0,0,0,0,0,0,0,0],"split_type":[0,0,0,0,0,0,0,0,0,0,0,0,0,0,0,0,0,0,0,0,0,0,0,0,0,0,0,0,0],"sum_hessian":[2.105E2,6.55E1,1.45E2,6E1,5.5E0,1.065E2,3.85E1,5.65E1,3.5E0,3.5E0,2E0,9.85E1,8E0,8E0,3.05E1,3.35E1,2.3E1,2.5E0,1E0,2E0,1.5E0,7.55E1,2.3E1,2E0,6E0,4E0,4E0,2.8E1,2.5E0],"tree_param":{"num_deleted":"0","num_feature":"63","num_nodes":"29","size_leaf_vector":"1"}},{"base_weights":[-3.0247299E-2,2.2753032E-1,-2.9763284E-1,1.1451865E-2,7.109925E-1,-5.8655363E-1,-9.019437E-2,3.9540377E-1,-1.2347336E-1,-1.7721659E-2,7.83247E-1,4.9978083E-1,-6.794016E-1,2.6021963E-1,-4.2683932E-1,-1.978006E-3,3.6017664E-2,-3.0897288E-2,1.1059183E-3,-1.0846068E-2,9.426886E-3,9.448691E-3,4.329137E-2,9.830303E-3,3.0142767E-2,-3.701999E-2,1.6466191E-2,2.07343E-2,-1.9287309E-2,-2.6505772E-2,1.609987E-2],"categories":[],"categories_nodes":[],"categories_segments":[],"categories_sizes":[],"default_left":[0,0,0,0,0,0,0,0,0,0,0,0,0,0,0,0,0,0,0,0,0,0,0,0,0,0,0,0,0,0,0],"id":2,"left_children":[1,3,5,7,9,11,13,15,17,19,21,23,25,27,29,-1,-1,-1,-1,-1,-1,-1,-1,-1,-1,-1,-1,-1,-1,-1,-1],"loss_changes":[1.467127E1,1.1320261E1,6.206023E0,3.9839997E0,1.7766762E0,4.7233343E0,7.4212794E0,2.8539808E0,4.1150827E0,2.0516433E-1,1.3322792E0,6.4219832E-3,2.7335968E0,3.2516391E0,2.6442637E0,0E0,0E0,0E0,0E0,0E0,0E0,0E0,0E0,0E0,0E0,0E0,0E0,0E0,0E0,0E0,0E0],"parents":[2147483647,0,0,1,1,2,2,3,3,4,4,5,5,6,6,7,7,8,8,9,9,10,10,11,11,12,12,13,13,14,14],"right_children":[2,4,6,8,10,12,14,16,18,20,22,24,26,28,30,-1,-1,-1,-1,-1,-1,-1,-1,-1,-1,-1,-1,-1,-1,-1,-1],"split_conditions":[4.54E2,2.5E1,2.1E1,3.7E1,3.0242E1,8.7E1,8.2E1,2E1,8E0,7E0,7.1E1,5.088E1,6.28E2,3.2153E4,3.2153E4,-1.978006E-3,3.6017664E-2,-3.0897288E-2,1.1059183E-3,-1.0846068E-2,9.426886E-3,9.448691E-3,4.329137E-2,9.830303E-3,3.0142767E-2,-3.701999E-2,1.6466191E-2,2.07343E-2,-1.9287309E-2,-2.6505772E-2,1.609987E-2],"split_indices":[28,33,33,10,17,21,12,33,31,31,12,51,61,55,55,0,0,0,0,0,0,0,0,0,0,0,0,0,0,0,0],"split_type":[0,0,0,0,0,0,0,0,0,0,0,0,0,0,0,0,0,0,0,0,0,0,0,0,0,0,0,0,0,0,0],"sum_hessian":[2.1087285E2,1.0744129E2,1.03431564E2,7.496165E1,3.2479645E1,4.2462326E1,6.096924E1,1.8990503E1,5.597114E1,2.9980345E0,2.9481611E1,2.9983552E0,3.946397E1,2.9984926E1,3.0984312E1,8.496157E0,1.0494347E1,1.1993457E1,4.3977684E1,1.4988214E0,1.499213E0,3.9981446E0,2.5483465E1,1.498426E0,1.4999291E0,3.7464478E1,1.9994931E0,2.4487417E1,5.497509E0,2.7485695E1,3.4986181E0],"tree_param":{"num_deleted":"0","num_feature":"63","num_nodes":"31","size_leaf_vector":"1"}},{"base_weights":[4.991435E-2,1.7390469E-1,-5.069331E-1,-1.290919E-1,3.710272E-1,-6.204117E-1,3.9988685E-1,9.373818E-2,-5.647611E-1,5.793909E-1,1.459108E-1,-1.2451489E-1,-8.2373255E-1,2.2618803E-4,3.3101268E-2,-1.1162913E-2,1.7670905E-2,5.299932E-3,-3.624989E-2,-1.2681049E-2,3.1593252E-2,1.5064529E-2,-2.0502899E-2,-2.9241437E-2,2.9531611E-2,-4.2812724E-2,-9.426885E-3],"categories":[],"categories_nodes":[],"categories_segments":[],"categories_sizes":[],"default_left":[0,0,0,0,0,0,0,0,0,0,0,0,0,0,0,0,0,0,0,0,0,0,0,0,0,0,0],"id":3,"left_children":[1,3,5,7,9,11,13,15,17,19,21,23,25,-1,-1,-1,-1,-1,-1,-1,-1,-1,-1,-1,-1,-1,-1],"loss_changes":[1.4957862E1,1.061307E1,4.310437E0,6.893519E0,4.954423E0,3.4745502E0,5.150713E-1,3.987075E0,2.6549196E0,2.5841713E0,4.699778E0,4.129319E0,3.5466766E-1,0E0,0E0,0E0,0E0,0E0,0E0,0E0,0E0,0E0,0E0,0E0,0E0,0E0,0E0],"parents":[2147483647,0,0,1,1,2,2,3,3,4,4,5,5,6,6,7,7,8,8,9,9,10,10,11,11,12,12],"right_children":[2,4,6,8,10,12,14,16,18,20,22,24,26,-1,-1,-1,-1,-1,-1,-1,-1,-1,-1,-1,-1,-1,-1],"split_conditions":[6.25E1,2.1E1,2.8E1,2E1,1.9059E1,6.3E1,4.1743E1,8.07E1,4.11E2,1.017E3,8.3E1,5.6522E1,3.3E1,2.2618803E-4,3.3101268E-2,-1.1162913E-2,1.7670905E-2,5.299932E-3,-3.624989E-2,-1.2681049E-2,3.1593252E-2,1.5064529E-2,-2.0502899E-2,-2.9241437E-2,2.9531611E-2,-4.2812724E-2,-9.426885E-3],"split_indices":[50,1,1,57,57,45,49,20,28,24,45,18,15,0,0,0,0,0,0,0,0,0,0,0,0,0,0],"split_type":[0,0,0,0,0,0,0,0,0,0,0,0,0,0,0,0,0,0,0,0,0,0,0,0,0,0,0],"sum_hessian":[2.1436653E2,1.7588976E2,3.8476765E1,6.946317E1,1.0642659E2,3.4478054E1,3.998713E0,4.6476734E1,2.2986439E1,5.4452545E1,5.197404E1,1.0494505E1,2.3983547E1,1.999811E0,1.9989018E0,2.0991838E1,2.5484896E1,4.4976234E0,1.8488815E1,2.9997113E0,5.1452835E1,4.097938E1,1.0994662E1,6.4956927E0,3.9988124E0,2.2484335E1,1.499213E0],"tree_param":{"num_deleted":"0","num_feature":"63","num_nodes":"27","size_leaf_vector":"1"}},{"base_weights":[-6.910268E-2,2.6602963E-1,-2.837891E-1,-9.0387315E-2,4.825246E-1,-5.0182045E-1,-2.290868E-2,7.982268E-2,-6.1077076E-1,-7.1683966E-2,5.938234E-1,-5.759928E-1,1.9175553E-1,8.3857454E-2,-4.1771922E-2,2.2714881E-2,-7.0349495E-3,-4.090274E-2,3.687857E-4,-3.8589116E-2,2.3314497E-2,4.487616E-3,3.446619E-2,-8.589969E-3,-3.263951E-2,3.5169296E-2,-1.02407895E-2,1.674168E-2,-1.0248299E-2],"categories":[],"categories_nodes":[],"categories_segments":[],"categories_sizes":[],"default_left":[0,0,0,0,0,0,0,0,0,0,0,0,0,0,0,0,0,0,0,0,0,0,0,0,0,0,0,0,0],"id":4,"left_children":[1,3,5,7,9,11,13,15,17,19,21,23,25,27,-1,-1,-1,-1,-1,-1,-1,-1,-1,-1,-1,-1,-1,-1,-1],"loss_changes":[1.5155548E1,6.398439E0,7.282757E0,2.8799038E0,3.2126217E0,3.7016945E0,5.2256923E0,2.1259296E0,1.0302691E0,3.9330752E0,2.0035696E0,1.8531837E0,1.6646752E0,3.9421644E0,0E0,0E0,0E0,0E0,0E0,0E0,0E0,0E0,0E0,0E0,0E0,0E0,0E0,0E0,0E0],"parents":[2147483647,0,0,1,1,2,2,3,3,4,4,5,5,6,6,7,7,8,8,9,9,10,10,11,11,12,12,13,13],"right_children":[2,4,6,8,10,12,14,16,18,20,22,24,26,28,-1,-1,-1,-1,-1,-1,-1,-1,-1,-1,-1,-1,-1,-1,-1],"split_conditions":[2.1E1,6.4E1,2.2E1,3.79E2,6E1,3.36E2,7.037E1,7.66E1,4.1E1,6E0,4E0,3.7E1,9.2E1,2.5E1,-4.1771922E-2,2.2714881E-2,-7.0349495E-3,-4.090274E-2,3.687857E-4,-3.8589116E-2,2.3314497E-2,4.487616E-3,3.446619E-2,-8.589969E-3,-3.263951E-2,3.5169296E-2,-1.02407895E-2,1.674168E-2,-1.0248299E-2],"split_indices":[1,38,33,11,13,58,18,20,10,36,31,10,21,14,0,0,0,0,0,0,0,0,0,0,0,0,0,0,0],"split_type":[0,0,0,0,0,0,0,0,0,0,0,0,0,0,0,0,0,0,0,0,0,0,0,0,0,0,0,0,0],"sum_hessian":[2.085955E2,8.135641E1,1.2723909E2,3.0963507E1,5.0392902E1,6.880859E1,5.8430492E1,2.3969902E1,6.993605E0,8.487183E0,4.190572E1,6.2314133E1,6.4944625E0,5.2437073E1,5.9934196E0,8.490985E0,1.5478917E1,4.9951677E0,1.9984376E0,3.499048E0,4.9881344E0,6.9837623E0,3.492196E1,1.0466223E1,5.1847908E1,2.4980168E0,3.9964457E0,2.7971579E1,2.4465496E1],"tree_param":{"num_deleted":"0","num_feature":"63","num_nodes":"29","size_leaf_vector":"1"}},{"base_weights":[2.448484E-2,3.538683E-1,-1.2356995E-1,4.4025618E-1,-5.1109105E-1,-2.7743796E-1,2.989114E-1,-1.1906086E-2,5.631867E-1,-3.8507465E-2,1.059123E-2,-1.4378034E-1,-5.809479E-1,6.0553473E-1,-7.1492195E-2,3.599174E-2,-1.383276E-2,3.5223406E-2,1.25612095E-2,-2.1224536E-2,5.9763975E-3,-3.2861844E-2,3.0614113E-2,3.595031E-2,-2.837271E-2,-2.098888E-2,3.3153575E-2],"categories":[],"categories_nodes":[],"categories_segments":[],"categories_sizes":[],"default_left":[0,0,0,0,0,0,0,0,0,0,0,0,0,0,0,0,0,0,0,0,0,0,0,0,0,0,0],"id":5,"left_children":[1,3,5,7,9,11,13,15,17,-1,-1,19,21,23,25,-1,-1,-1,-1,-1,-1,-1,-1,-1,-1,-1,-1],"loss_changes":[1.0437071E1,5.1827316E0,9.689207E0,3.3896503E0,1.3781233E0,4.331789E0,4.578624E0,2.9091766E0,1.9329739E0,0E0,0E0,5.734221E0,3.4016724E0,3.3299532E0,5.134093E0,0E0,0E0,0E0,0E0,0E0,0E0,0E0,0E0,0E0,0E0,0E0,0E0],"parents":[2147483647,0,0,1,1,2,2,3,3,4,4,5,5,6,6,7,7,8,8,11,11,12,12,13,13,14,14],"right_children":[2,4,6,8,10,12,14,16,18,-1,-1,20,22,24,26,-1,-1,-1,-1,-1,-1,-1,-1,-1,-1,-1,-1],"split_conditions":[2.24E2,3.34E2,2.4E1,4.894E1,8.793E1,2.56E2,6.327E1,1.5E1,2.5E1,-3.8507465E-2,1.059123E-2,4.1E1,3.1838E4,6.716E1,6.7E1,3.599174E-2,-1.383276E-2,3.5223406E-2,1.25612095E-2,-2.1224536E-2,5.9763975E-3,-3.2861844E-2,3.0614113E-2,3.595031E-2,-2.837271E-2,-2.098888E-2,3.3153575E-2],"split_indices":[34,58,1,19,20,34,19,46,46,0,0,10,23,51,38,0,0,0,0,0,0,0,0,0,0,0,0],"split_type":[0,0,0,0,0,0,0,0,0,0,0,0,0,0,0,0,0,0,0,0,0,0,0,0,0,0,0],"sum_hessian":[2.1212332E2,6.534889E1,1.4677443E2,5.9861256E1,5.4876366E0,1.0784171E2,3.8932713E1,1.2988861E1,4.6872395E1,3.9918218E0,1.4958148E0,7.589383E1,3.1947882E1,2.0952913E1,1.7979801E1,2.9942136E0,9.994648E0,3.1395727E1,1.5476666E1,3.6436787E1,3.9457047E1,3.0450243E1,1.4976372E0,1.9457666E1,1.4952466E0,1.2487516E1,5.4922853E0],"tree_param":{"num_deleted":"0","num_feature":"63","num_nodes":"27","size_leaf_vector":"1"}},{"base_weights":[-4.7261294E-2,-4.2137387E-1,1.1930008E-1,-1.3434039E-1,-6.294566E-1,3.6339858E-1,-1.6196671E-1,-5.071936E-1,2.2951478E-2,5.1883314E-2,-7.125282E-1,6.1103106E-1,8.4068395E-2,-2.7238423E-1,4.4001314E-1,1.0304352E-2,-3.4476437E-2,1.7321944E-2,-1.840328E-2,-2.8007451E-2,2.3732921E-2,-3.8212348E-2,1.1547808E-2,1.1132458E-2,3.5983507E-2,-4.585096E-3,4.0654123E-2,-1.6490788E-3,-2.2197695E-2,3.29525E-2,-2.8414575E-2],"categories":[],"categories_nodes":[],"categories_segments":[],"categories_sizes":[],"default_left":[0,0,0,0,0,0,0,0,0,0,0,0,0,0,0,0,0,0,0,0,0,0,0,0,0,0,0,0,0,0,0],"id":6,"left_children":[1,3,5,7,9,11,13,15,17,19,21,23,25,27,29,-1,-1,-1,-1,-1,-1,-1,-1,-1,-1,-1,-1,-1,-1,-1,-1],"loss_changes":[1.3087284E1,3.7781591E0,1.0051578E1,1.6802347E0,2.143714E0,5.3598824E0,4.660769E0,1.2455978E0,2.779587E0,1.553728E0,1.7987003E0,1.5827007E0,4.933799E0,2.3818426E0,2.797534E0,0E0,0E0,0E0,0E0,0E0,0E0,0E0,0E0,0E0,0E0,0E0,0E0,0E0,0E0,0E0,0E0],"parents":[2147483647,0,0,1,1,2,2,3,3,4,4,5,5,6,6,7,7,8,8,9,9,10,10,11,11,12,12,13,13,14,14],"right_children":[2,4,6,8,10,12,14,16,18,20,22,24,26,28,30,-1,-1,-1,-1,-1,-1,-1,-1,-1,-1,-1,-1,-1,-1,-1,-1],"split_conditions":[2E1,2.2E1,3.9336E1,4.013E0,3.7E1,4.1E1,4.7486E1,2.59E2,3.11E2,3.8095E1,2.79E2,6.4E1,2.45E2,5.294E1,8.46E2,1.0304352E-2,-3.4476437E-2,1.7321944E-2,-1.840328E-2,-2.8007451E-2,2.3732921E-2,-3.8212348E-2,1.1547808E-2,1.1132458E-2,3.5983507E-2,-4.585096E-3,4.0654123E-2,-1.6490788E-3,-2.2197695E-2,3.29525E-2,-2.8414575E-2],"split_indices":[33,1,17,5,41,10,49,43,11,17,2,38,59,51,22,0,0,0,0,0,0,0,0,0,0,0,0,0,0,0,0],"split_type":[0,0,0,0,0,0,0,0,0,0,0,0,0,0,0,0,0,0,0,0,0,0,0,0,0,0,0,0,0,0,0],"sum_hessian":[2.0821921E2,6.3673244E1,1.4454596E2,2.7451586E1,3.622166E1,7.722978E1,6.731618E1,7.484761E0,1.9966825E1,3.9771528E0,3.2244507E1,4.030818E1,3.69216E1,5.734521E1,9.970966E0,1.4972748E0,5.9874864E0,1.0989361E1,8.977464E0,1.49213E0,2.4850228E0,3.0748926E1,1.4955808E0,9.477127E0,3.0831055E1,3.045331E1,6.4682918E0,2.4437775E1,3.2907436E1,8.476066E0,1.494901E0],"tree_param":{"num_deleted":"0","num_feature":"63","num_nodes":"31","size_leaf_vector":"1"}},{"base_weights":[2.9662104E-2,2.3175783E-1,-2.7028167E-1,-9.566878E-2,3.7234178E-1,-4.0205595E-1,2.56352E-1,-4.3512395E-1,2.4048488E-1,4.7143757E-1,-1.2639208E-2,-5.5283916E-1,1.6239873E-3,4.664621E-1,-3.8232553E-1,-2.7200658E-2,1.8151267E-2,2.6485756E-2,-1.6542833E-2,2.5922755E-2,-1.7318659E-2,-2.3908366E-2,1.9589365E-2,-9.3143135E-3,-3.4685854E-2,2.2097377E-2,-2.4170129E-2,3.1547204E-2,-1.7276362E-2,-3.4729227E-2,1.0379479E-2],"categories":[],"categories_nodes":[],"categories_segments":[],"categories_sizes":[],"default_left":[0,0,0,0,0,0,0,0,0,0,0,0,0,0,0,0,0,0,0,0,0,0,0,0,0,0,0,0,0,0,0],"id":7,"left_children":[1,3,5,7,9,11,13,15,17,19,21,23,25,27,29,-1,-1,-1,-1,-1,-1,-1,-1,-1,-1,-1,-1,-1,-1,-1,-1],"loss_changes":[1.3046922E1,5.951182E0,6.118937E0,4.6004295E0,3.4437943E0,4.2450876E0,2.5885005E0,1.9321415E0,3.552927E0,2.9362621E0,3.843796E0,2.4924135E0,4.4762774E0,2.083131E0,1.0643947E0,0E0,0E0,0E0,0E0,0E0,0E0,0E0,0E0,0E0,0E0,0E0,0E0,0E0,0E0,0E0,0E0],"parents":[2147483647,0,0,1,1,2,2,3,3,4,4,5,5,6,6,7,7,8,8,9,9,10,10,11,11,12,12,13,13,14,14],"right_children":[2,4,6,8,10,12,14,16,18,20,22,24,26,28,30,-1,-1,-1,-1,-1,-1,-1,-1,-1,-1,-1,-1,-1,-1,-1,-1],"split_conditions":[2E1,8.077E1,4.4059E1,-5E0,2.5E1,2.5E1,8.2E1,9.014E1,6E0,6.22E2,1.2E1,7.5E1,2.56E2,2.842E0,4.805E0,-2.7200658E-2,1.8151267E-2,2.6485756E-2,-1.6542833E-2,2.5922755E-2,-1.7318659E-2,-2.3908366E-2,1.9589365E-2,-9.3143135E-3,-3.4685854E-2,2.2097377E-2,-2.4170129E-2,3.1547204E-2,-1.7276362E-2,-3.4729227E-2,1.0379479E-2],"split_indices":[57,20,17,16,31,14,45,52,36,61,8,12,34,39,5,0,0,0,0,0,0,0,0,0,0,0,0,0,0,0,0],"split_type":[0,0,0,0,0,0,0,0,0,0,0,0,0,0,0,0,0,0,0,0,0,0,0,0,0,0,0,0,0,0,0],"sum_hessian":[2.1320074E2,1.2751272E2,8.568803E1,3.839904E1,8.911368E1,6.872757E1,1.6960455E1,1.8959206E1,1.9439835E1,7.0692535E1,1.8421146E1,4.9768463E1,1.8959105E1,1.2964935E1,3.995519E0,1.6963352E1,1.9958538E0,1.2954656E1,6.4851785E0,6.719539E1,3.4971476E0,8.478901E0,9.9422455E0,1.4461952E1,3.530651E1,9.984057E0,8.975048E0,1.0966461E1,1.9984742E0,2.4965775E0,1.4989414E0],"tree_param":{"num_deleted":"0","num_feature":"63","num_nodes":"31","size_leaf_vector":"1"}},{"base_weights":[-2.8991703E-2,-3.8234168E-1,1.3030852E-1,4.3929444E-4,-5.3911424E-1,3.293313E-1,-1.6342187E-1,2.151166E-1,-4.955084E-1,-6.028653E-1,3.100331E-1,4.5068642E-1,-1.00729555E-1,-3.4124866E-1,2.4739487E-1,-3.245194E-2,1.9893298E-2,1.1548014E-2,-3.7986826E-2,-3.2548998E-2,7.4482164E-3,-7.6723928E-3,3.2407682E-2,2.3035577E-3,2.8022518E-2,3.3586737E-2,-1.2264615E-2,1.0335888E-2,-2.3640493E-2,3.5341408E-2,-3.9644907E-3],"categories":[],"categories_nodes":[],"categories_segments":[],"categories_sizes":[],"default_left":[0,0,0,0,0,0,0,0,0,0,0,0,0,0,0,0,0,0,0,0,0,0,0,0,0,0,0,0,0,0,0],"id":8,"left_children":[1,3,5,7,9,11,13,15,17,19,21,23,25,27,29,-1,-1,-1,-1,-1,-1,-1,-1,-1,-1,-1,-1,-1,-1,-1,-1],"loss_changes":[1.2131961E1,4.018051E0,8.746261E0,2.2841978E0,2.7582693E0,4.6886215E0,4.520664E0,2.622589E0,1.4196146E0,1.7075291E0,7.2277826E-1,3.0639477E0,2.4425197E0,3.183291E0,2.8964326E0,0E0,0E0,0E0,0E0,0E0,0E0,0E0,0E0,0E0,0E0,0E0,0E0,0E0,0E0,0E0,0E0],"parents":[2147483647,0,0,1,1,2,2,3,3,4,4,5,5,6,6,7,7,8,8,9,9,10,10,11,11,12,12,13,13,14,14],"right_children":[2,4,6,8,10,12,14,16,18,20,22,24,26,28,30,-1,-1,-1,-1,-1,-1,-1,-1,-1,-1,-1,-1,-1,-1,-1,-1],"split_conditions":[2E1,1.8235E1,1.9882E1,3.79E2,1.56529E2,2.734E0,4.95E2,3.3E1,3.3E1,6.22E2,1.7E1,8.7E1,3.3E1,3.8E1,4.65E2,-3.245194E-2,1.9893298E-2,1.1548014E-2,-3.7986826E-2,-3.2548998E-2,7.4482164E-3,-7.6723928E-3,3.2407682E-2,2.3035577E-3,2.8022518E-2,3.3586737E-2,-1.2264615E-2,1.0335888E-2,-2.3640493E-2,3.5341408E-2,-3.9644907E-3],"split_indices":[33,25,25,11,3,39,60,42,42,29,33,21,10,10,28,0,0,0,0,0,0,0,0,0,0,0,0,0,0,0,0],"split_type":[0,0,0,0,0,0,0,0,0,0,0,0,0,0,0,0,0,0,0,0,0,0,0,0,0,0,0,0,0,0,0],"sum_hessian":[2.1364578E2,6.595292E1,1.4769286E2,1.945301E1,4.6499912E1,8.796754E1,5.9725327E1,1.3971514E1,5.4814973E0,4.352243E1,2.97748E0,6.857031E1,1.939722E1,4.1800735E1,1.7924591E1,1.9934916E0,1.1978022E1,1.4955469E0,3.9859502E0,4.1030735E1,2.4916956E0,1.4862993E0,1.4911807E0,1.4935252E1,5.3635063E1,2.482962E0,1.6914257E1,7.9823065E0,3.3818428E1,6.965298E0,1.0959292E1],"tree_param":{"num_deleted":"0","num_feature":"63","num_nodes":"31","size_leaf_vector":"1"}},{"base_weights":[4.5130767E-2,3.71775E-1,-1.04776345E-1,1.0683573E-1,6.171495E-1,-2.3171243E-1,4.3069708E-1,3.5600856E-1,-2.4377035E-1,7.143944E-1,-3.100331E-1,-3.4584162E-1,1.445988E-1,-2.1212217E-1,5.4462945E-1,3.6808234E-2,2.0619105E-3,-2.590015E-2,1.9092806E-2,3.8337633E-2,-1.0284408E-2,7.672392E-3,-3.2407682E-2,-2.8426567E-2,-6.042329E-3,1.823478E-2,-1.673649E-2,-3.2881808E-2,1.5220991E-2,3.0154271E-2,-1.0434727E-2],"categories":[],"categories_nodes":[],"categories_segments":[],"categories_sizes":[],"default_left":[0,0,0,0,0,0,0,0,0,0,0,0,0,0,0,0,0,0,0,0,0,0,0,0,0,0,0,0,0,0,0],"id":9,"left_children":[1,3,5,7,9,11,13,15,17,19,21,23,25,27,29,-1,-1,-1,-1,-1,-1,-1,-1,-1,-1,-1,-1,-1,-1,-1,-1],"loss_changes":[1.0427971E1,4.287118E0,1.0037573E1,3.0051806E0,3.3370457E0,5.15393E0,2.193067E0,2.3550045E0,2.680686E0,1.6788998E0,7.227782E-1,4.514784E0,3.1140141E0,1.3486385E0,1.1993113E0,0E0,0E0,0E0,0E0,0E0,0E0,0E0,0E0,0E0,0E0,0E0,0E0,0E0,0E0,0E0,0E0],"parents":[2147483647,0,0,1,1,2,2,3,3,4,4,5,5,6,6,7,7,8,8,9,9,10,10,11,11,12,12,13,13,14,14],"right_children":[2,4,6,8,10,12,14,16,18,20,22,24,26,28,30,-1,-1,-1,-1,-1,-1,-1,-1,-1,-1,-1,-1,-1,-1,-1,-1],"split_conditions":[2E1,2.2E1,5.04E2,2.2E1,1.56529E2,2.734E0,-5E0,3.9E1,1.2E1,2.79E2,1.7E1,8.125E1,2.52E0,1.104E3,2E1,3.6808234E-2,2.0619105E-3,-2.590015E-2,1.9092806E-2,3.8337633E-2,-1.0284408E-2,7.672392E-3,-3.2407682E-2,-2.8426567E-2,-6.042329E-3,1.823478E-2,-1.673649E-2,-3.2881808E-2,1.5220991E-2,3.0154271E-2,-1.0434727E-2],"split_indices":[33,1,28,31,3,39,48,10,8,2,33,20,7,24,40,0,0,0,0,0,0,0,0,0,0,0,0,0,0,0,0],"split_type":[0,0,0,0,0,0,0,0,0,0,0,0,0,0,0,0,0,0,0,0,0,0,0,0,0,0,0,0,0,0,0],"sum_hessian":[2.1116673E2,6.596042E1,1.4520631E2,3.2405975E1,3.3554447E1,1.1783931E2,2.7366999E1,1.8934193E1,1.3471783E1,3.0576967E1,2.97748E0,9.047935E1,2.7359968E1,3.9904728E0,2.3376526E1,7.9699492E0,1.0964243E1,9.485848E0,3.9859343E0,2.9088314E1,1.4886527E0,1.4862993E0,1.4911808E0,4.4705265E1,4.577408E1,1.8914165E1,8.445803E0,1.9958844E0,1.9945884E0,2.1878265E1,1.4982605E0],"tree_param":{"num_deleted":"0","num_feature":"63","num_nodes":"31","size_leaf_vector":"1"}},{"base_weights":[-4.5698516E-2,2.1804759E-1,-1.8805858E-1,-1.2493052E-1,4.13369E-1,-3.658786E-1,2.259662E-2,3.4040743E-1,-4.15941E-1,4.9519604E-1,-4.0044442E-1,-4.2359343E-1,4.5364556E-1,5.571139E-1,-1.4026105E-1,-1.344845E-2,2.9396659E-2,2.8826326E-2,-2.7093772E-2,3.2372795E-2,4.6386137E-3,8.09529E-3,-3.434826E-2,5.482904E-3,-2.5061762E-2,-1.0337954E-2,3.756347E-2,-8.306428E-3,3.5487927E-2,-1.0396544E-2,3.537373E-2],"categories":[],"categories_nodes":[],"categories_segments":[],"categories_sizes":[],"default_left":[0,0,0,0,0,0,0,0,0,0,0,0,0,0,0,0,0,0,0,0,0,0,0,0,0,0,0,0,0,0,0],"id":10,"left_children":[1,3,5,7,9,11,13,15,17,19,21,23,25,27,29,-1,-1,-1,-1,-1,-1,-1,-1,-1,-1,-1,-1,-1,-1,-1,-1],"loss_changes":[8.113826E0,5.1317863E0,5.2589664E0,3.9717503E0,3.4312935E0,3.7901058E0,5.7454925E0,1.8825544E0,2.543596E0,2.670313E0,9.149856E-1,3.0186062E0,1.2339184E0,1.8185997E0,3.055536E0,0E0,0E0,0E0,0E0,0E0,0E0,0E0,0E0,0E0,0E0,0E0,0E0,0E0,0E0,0E0,0E0],"parents":[2147483647,0,0,1,1,2,2,3,3,4,4,5,5,6,6,7,7,8,8,9,9,10,10,11,11,12,12,13,13,14,14],"right_children":[2,4,6,8,10,12,14,16,18,20,22,24,26,28,30,-1,-1,-1,-1,-1,-1,-1,-1,-1,-1,-1,-1,-1,-1,-1,-1],"split_conditions":[8.095E1,7E1,2.2E1,1.049E3,3.011E0,6.22E2,1.05294E2,3.6E1,6E1,1.9824E1,3.922E0,2.06E2,-9E0,4.57E2,2.2E1,-1.344845E-2,2.9396659E-2,2.8826326E-2,-2.7093772E-2,3.2372795E-2,4.6386137E-3,8.09529E-3,-3.434826E-2,5.482904E-3,-2.5061762E-2,-1.0337954E-2,3.756347E-2,-8.306428E-3,3.5487927E-2,-1.0396544E-2,3.537373E-2],"split_indices":[20,45,33,24,39,61,3,42,6,25,5,2,16,60,40,0,0,0,0,0,0,0,0,0,0,0,0,0,0,0,0],"split_type":[0,0,0,0,0,0,0,0,0,0,0,0,0,0,0,0,0,0,0,0,0,0,0,0,0,0,0,0,0,0,0],"sum_hessian":[2.1400623E2,7.4833275E1,1.3917294E2,2.7283937E1,4.7549335E1,7.506858E1,6.410437E1,1.0432381E1,1.6851557E1,4.3560898E1,3.9884355E0,7.058105E1,4.487534E0,1.4404923E1,4.9699444E1,2.9884853E0,7.443895E0,1.4946313E0,1.5356926E1,3.1161743E1,1.2399155E1,1.4930241E0,2.4954114E0,8.918124E0,6.166292E1,1.4889555E0,2.9985785E0,2.4950137E0,1.190991E1,4.6724426E1,2.9750183E0],"tree_param":{"num_deleted":"0","num_feature":"63","num_nodes":"31","size_leaf_vector":"1"}},{"base_weights":[2.3892844E-2,3.5630673E-1,-1.3061883E-1,5.748227E-1,-9.7982764E-2,-3.3906734E-1,1.467996E-1,2.4863617E-1,7.85554E-1,-2.8245848E-1,5.586464E-1,-2.9233977E-2,-5.227446E-1,2.2108379E-1,-6.199649E-1,1.9280028E-2,-3.252412E-2,1.4158237E-2,4.2250466E-2,1.6201172E-2,-2.3231551E-2,3.4412574E-2,6.2340945E-3,5.4829395E-3,-3.7360933E-2,-2.9592955E-2,1.1813233E-3,1.9879922E-2,-5.6513287E-3,-3.653809E-2,-8.57141E-3],"categories":[],"categories_nodes":[],"categories_segments":[],"categories_sizes":[],"default_left":[0,0,0,0,0,0,0,0,0,0,0,0,0,0,0,0,0,0,0,0,0,0,0,0,0,0,0,0,0,0,0],"id":11,"left_children":[1,3,5,7,9,11,13,15,17,19,21,23,25,27,29,-1,-1,-1,-1,-1,-1,-1,-1,-1,-1,-1,-1,-1,-1,-1,-1],"loss_changes":[1.1193719E1,6.9195347E0,8.660006E0,3.0235453E0,2.9812584E0,4.8400927E0,3.815298E0,2.6943583E0,5.966511E-1,2.234385E0,2.2060883E-1,3.3541675E0,2.0344324E0,3.5605142E0,1.712439E-1,0E0,0E0,0E0,0E0,0E0,0E0,0E0,0E0,0E0,0E0,0E0,0E0,0E0,0E0,0E0,0E0],"parents":[2147483647,0,0,1,1,2,2,3,3,4,4,5,5,6,6,7,7,8,8,9,9,10,10,11,11,12,12,13,13,14,14],"right_children":[2,4,6,8,10,12,14,16,18,20,22,24,26,28,30,-1,-1,-1,-1,-1,-1,-1,-1,-1,-1,-1,-1,-1,-1,-1,-1],"split_conditions":[2.24E2,0E0,3.38E2,5.333E1,1.109E3,4.865E1,9.87E2,8.679E1,-9E0,1.98E2,4.5622E1,2.56E2,3.109E0,2.45E2,2.3E2,1.9280028E-2,-3.252412E-2,1.4158237E-2,4.2250466E-2,1.6201172E-2,-2.3231551E-2,3.4412574E-2,6.2340945E-3,5.4829395E-3,-3.7360933E-2,-2.9592955E-2,1.1813233E-3,1.9879922E-2,-5.6513287E-3,-3.653809E-2,-8.57141E-3],"split_indices":[34,48,26,19,24,19,54,20,16,11,17,59,39,27,11,0,0,0,0,0,0,0,0,0,0,0,0,0,0,0,0],"split_type":[0,0,0,0,0,0,0,0,0,0,0,0,0,0,0,0,0,0,0,0,0,0,0,0,0,0,0,0,0,0,0],"sum_hessian":[2.1603235E2,6.813715E1,1.478952E2,4.5828197E1,2.230896E1,8.431774E1,6.3577457E1,1.8842367E1,2.698583E1,1.7860893E1,4.448067E0,3.1813215E1,5.2504524E1,5.8610897E1,4.9665613E0,1.6847145E1,1.9952213E0,3.4654946E0,2.3520336E1,3.9458516E0,1.3915041E1,2.9739294E0,1.4741375E0,2.736649E1,4.4467263E0,4.6534744E1,5.9697804E0,3.8225742E1,2.0385153E1,3.4781747E0,1.4883866E0],"tree_param":{"num_deleted":"0","num_feature":"63","num_nodes":"31","size_leaf_vector":"1"}},{"base_weights":[-3.7108876E-2,-3.3754027E-1,1.006771E-1,4.884942E-3,-4.748312E-1,3.762317E-1,-6.561653E-2,2.9160962E-1,-3.9416608E-1,-5.599002E-1,1.7091383E-1,-9.047948E-2,4.7319755E-1,-3.1534928E-1,1.4214677E-1,-2.8618053E-2,2.3067966E-2,2.264248E-3,-3.7682958E-2,-3.0790627E-2,2.990901E-2,3.075744E-2,-2.8109798E-2,2.993806E-2,-1.6068581E-2,-3.8935617E-3,3.1723842E-2,-2.1266613E-2,9.117774E-3,2.2244332E-2,-4.2463853E-3],"categories":[],"categories_nodes":[],"categories_segments":[],"categories_sizes":[],"default_left":[0,0,0,0,0,0,0,0,0,0,0,0,0,0,0,0,0,0,0,0,0,0,0,0,0,0,0,0,0,0,0],"id":12,"left_children":[1,3,5,7,9,11,13,15,17,19,21,23,25,27,29,-1,-1,-1,-1,-1,-1,-1,-1,-1,-1,-1,-1,-1,-1,-1,-1],"loss_changes":[8.927322E0,3.188805E0,6.8092012E0,2.4476964E0,2.7540302E0,2.571302E0,4.879875E0,2.0882816E0,1.4479709E0,3.1522207E0,2.4298673E0,1.8555658E0,4.1751337E0,2.4110856E0,3.5820646E0,0E0,0E0,0E0,0E0,0E0,0E0,0E0,0E0,0E0,0E0,0E0,0E0,0E0,0E0,0E0,0E0],"parents":[2147483647,0,0,1,1,2,2,3,3,4,4,5,5,6,6,7,7,8,8,9,9,10,10,11,11,12,12,13,13,14,14],"right_children":[2,4,6,8,10,12,14,16,18,20,22,24,26,28,30,-1,-1,-1,-1,-1,-1,-1,-1,-1,-1,-1,-1,-1,-1,-1,-1],"split_conditions":[2E1,3.1E2,1.04941E2,3.25E2,1.46471E2,6E0,5.2632E1,6.7E1,4.041E0,2.79E2,8.81E2,4.77E2,3.7E1,8.8E1,0E0,-2.8618053E-2,2.3067966E-2,2.264248E-3,-3.7682958E-2,-3.0790627E-2,2.990901E-2,3.075744E-2,-2.8109798E-2,2.993806E-2,-1.6068581E-2,-3.8935617E-3,3.1723842E-2,-2.1266613E-2,9.117774E-3,2.2244332E-2,-4.2463853E-3],"split_indices":[33,26,3,43,3,30,50,12,5,2,54,61,42,44,16,0,0,0,0,0,0,0,0,0,0,0,0,0,0,0,0],"split_type":[0,0,0,0,0,0,0,0,0,0,0,0,0,0,0,0,0,0,0,0,0,0,0,0,0,0,0,0,0,0,0],"sum_hessian":[2.1383968E2,6.678045E1,1.4705922E2,1.9388039E1,4.739241E1,5.4871952E1,9.218727E1,1.1438519E1,7.9495196E0,4.199325E1,5.3991594E0,9.450787E0,4.5421165E1,4.1629967E1,5.0557304E1,1.4888686E0,9.94965E0,3.9702468E0,3.979273E0,4.050587E1,1.4873827E0,3.4621444E0,1.9370148E0,1.9717188E0,7.4790683E0,1.0400675E1,3.502049E1,3.4214622E1,7.415347E0,2.1257372E1,2.9299932E1],"tree_param":{"num_deleted":"0","num_feature":"63","num_nodes":"31","size_leaf_vector":"1"}},{"base_weights":[1.1663573E-2,-1.3824658E-1,3.3944157E-1,2.5184852E-1,-2.7985078E-1,3.9926887E-1,-3.1968996E-1,-2.4904007E-1,3.704054E-1,-3.6553726E-1,3.87075E-1,-6.308527E-2,5.153063E-1,6.7026834E-3,-3.4087937E-2,2.8390069E-2,-2.6241636E-2,2.1945244E-2,-3.0044837E-2,2.1289172E-2,-2.0505058E-2,2.7094334E-2,-8.20586E-3,3.6231913E-2,-1.6022546E-2,2.8046325E-2,-2.7531048E-2],"categories":[],"categories_nodes":[],"categories_segments":[],"categories_sizes":[],"default_left":[0,0,0,0,0,0,0,0,0,0,0,0,0,0,0,0,0,0,0,0,0,0,0,0,0,0,0],"id":13,"left_children":[1,3,5,7,9,11,13,15,17,19,21,23,25,-1,-1,-1,-1,-1,-1,-1,-1,-1,-1,-1,-1,-1,-1],"loss_changes":[1.0186758E1,7.9314437E0,2.6928005E0,2.374147E0,6.135112E0,3.2558784E0,1.07191E0,2.0895207E0,2.357809E0,3.4702396E0,1.1493142E0,2.856475E0,2.6496315E0,0E0,0E0,0E0,0E0,0E0,0E0,0E0,0E0,0E0,0E0,0E0,0E0,0E0,0E0],"parents":[2147483647,0,0,1,1,2,2,3,3,4,4,5,5,6,6,7,7,8,8,9,9,10,10,11,11,12,12],"right_children":[2,4,6,8,10,12,14,16,18,20,22,24,26,-1,-1,-1,-1,-1,-1,-1,-1,-1,-1,-1,-1,-1,-1],"split_conditions":[2.6E1,2E1,5.2E1,-1E1,2.2176E1,1.7824E1,2.14E2,2.56E0,1.56529E2,8E1,1.2E1,7.4E1,2.76E2,6.7026834E-3,-3.4087937E-2,2.8390069E-2,-2.6241636E-2,2.1945244E-2,-3.0044837E-2,2.1289172E-2,-2.0505058E-2,2.7094334E-2,-8.20586E-3,3.6231913E-2,-1.6022546E-2,2.8046325E-2,-2.7531048E-2],"split_indices":[14,33,42,16,25,25,27,7,3,53,48,44,34,0,0,0,0,0,0,0,0,0,0,0,0,0,0],"split_type":[0,0,0,0,0,0,0,0,0,0,0,0,0,0,0,0,0,0,0,0,0,0,0,0,0,0,0],"sum_hessian":[2.053573E2,1.4130797E2,6.404935E1,3.7426334E1,1.0388163E2,5.9081E1,4.9683447E0,6.9524536E0,3.047388E1,9.245494E1,1.1426684E1,1.1944436E1,4.7136562E1,2.4845142E0,2.4838305E0,1.4876225E0,5.464831E0,2.8978357E1,1.495523E0,4.4730234E0,8.798192E1,8.934236E0,2.4924488E0,2.4943469E0,9.4500885E0,4.5656307E1,1.4802577E0],"tree_param":{"num_deleted":"0","num_feature":"63","num_nodes":"27","size_leaf_vector":"1"}},{"base_weights":[-6.5775305E-2,-3.6258245E-1,7.540894E-2,8.281095E-2,-4.5532385E-1,1.395989E-1,-6.0292065E-1,5.482919E-1,-5.567984E-1,-4.93865E-1,2.9791374E-2,3.9543623E-1,-3.0275647E-2,-2.0174E-1,-7.034821E-1,4.1066524E-2,-1.006797E-2,-3.3876363E-2,-5.6924247E-3,-2.8095275E-2,1.5163546E-3,2.4839124E-2,-8.338454E-3,2.4388075E-2,-6.013747E-3,1.1321415E-2,-2.7459046E-2,-7.11488E-3,-3.9296493E-2],"categories":[],"categories_nodes":[],"categories_segments":[],"categories_sizes":[],"default_left":[0,0,0,0,0,0,0,0,0,0,0,0,0,0,0,0,0,0,0,0,0,0,0,0,0,0,0,0,0],"id":14,"left_children":[1,3,5,7,9,11,13,15,17,19,-1,21,23,25,27,-1,-1,-1,-1,-1,-1,-1,-1,-1,-1,-1,-1,-1,-1],"loss_changes":[9.013704E0,2.9001808E0,6.4478283E0,4.1128855E0,2.6241226E0,5.8498826E0,3.75381E-1,1.7835891E0,2.3747134E-1,2.015152E0,0E0,3.1409798E0,3.8656576E0,7.1524125E-1,3.439312E-1,0E0,0E0,0E0,0E0,0E0,0E0,0E0,0E0,0E0,0E0,0E0,0E0,0E0,0E0],"parents":[2147483647,0,0,1,1,2,2,3,3,4,4,5,5,6,6,7,7,8,8,9,9,11,11,12,12,13,13,14,14],"right_children":[2,4,6,8,10,12,14,16,18,20,-1,22,24,26,28,-1,-1,-1,-1,-1,-1,-1,-1,-1,-1,-1,-1,-1,-1],"split_conditions":[2E1,4.85E2,6.8182E1,3.11E2,2.79E2,4.1E1,4E0,2.178E0,8E0,9E0,2.9791374E-2,2.734E0,7.447E1,2.07E2,4.65E2,4.1066524E-2,-1.006797E-2,-3.3876363E-2,-5.6924247E-3,-2.8095275E-2,1.5163546E-3,2.4839124E-2,-8.338454E-3,2.4388075E-2,-6.013747E-3,1.1321415E-2,-2.7459046E-2,-7.11488E-3,-3.9296493E-2],"split_indices":[33,29,18,11,2,10,31,7,31,48,0,39,20,2,61,0,0,0,0,0,0,0,0,0,0,0,0,0,0],"split_type":[0,0,0,0,0,0,0,0,0,0,0,0,0,0,0,0,0,0,0,0,0,0,0,0,0,0,0,0,0],"sum_hessian":[2.1344867E2,6.8298584E1,1.4515009E2,1.1788934E1,5.6509647E1,1.3332758E2,1.18225155E1,6.9058876E0,4.883046E0,5.5022385E1,1.4872646E0,5.2672718E1,8.0654854E1,2.9720252E0,8.850491E0,4.9920597E0,1.9138277E0,3.4210396E0,1.4620063E0,4.8637287E1,6.3850975E0,4.4726448E1,7.946271E0,1.1284056E1,6.9370804E1,1.4873674E0,1.4846578E0,1.4829104E0,7.36758E0],"tree_param":{"num_deleted":"0","num_feature":"63","num_nodes":"29","size_leaf_vector":"1"}},{"base_weights":[4.9939707E-2,1.6349052E-1,-2.9461512E-1,-4.056819E-1,2.2631498E-1,-4.941305E-1,2.758869E-1,2.9899094E-1,-6.9538987E-1,3.011975E-1,-1.5911694E-1,1.8803962E-2,-5.4986346E-1,5.649572E-1,-3.8556898E-1,3.5364684E-2,-1.3839893E-2,6.915764E-3,-4.136748E-2,1.6883923E-3,2.0337736E-2,9.284273E-3,-2.672154E-2,3.762475E-3,-3.2333903E-2,1.1342504E-4,3.954961E-2,8.70484E-3,-3.3672195E-2],"categories":[],"categories_nodes":[],"categories_segments":[],"categories_sizes":[],"default_left":[0,0,0,0,0,0,0,0,0,0,0,0,0,0,0,0,0,0,0,0,0,0,0,0,0,0,0,0,0],"id":15,"left_children":[1,3,5,7,9,11,13,15,17,19,21,-1,23,25,27,-1,-1,-1,-1,-1,-1,-1,-1,-1,-1,-1,-1,-1,-1],"loss_changes":[8.359664E0,5.828227E0,6.1705613E0,3.5366094E0,4.2363462E0,2.1291103E0,2.966979E0,1.4769942E0,1.4187174E0,3.4261675E0,3.2389233E0,0E0,2.3276272E0,1.3223476E0,9.174801E-1,0E0,0E0,0E0,0E0,0E0,0E0,0E0,0E0,0E0,0E0,0E0,0E0,0E0,0E0],"parents":[2147483647,0,0,1,1,2,2,3,3,4,4,5,5,6,6,7,7,8,8,9,9,10,10,12,12,13,13,14,14],"right_children":[2,4,6,8,10,12,14,16,18,20,22,-1,24,26,28,-1,-1,-1,-1,-1,-1,-1,-1,-1,-1,-1,-1,-1,-1],"split_conditions":[2.5E1,3.4E1,3.57E2,4.4828E1,2.36E2,3.018E1,4.7E1,4.7E1,3.5193E1,8.07E1,2.23E0,1.8803962E-2,7.3E1,1.6E1,2.6E1,3.5364684E-2,-1.3839893E-2,6.915764E-3,-4.136748E-2,1.6883923E-3,2.0337736E-2,9.284273E-3,-2.672154E-2,3.762475E-3,-3.2333903E-2,1.1342504E-4,3.954961E-2,8.70484E-3,-3.3672195E-2],"split_indices":[33,10,26,50,59,17,42,42,49,20,7,0,12,47,1,0,0,0,0,0,0,0,0,0,0,0,0,0,0],"split_type":[0,0,0,0,0,0,0,0,0,0,0,0,0,0,0,0,0,0,0,0,0,0,0,0,0,0,0,0,0],"sum_hessian":[2.1143726E2,1.5942348E2,5.2013786E1,1.5305196E1,1.4411827E2,3.8635933E1,1.33778515E1,4.4497576E0,1.0855438E1,1.2085656E2,2.3261717E1,1.9795489E0,3.6656384E1,9.4109535E0,3.9668982E0,2.4699085E0,1.9798492E0,1.4768324E0,9.378606E0,3.457657E1,8.627999E1,1.2386991E1,1.0874727E1,4.9456983E0,3.1710686E1,2.9864812E0,6.424472E0,1.4816382E0,2.48526E0],"tree_param":{"num_deleted":"0","num_feature":"63","num_nodes":"29","size_leaf_vector":"1"}},{"base_weights":[-5.849044E-2,-3.488897E-1,8.016616E-2,-7.5515E-2,-5.0320786E-1,2.13785E-1,-2.710615E-1,-3.7514217E-2,1.3587968E-1,-6.351556E-1,6.08744E-2,-2.3851576E-1,3.208972E-1,2.6928696E-1,-3.4548637E-1,-2.4097923E-2,1.53642045E-2,3.029468E-3,-3.38723E-2,-3.0041358E-2,2.2388339E-2,-2.5006091E-2,1.8041087E-2,5.9053763E-3,2.9234448E-2,-2.723715E-2,3.5486963E-2,-2.367503E-2,1.8789327E-3],"categories":[],"categories_nodes":[],"categories_segments":[],"categories_sizes":[],"default_left":[0,0,0,0,0,0,0,0,0,0,0,0,0,0,0,0,0,0,0,0,0,0,0,0,0,0,0,0,0],"id":16,"left_children":[1,3,5,7,9,11,13,-1,15,17,19,21,23,25,27,-1,-1,-1,-1,-1,-1,-1,-1,-1,-1,-1,-1,-1,-1],"loss_changes":[8.608008E0,2.8749418E0,6.864592E0,3.8235607E0,3.3104649E0,5.1937366E0,1.7181976E0,0E0,2.3416343E0,1.0918274E0,2.6360295E0,3.441361E0,4.522189E0,2.3421867E0,1.7810569E0,0E0,0E0,0E0,0E0,0E0,0E0,0E0,0E0,0E0,0E0,0E0,0E0,0E0,0E0],"parents":[2147483647,0,0,1,1,2,2,3,3,4,4,5,5,6,6,8,8,9,9,10,10,11,11,12,12,13,13,14,14],"right_children":[2,4,6,8,10,12,14,-1,16,18,20,22,24,26,28,-1,-1,-1,-1,-1,-1,-1,-1,-1,-1,-1,-1,-1,-1],"split_conditions":[1.8529E1,2.24E2,4.87E2,3.3E1,5.2E1,3.5E1,1.026E3,-3.7514217E-2,1.351E0,2.9605E4,2.01E2,4.99E2,3E0,1.51E0,1.2E1,-2.4097923E-2,1.53642045E-2,3.029468E-3,-3.38723E-2,-3.0041358E-2,2.2388339E-2,-2.5006091E-2,1.8041087E-2,5.9053763E-3,2.9234448E-2,-2.723715E-2,3.5486963E-2,-2.367503E-2,1.8789327E-3],"split_indices":[57,2,28,42,10,9,56,0,7,23,34,60,48,7,62,0,0,0,0,0,0,0,0,0,0,0,0,0,0],"split_type":[0,0,0,0,0,0,0,0,0,0,0,0,0,0,0,0,0,0,0,0,0,0,0,0,0,0,0,0,0],"sum_hessian":[2.1208516E2,6.804889E1,1.4403627E2,2.5090462E1,4.2958427E1,1.046248E2,3.9411472E1,5.377222E0,1.971324E1,3.47126E1,8.245826E0,1.9797878E1,8.482693E1,4.454214E0,3.495726E1,3.8877559E0,1.5825484E1,1.9642793E0,3.274832E1,2.8383842E0,5.407442E0,1.3897341E1,5.9005375E0,4.8777214E1,3.604971E1,1.4807527E0,2.9734612E0,2.6024279E1,8.9329815E0],"tree_param":{"num_deleted":"0","num_feature":"63","num_nodes":"29","size_leaf_vector":"1"}},{"base_weights":[4.2280942E-2,-2.0149587E-1,2.0390567E-1,3.5562854E-2,-2.4770789E-1,-7.5126165E-3,3.7470046E-1,-8.015405E-2,-4.6130398E-1,1.01435706E-1,-5.991493E-1,5.5500764E-1,3.7856682E-3,3.7643414E-3,-2.680555E-2,9.810954E-4,-2.820235E-2,-3.3829834E-3,2.331868E-2,8.0666924E-4,-3.8396288E-2,3.27776E-2,1.1106032E-2,-1.8555818E-2,1.6364932E-2],"categories":[],"categories_nodes":[],"categories_segments":[],"categories_sizes":[],"default_left":[0,0,0,0,0,0,0,0,0,0,0,0,0,0,0,0,0,0,0,0,0,0,0,0,0],"id":17,"left_children":[1,3,5,-1,7,9,11,13,15,17,19,21,23,-1,-1,-1,-1,-1,-1,-1,-1,-1,-1,-1,-1],"loss_changes":[8.571902E0,3.8384025E0,4.7220235E0,0E0,2.9471326E0,3.8883758E0,4.83399E0,3.4378595E0,1.8118329E0,3.1788676E0,9.863777E-1,1.4827394E0,3.112404E0,0E0,0E0,0E0,0E0,0E0,0E0,0E0,0E0,0E0,0E0,0E0,0E0],"parents":[2147483647,0,0,1,1,2,2,4,4,5,5,6,6,7,7,8,8,9,9,10,10,11,11,12,12],"right_children":[2,4,6,-1,8,10,12,14,16,18,20,22,24,-1,-1,-1,-1,-1,-1,-1,-1,-1,-1,-1,-1],"split_conditions":[2.1E1,6.8E1,8.1E1,3.5562854E-2,2E1,1.395E2,1.083E3,4.7E1,1.7176E1,1.092E3,1E1,4.7E1,2.4E1,3.7643414E-3,-2.680555E-2,9.810954E-4,-2.820235E-2,-3.3829834E-3,2.331868E-2,8.0666924E-4,-3.8396288E-2,3.27776E-2,1.1106032E-2,-1.8555818E-2,1.6364932E-2],"split_indices":[1,44,12,0,57,35,56,42,25,56,40,42,1,0,0,0,0,0,0,0,0,0,0,0,0],"split_type":[0,0,0,0,0,0,0,0,0,0,0,0,0,0,0,0,0,0,0,0,0,0,0,0,0],"sum_hessian":[2.1551619E2,8.582324E1,1.2969295E2,3.4422746E0,8.238097E1,5.8381474E1,7.131148E1,4.6936916E1,3.544405E1,5.0002243E1,8.37923E0,4.76512E1,2.3660278E1,3.5626366E1,1.1310549E1,6.381613E0,2.9062437E1,3.4726284E1,1.5275958E1,1.9983953E0,6.3808346E0,3.585297E1,1.1798229E1,1.0891523E1,1.2768754E1],"tree_param":{"num_deleted":"0","num_feature":"63","num_nodes":"25","size_leaf_vector":"1"}},{"base_weights":[-2.388594E-2,-1.8561633E-1,2.1442226E-1,-8.089996E-2,-5.290613E-1,3.946109E-1,-1.6556442E-1,-5.5989987E-1,1.4854348E-2,5.8512453E-2,-6.25492E-1,4.9049369E-1,-8.0901824E-2,4.9537966E-1,-4.1039592E-1,7.5051347E-3,-3.5065394E-2,1.6647529E-2,-5.778216E-3,-1.8036345E-2,3.08368E-2,-3.609099E-2,-9.546152E-3,-1.5931297E-2,2.7568728E-2,-2.975879E-2,1.6551975E-2,3.3550497E-2,-7.924631E-3,-2.9242167E-2,2.3354454E-2],"categories":[],"categories_nodes":[],"categories_segments":[],"categories_sizes":[],"default_left":[0,0,0,0,0,0,0,0,0,0,0,0,0,0,0,0,0,0,0,0,0,0,0,0,0,0,0,0,0,0,0],"id":18,"left_children":[1,3,5,7,9,11,13,15,17,19,21,23,25,27,29,-1,-1,-1,-1,-1,-1,-1,-1,-1,-1,-1,-1,-1,-1,-1,-1],"loss_changes":[7.9470677E0,4.3719387E0,5.776228E0,4.3771563E0,1.6515121E0,2.6327753E0,4.6588335E0,1.7011065E0,3.3721337E0,1.3768516E0,8.9067745E-1,2.5141497E0,2.400733E0,1.0130687E0,3.432395E0,0E0,0E0,0E0,0E0,0E0,0E0,0E0,0E0,0E0,0E0,0E0,0E0,0E0,0E0,0E0,0E0],"parents":[2147483647,0,0,1,1,2,2,3,3,4,4,5,5,6,6,7,7,8,8,9,9,10,10,11,11,12,12,13,13,14,14],"right_children":[2,4,6,8,10,12,14,16,18,20,22,24,26,28,30,-1,-1,-1,-1,-1,-1,-1,-1,-1,-1,-1,-1,-1,-1,-1,-1],"split_conditions":[2E1,9E0,1.27412E2,6E0,2.33E2,1.7E1,6E0,4.737E1,2.14E2,8.2E1,1.46471E2,2E0,6.6E1,6.944E1,8.3E1,7.5051347E-3,-3.5065394E-2,1.6647529E-2,-5.778216E-3,-1.8036345E-2,3.08368E-2,-3.609099E-2,-9.546152E-3,-1.5931297E-2,2.7568728E-2,-2.975879E-2,1.6551975E-2,3.3550497E-2,-7.924631E-3,-2.9242167E-2,2.3354454E-2],"split_indices":[57,16,3,31,43,8,62,19,2,12,3,31,38,19,45,0,0,0,0,0,0,0,0,0,0,0,0,0,0,0,0],"split_type":[0,0,0,0,0,0,0,0,0,0,0,0,0,0,0,0,0,0,0,0,0,0,0,0,0,0,0,0,0,0,0],"sum_hessian":[2.0416147E2,1.2175336E2,8.240811E1,9.42516E1,2.7501759E1,5.5874218E1,2.653389E1,1.4894803E1,7.93568E1,3.9326234E0,2.3569136E1,4.647205E1,9.402167E0,6.8955092E0,1.9638382E1,2.463617E0,1.2431187E1,2.2623722E1,5.6733074E1,2.4479494E0,1.4846741E0,1.8751602E1,4.8175344E0,2.9557598E0,4.3516293E1,3.9838543E0,5.418313E0,5.4148655E0,1.4806439E0,1.665984E1,2.978541E0],"tree_param":{"num_deleted":"0","num_feature":"63","num_nodes":"31","size_leaf_vector":"1"}},{"base_weights":[1.5046813E-2,3.1387943E-1,-1.1846621E-1,-1.5243487E-2,4.8511994E-1,-1.9937116E-1,3.6186412E-1,1.3288584E-1,-3.8158353E-2,-5.1556325E-1,5.743156E-1,1.7615398E-2,-3.808149E-1,-3.178849E-1,5.5912256E-1,-1.3211573E-2,2.2149315E-2,-1.0052604E-2,-3.1182459E-2,1.0570601E-2,3.1850904E-2,-9.32919E-3,1.9445723E-2,-2.2044273E-2,1.9323355E-2,2.3561886E-2,-3.582949E-2,1.011683E-2,4.088488E-2],"categories":[],"categories_nodes":[],"categories_segments":[],"categories_sizes":[],"default_left":[0,0,0,0,0,0,0,0,0,0,0,0,0,0,0,0,0,0,0,0,0,0,0,0,0,0,0,0,0],"id":19,"left_children":[1,3,5,7,9,11,13,15,-1,17,19,21,23,25,27,-1,-1,-1,-1,-1,-1,-1,-1,-1,-1,-1,-1,-1,-1],"loss_changes":[8.306513E0,3.6300845E0,5.6674776E0,2.6459978E0,4.0726185E0,4.883647E0,3.008445E0,2.5827563E0,0E0,1.0239959E-2,7.6007843E-1,4.4220386E0,3.2817726E0,2.0322306E0,1.3775511E0,0E0,0E0,0E0,0E0,0E0,0E0,0E0,0E0,0E0,0E0,0E0,0E0,0E0,0E0],"parents":[2147483647,0,0,1,1,2,2,3,3,4,4,5,5,6,6,7,7,9,9,10,10,11,11,12,12,13,13,14,14],"right_children":[2,4,6,8,10,12,14,16,-1,18,20,22,24,26,28,-1,-1,-1,-1,-1,-1,-1,-1,-1,-1,-1,-1,-1,-1],"split_conditions":[3.15E2,2E1,3.1838E4,2.5E1,3.99E2,5.1852E1,4E0,6.4E1,-3.8158353E-2,3.922E0,2.12E2,3.9234E1,4.7573E1,2E1,3.42E2,-1.3211573E-2,2.2149315E-2,-1.0052604E-2,-3.1182459E-2,1.0570601E-2,3.1850904E-2,-9.32919E-3,1.9445723E-2,-2.2044273E-2,1.9323355E-2,2.3561886E-2,-3.582949E-2,1.011683E-2,4.088488E-2],"split_indices":[58,14,23,31,28,50,31,6,0,37,2,17,17,33,58,0,0,0,0,0,0,0,0,0,0,0,0,0,0],"split_type":[0,0,0,0,0,0,0,0,0,0,0,0,0,0,0,0,0,0,0,0,0,0,0,0,0,0,0,0,0],"sum_hessian":[2.0626149E2,6.327861E1,1.4298288E2,2.196775E1,4.131086E1,1.2287178E2,2.0111107E1,1.9022577E1,2.9451725E0,2.9896731E0,3.8321186E1,5.6366558E1,6.650522E1,4.3858905E0,1.5725216E1,8.405869E0,1.061671E1,1.4961761E0,1.493497E0,6.289731E0,3.2031456E1,3.6687454E1,1.9679106E1,6.2071068E1,4.434151E0,1.4110998E0,2.974791E0,7.356755E0,8.368461E0],"tree_param":{"num_deleted":"0","num_feature":"63","num_nodes":"29","size_leaf_vector":"1"}},{"base_weights":[-3.7795622E-2,-2.854872E-1,9.7864196E-2,-5.522069E-1,-7.053066E-2,2.7394417E-1,-2.0087112E-1,4.8021965E-2,-6.359622E-1,8.174733E-2,-6.3669264E-1,-1.311504E-1,3.711503E-1,-6.3262206E-1,-7.09154E-2,-2.9587407E-2,3.3246517E-2,-3.8042784E-2,-1.3564351E-2,-1.8037183E-2,1.6999848E-2,-3.6125883E-2,-5.7568722E-3,-1.8993655E-2,2.8440613E-2,2.6347531E-2,2.7288722E-3,-1.2520081E-3,-3.7785713E-2,-2.3422373E-2,1.6170705E-3],"categories":[],"categories_nodes":[],"categories_segments":[],"categories_sizes":[],"default_left":[0,0,0,0,0,0,0,0,0,0,0,0,0,0,0,0,0,0,0,0,0,0,0,0,0,0,0,0,0,0,0],"id":20,"left_children":[1,3,5,7,9,11,13,15,17,19,21,23,25,27,29,-1,-1,-1,-1,-1,-1,-1,-1,-1,-1,-1,-1,-1,-1,-1,-1],"loss_changes":[7.0392556E0,4.209164E0,7.1858597E0,1.6855011E0,3.688154E0,3.4239154E0,2.8082137E0,2.351437E0,1.1125412E0,4.021906E0,3.2205105E-1,3.2325664E0,3.3936033E0,8.5147905E-1,1.665731E0,0E0,0E0,0E0,0E0,0E0,0E0,0E0,0E0,0E0,0E0,0E0,0E0,0E0,0E0,0E0,0E0],"parents":[2147483647,0,0,1,1,2,2,3,3,4,4,5,5,6,6,7,7,8,8,9,9,10,10,11,11,12,12,13,13,14,14],"right_children":[2,4,6,8,10,12,14,16,18,20,22,24,26,28,30,-1,-1,-1,-1,-1,-1,-1,-1,-1,-1,-1,-1,-1,-1,-1,-1],"split_conditions":[2.28E2,1.8E1,5.625E1,4.792E1,1.112E3,1.8E1,9.55E1,1.09118E2,4.1525E1,2.42E2,8.409E1,2.56E2,1.9882E1,7.2E1,6.4E1,-2.9587407E-2,3.3246517E-2,-3.8042784E-2,-1.3564351E-2,-1.8037183E-2,1.6999848E-2,-3.6125883E-2,-5.7568722E-3,-1.8993655E-2,2.8440613E-2,2.6347531E-2,2.7288722E-3,-1.2520081E-3,-3.7785713E-2,-2.3422373E-2,1.6170705E-3],"split_indices":[34,46,18,19,24,15,35,35,17,11,52,34,25,12,38,0,0,0,0,0,0,0,0,0,0,0,0,0,0,0,0],"split_type":[0,0,0,0,0,0,0,0,0,0,0,0,0,0,0,0,0,0,0,0,0,0,0,0,0,0,0,0,0,0,0],"sum_hessian":[2.07659E2,7.309522E1,1.3456378E2,3.1919876E1,4.1175346E1,8.471451E1,4.984927E1,3.9609E0,2.7958975E1,3.3122223E1,8.053121E0,1.6326529E1,6.838798E1,1.0638171E1,3.9211098E1,1.9644425E0,1.9964576E0,2.001714E1,7.9418354E0,1.2060537E1,2.1061687E1,6.584318E0,1.4688027E0,1.2383505E1,3.943024E0,4.538658E1,2.3001398E1,1.9948817E0,8.64329E0,7.355639E0,3.185546E1],"tree_param":{"num_deleted":"0","num_feature":"63","num_nodes":"31","size_leaf_vector":"1"}},{"base_weights":[1.9907981E-2,3.277074E-1,-1.04719594E-1,-1.5355976E-1,4.7363517E-1,-2.3992273E-1,3.2690576E-1,4.2531696E-1,-6.0502195E-1,-3.9080867E-1,5.808761E-1,-4.643616E-1,-4.0637613E-3,6.0069954E-1,-2.79176E-2,3.3181027E-2,-5.5063628E-3,8.118398E-3,-3.9471768E-2,-3.460161E-2,1.2589075E-2,3.2016125E-2,-1.1304395E-2,-7.6386714E-3,-3.4041375E-2,-7.5586005E-3,1.573412E-2,3.4163374E-2,-1.1683791E-2,1.2443739E-2,-2.9840592E-2],"categories":[],"categories_nodes":[],"categories_segments":[],"categories_sizes":[],"default_left":[0,0,0,0,0,0,0,0,0,0,0,0,0,0,0,0,0,0,0,0,0,0,0,0,0,0,0,0,0,0,0],"id":21,"left_children":[1,3,5,7,9,11,13,15,17,19,21,23,25,27,29,-1,-1,-1,-1,-1,-1,-1,-1,-1,-1,-1,-1,-1,-1,-1,-1],"loss_changes":[7.571007E0,4.0664515E0,8.283733E0,3.912453E0,4.294858E0,5.6963363E0,3.316044E0,9.2996275E-1,1.2986081E0,1.2273543E0,2.0367165E0,3.6156511E0,2.555981E0,1.4833546E0,2.628198E0,0E0,0E0,0E0,0E0,0E0,0E0,0E0,0E0,0E0,0E0,0E0,0E0,0E0,0E0,0E0,0E0],"parents":[2147483647,0,0,1,1,2,2,3,3,4,4,5,5,6,6,7,7,8,8,9,9,10,10,11,11,12,12,13,13,14,14],"right_children":[2,4,6,8,10,12,14,16,18,20,22,24,26,28,30,-1,-1,-1,-1,-1,-1,-1,-1,-1,-1,-1,-1,-1,-1,-1,-1],"split_conditions":[1.8E1,7.93E2,2.1118E1,4E1,6.977E1,2.2E1,4.57E2,4.79E2,3.709E0,1.15824E2,8E0,2.57E2,2.734E0,4.7085E1,4.7E1,3.3181027E-2,-5.5063628E-3,8.118398E-3,-3.9471768E-2,-3.460161E-2,1.2589075E-2,3.2016125E-2,-1.1304395E-2,-7.6386714E-3,-3.4041375E-2,-7.5586005E-3,1.573412E-2,3.4163374E-2,-1.1683791E-2,1.2443739E-2,-2.9840592E-2],"split_indices":[46,22,25,42,20,14,60,28,5,35,4,11,39,49,42,0,0,0,0,0,0,0,0,0,0,0,0,0,0,0,0],"split_type":[0,0,0,0,0,0,0,0,0,0,0,0,0,0,0,0,0,0,0,0,0,0,0,0,0,0,0,0,0,0,0],"sum_hessian":[1.9547108E2,5.5866096E1,1.39605E2,1.2986047E1,4.288005E1,1.0664382E2,3.296117E1,5.7154536E0,7.270593E0,4.440668E0,3.843938E1,5.414842E1,5.2495407E1,1.8213818E1,1.4747354E1,3.789517E0,1.9259369E0,1.4318506E0,5.8387427E0,2.9710183E0,1.4696496E0,3.599431E1,2.4450736E0,2.2896376E1,3.125204E1,3.6278038E1,1.6217371E1,1.6738514E1,1.4753039E0,1.0298973E1,4.44838E0],"tree_param":{"num_deleted":"0","num_feature":"63","num_nodes":"31","size_leaf_vector":"1"}},{"base_weights":[-5.250174E-2,7.556485E-2,-3.5691994E-1,-6.996496E-2,3.056534E-1,-1.4730089E-2,-5.0975984E-1,2.962125E-1,-1.9862759E-1,4.5083338E-1,1.2982565E-3,-2.4077317E-1,3.4680028E-2,-5.7793564E-1,2.6565534E-1,-6.7763194E-3,2.6395459E-2,-1.9750409E-2,-9.5788017E-4,3.6130976E-3,3.0206624E-2,1.32433E-2,-2.721177E-2,6.3932226E-3,-2.987128E-2,-3.1005261E-2,6.9240863E-3,2.8425295E-2,-7.4558617E-3],"categories":[],"categories_nodes":[],"categories_segments":[],"categories_sizes":[],"default_left":[0,0,0,0,0,0,0,0,0,0,0,0,0,0,0,0,0,0,0,0,0,0,0,0,0,0,0,0,0],"id":22,"left_children":[1,3,5,7,9,11,13,15,17,19,21,23,-1,25,27,-1,-1,-1,-1,-1,-1,-1,-1,-1,-1,-1,-1,-1,-1],"loss_changes":[7.718048E0,4.6987457E0,3.056899E0,4.1284842E0,2.3990145E0,3.2283907E0,2.293088E0,2.358379E0,2.2663677E0,2.0899868E0,2.810135E0,2.0796735E0,0E0,1.219285E0,5.8169293E-1,0E0,0E0,0E0,0E0,0E0,0E0,0E0,0E0,0E0,0E0,0E0,0E0,0E0,0E0],"parents":[2147483647,0,0,1,1,2,2,3,3,4,4,5,5,6,6,7,7,8,8,9,9,10,10,11,11,13,13,14,14],"right_children":[2,4,6,8,10,12,14,16,18,20,22,24,-1,26,28,-1,-1,-1,-1,-1,-1,-1,-1,-1,-1,-1,-1,-1,-1],"split_conditions":[1.6E1,3.4E2,5.345E1,3.7E1,6.6E1,2.56E2,2.8E1,-7E0,1.2E1,7.4E1,6.8E1,4.294E0,3.4680028E-2,8E0,2.32E2,-6.7763194E-3,2.6395459E-2,-1.9750409E-2,-9.5788017E-4,3.6130976E-3,3.0206624E-2,1.32433E-2,-2.721177E-2,6.3932226E-3,-2.987128E-2,-3.1005261E-2,6.9240863E-3,2.8425295E-2,-7.4558617E-3],"split_indices":[8,58,19,10,6,34,33,48,40,12,38,37,0,4,34,0,0,0,0,0,0,0,0,0,0,0,0,0,0],"split_type":[0,0,0,0,0,0,0,0,0,0,0,0,0,0,0,0,0,0,0,0,0,0,0,0,0,0,0,0,0],"sum_hessian":[1.9627895E2,1.3868636E2,5.7592594E1,8.537992E1,5.330643E1,1.8120157E1,3.947244E1,2.1860912E1,6.351901E1,3.5764965E1,1.7541464E1,1.42369375E1,3.8832202E0,3.651652E1,2.9559166E0,7.7796116E0,1.40813E1,2.9757084E1,3.3761925E1,1.0732496E1,2.5032469E1,1.2174156E1,5.367308E0,7.3162813E0,6.9206557E0,3.4613544E1,1.9029777E0,1.494238E0,1.4616786E0],"tree_param":{"num_deleted":"0","num_feature":"63","num_nodes":"29","size_leaf_vector":"1"}},{"base_weights":[1.0512246E-2,3.0904752E-1,-1.21862546E-1,3.6636788E-1,-2.7081233E-1,-2.3681845E-1,1.3955662E-1,4.8598737E-1,1.40581075E-2,1.8902619E-1,-3.5772856E-2,1.8248512E-1,-3.038271E-1,-4.822418E-1,2.4359767E-1,1.1755348E-2,3.080511E-2,-3.6453776E-2,1.370116E-2,-1.1181351E-2,2.6388446E-2,2.3974746E-2,-2.5778169E-2,-1.792099E-2,4.959966E-3,1.1083444E-2,-3.587989E-2,4.3349345E-3,2.9602522E-2],"categories":[],"categories_nodes":[],"categories_segments":[],"categories_sizes":[],"default_left":[0,0,0,0,0,0,0,0,0,0,0,0,0,0,0,0,0,0,0,0,0,0,0,0,0,0,0,0,0],"id":23,"left_children":[1,3,5,7,9,11,13,15,17,19,-1,21,23,25,27,-1,-1,-1,-1,-1,-1,-1,-1,-1,-1,-1,-1,-1,-1],"loss_changes":[8.364668E0,2.2601018E0,4.4415827E0,2.5044527E0,1.4486213E0,2.92873E0,3.0567908E0,1.306324E0,3.316667E0,6.7000145E-1,0E0,3.2981427E0,1.9838076E0,1.2936134E0,2.112962E0,0E0,0E0,0E0,0E0,0E0,0E0,0E0,0E0,0E0,0E0,0E0,0E0,0E0,0E0],"parents":[2147483647,0,0,1,1,2,2,3,3,4,4,5,5,6,6,7,7,8,8,9,9,11,11,12,12,13,13,14,14],"right_children":[2,4,6,8,10,12,14,16,18,20,-1,22,24,26,28,-1,-1,-1,-1,-1,-1,-1,-1,-1,-1,-1,-1,-1,-1],"split_conditions":[2E1,1.19E2,2.6E1,4.4E1,1.7824E1,3.1E1,3.709E0,7.98E2,1.017E3,2E1,-3.5772856E-2,1.109E3,5.04E2,6.3E1,1.11E2,1.1755348E-2,3.080511E-2,-3.6453776E-2,1.370116E-2,-1.1181351E-2,2.6388446E-2,2.3974746E-2,-2.5778169E-2,-1.792099E-2,4.959966E-3,1.1083444E-2,-3.587989E-2,4.3349345E-3,2.9602522E-2],"split_indices":[33,21,14,42,57,9,5,22,24,1,0,56,28,38,53,0,0,0,0,0,0,0,0,0,0,0,0,0,0],"split_type":[0,0,0,0,0,0,0,0,0,0,0,0,0,0,0,0,0,0,0,0,0,0,0,0,0,0,0,0,0],"sum_hessian":[2.0971135E2,6.401295E1,1.4569841E2,5.858944E1,5.4235077E0,1.0126323E2,4.4435173E1,4.3455566E1,1.5133872E1,2.948814E0,2.474694E0,1.3715542E1,8.754769E1,5.848237E0,3.8586937E1,1.5799239E1,2.7656328E1,3.454464E0,1.1679408E1,1.4825804E0,1.4662335E0,9.8413E0,3.8742423E0,7.7200966E1,1.034672E1,1.4799894E0,4.368248E0,2.746775E1,1.1119185E1],"tree_param":{"num_deleted":"0","num_feature":"63","num_nodes":"29","size_leaf_vector":"1"}},{"base_weights":[-9.889509E-3,-3.0686226E-1,1.22183025E-1,-7.330437E-2,-4.4674665E-1,2.913625E-1,-9.937252E-2,3.360022E-2,-1.8290026E-1,-5.078249E-1,2.4009255E-1,3.9586103E-1,-2.0121501E-1,3.7733442E-1,-1.881332E-1,-2.0103745E-2,1.1173955E-2,-2.812247E-2,1.0444701E-2,-8.204014E-3,2.7478231E-2,2.2060689E-2,-1.821641E-2,2.2253736E-3,-3.6210146E-2,-1.3537494E-3,3.742605E-2,-1.7706754E-2,9.804059E-3],"categories":[],"categories_nodes":[],"categories_segments":[],"categories_sizes":[],"default_left":[0,0,0,0,0,0,0,0,0,0,0,0,0,0,0,0,0,0,0,0,0,0,0,0,0,0,0,0,0],"id":24,"left_children":[1,3,5,7,9,11,13,-1,15,17,19,21,23,25,27,-1,-1,-1,-1,-1,-1,-1,-1,-1,-1,-1,-1,-1,-1],"loss_changes":[8.250613E0,2.0825262E0,5.4885497E0,2.2016022E0,1.8123856E0,4.3439827E0,2.7710438E0,0E0,2.1359286E0,1.5788364E0,5.8670944E-1,2.528696E0,1.9807354E0,1.5737901E0,3.5430791E0,0E0,0E0,0E0,0E0,0E0,0E0,0E0,0E0,0E0,0E0,0E0,0E0,0E0,0E0],"parents":[2147483647,0,0,1,1,2,2,3,3,4,4,5,5,6,6,8,8,9,9,10,10,11,11,12,12,13,13,14,14],"right_children":[2,4,6,8,10,12,14,-1,16,18,20,22,24,26,28,-1,-1,-1,-1,-1,-1,-1,-1,-1,-1,-1,-1,-1,-1],"split_conditions":[2E1,7.93E2,3.9565E1,4.85E2,1.003E3,2.842E0,7.3E1,3.360022E-2,4E1,6.5E1,1.8E1,5.294E0,4.48E2,2.32E2,4.95E2,-2.0103745E-2,1.1173955E-2,-2.812247E-2,1.0444701E-2,-8.204014E-3,2.7478231E-2,2.2060689E-2,-1.821641E-2,2.2253736E-3,-3.6210146E-2,-1.3537494E-3,3.742605E-2,-1.7706754E-2,9.804059E-3],"split_indices":[33,22,17,29,22,39,12,0,42,38,33,37,28,43,60,0,0,0,0,0,0,0,0,0,0,0,0,0,0],"split_type":[0,0,0,0,0,0,0,0,0,0,0,0,0,0,0,0,0,0,0,0,0,0,0,0,0,0,0,0,0],"sum_hessian":[2.0840115E2,6.3744503E1,1.4465665E2,2.4448357E1,3.9296146E1,8.1844925E1,6.2811726E1,2.4763365E0,2.1972021E1,3.63264E1,2.9697475E0,6.768264E1,1.4162282E1,9.349143E0,5.346258E1,1.428059E1,7.6914306E0,3.395386E1,2.372538E0,1.4915621E0,1.4781855E0,6.426802E1,3.4146166E0,1.0257676E1,3.904606E0,4.9180093E0,4.4311337E0,3.7387432E1,1.607515E1],"tree_param":{"num_deleted":"0","num_feature":"63","num_nodes":"29","size_leaf_vector":"1"}},{"base_weights":[6.313508E-2,-7.83019E-2,2.8700206E-1,3.5556123E-1,-1.6322438E-1,3.766258E-2,4.182612E-1,5.380675E-1,-3.6055148E-1,2.2071397E-2,-3.0339345E-1,-1.5839317E-1,4.9301207E-1,4.560939E-1,-2.6425352E-2,-1.8059056E-2,3.3760156E-2,7.1397396E-3,-3.0840917E-2,-4.7390778E-3,2.3066362E-2,-2.1817872E-2,-1.704644E-5,-3.852005E-2,6.667933E-3,3.296517E-2,-9.887825E-3,2.74346E-2,9.585509E-3],"categories":[],"categories_nodes":[],"categories_segments":[],"categories_sizes":[],"default_left":[0,0,0,0,0,0,0,0,0,0,0,0,0,0,0,0,0,0,0,0,0,0,0,0,0,0,0,0,0],"id":25,"left_children":[1,3,5,7,9,11,13,15,17,19,21,23,25,27,-1,-1,-1,-1,-1,-1,-1,-1,-1,-1,-1,-1,-1,-1,-1],"loss_changes":[6.532171E0,4.729131E0,2.596437E0,2.9474185E0,2.778255E0,2.6335714E0,2.110426E0,2.3637228E0,7.1723235E-1,2.4504848E0,2.4506311E0,3.8107085E0,1.1479557E0,1.1365376E0,0E0,0E0,0E0,0E0,0E0,0E0,0E0,0E0,0E0,0E0,0E0,0E0,0E0,0E0,0E0],"parents":[2147483647,0,0,1,1,2,2,3,3,4,4,5,5,6,6,7,7,8,8,9,9,10,10,11,11,12,12,13,13],"right_children":[2,4,6,8,10,12,14,16,18,20,22,24,26,28,-1,-1,-1,-1,-1,-1,-1,-1,-1,-1,-1,-1,-1,-1,-1],"split_conditions":[5.625E1,3.6E1,1.3E1,2.9E1,1.9235E1,5.79E2,5.7E1,2.06E2,8E0,1.7E1,3.9565E1,1.01E2,6.7E1,4.79E2,-2.6425352E-2,-1.8059056E-2,3.3760156E-2,7.1397396E-3,-3.0840917E-2,-4.7390778E-3,2.3066362E-2,-2.1817872E-2,-1.704644E-5,-3.852005E-2,6.667933E-3,3.296517E-2,-9.887825E-3,2.74346E-2,9.585509E-3],"split_indices":[18,42,8,15,57,61,42,2,40,8,17,53,6,60,0,0,0,0,0,0,0,0,0,0,0,0,0,0,0],"split_type":[0,0,0,0,0,0,0,0,0,0,0,0,0,0,0,0,0,0,0,0,0,0,0,0,0,0,0,0,0],"sum_hessian":[2.0459277E2,1.257778E2,7.8814964E1,2.0067492E1,1.0571031E2,2.7625185E1,5.118978E1,1.6189987E1,3.8775036E0,4.588948E1,5.982083E1,1.9766605E1,7.8585796E0,4.972119E1,1.4685885E0,1.9260982E0,1.4263889E1,1.4575152E0,2.4199884E0,3.686634E1,9.023139E0,4.1272633E1,1.85482E1,5.8514385E0,1.3915167E1,6.3705297E0,1.4880502E0,3.6027508E1,1.3693683E1],"tree_param":{"num_deleted":"0","num_feature":"63","num_nodes":"29","size_leaf_vector":"1"}},{"base_weights":[-3.4992892E-2,1.5508178E-1,-1.6510448E-1,-5.1866956E-3,3.75689E-1,-3.3028924E-1,-4.237474E-2,-1.5561703E-1,4.8015106E-1,6.180471E-1,1.7396887E-1,-5.161009E-1,-1.1266665E-1,1.4557822E-1,-3.9405644E-1,-1.3436789E-2,2.097883E-2,3.6301162E-2,7.215713E-3,3.6348518E-2,1.0304958E-2,-2.7477806E-2,2.0030454E-2,-2.845415E-2,1.298534E-2,2.0308549E-2,-1.34144E-2,4.7532763E-4,2.606422E-2,7.2346935E-3,-2.4781814E-2],"categories":[],"categories_nodes":[],"categories_segments":[],"categories_sizes":[],"default_left":[0,0,0,0,0,0,0,0,0,0,0,0,0,0,0,0,0,0,0,0,0,0,0,0,0,0,0,0,0,0,0],"id":26,"left_children":[1,3,5,7,9,11,13,15,17,19,21,23,25,27,29,-1,-1,-1,-1,-1,-1,-1,-1,-1,-1,-1,-1,-1,-1,-1,-1],"loss_changes":[5.1457877E0,2.9947655E0,2.487471E0,3.7262836E0,1.6344867E0,2.0627575E0,4.8124886E0,2.6461337E0,8.926141E-1,5.5885935E-1,3.6372094E0,1.2992601E0,2.1627576E0,2.4291592E0,1.4576988E0,0E0,0E0,0E0,0E0,0E0,0E0,0E0,0E0,0E0,0E0,0E0,0E0,0E0,0E0,0E0,0E0],"parents":[2147483647,0,0,1,1,2,2,3,3,4,4,5,5,6,6,7,7,8,8,9,9,10,10,11,11,12,12,13,13,14,14],"right_children":[2,4,6,8,10,12,14,16,18,20,22,24,26,28,30,-1,-1,-1,-1,-1,-1,-1,-1,-1,-1,-1,-1,-1,-1,-1,-1],"split_conditions":[2.1E1,2E1,1.2E1,4.7E1,1.21118E2,2.1E1,3.1732E4,5.833E1,8.3E1,8.82E2,2.01E2,8E0,4E1,2.56E2,7.01E2,-1.3436789E-2,2.097883E-2,3.6301162E-2,7.215713E-3,3.6348518E-2,1.0304958E-2,-2.7477806E-2,2.0030454E-2,-2.845415E-2,1.298534E-2,2.0308549E-2,-1.34144E-2,4.7532763E-4,2.606422E-2,7.2346935E-3,-2.4781814E-2],"split_indices":[1,57,40,42,35,15,23,19,12,54,2,4,41,34,54,0,0,0,0,0,0,0,0,0,0,0,0,0,0,0,0],"split_type":[0,0,0,0,0,0,0,0,0,0,0,0,0,0,0,0,0,0,0,0,0,0,0,0,0,0,0,0,0,0,0],"sum_hessian":[2.0603574E2,8.364714E1,1.2238859E2,4.90149E1,3.463224E1,5.1449856E1,7.0938736E1,3.7936005E1,1.1078894E1,1.4793998E1,1.9838243E1,2.7013504E1,2.443635E1,4.6612938E1,2.4325794E1,3.214675E1,5.789254E0,5.7253947E0,5.353499E0,1.1095518E1,3.6984806E0,4.3921075E0,1.5446136E1,2.553604E1,1.4774648E0,5.2668405E0,1.916951E1,3.497217E1,1.1640769E1,3.7916315E0,2.0534163E1],"tree_param":{"num_deleted":"0","num_feature":"63","num_nodes":"31","size_leaf_vector":"1"}},{"base_weights":[2.3786576E-2,2.7120858E-1,-7.857419E-2,-3.283465E-1,3.4204796E-1,-2.1284783E-1,2.0410924E-1,1.2405657E-1,-3.4467146E-2,-5.4976802E-2,4.1763145E-1,1.870676E-1,-2.842509E-1,-3.665201E-2,3.2741323E-1,2.4701394E-2,-1.4768389E-2,-1.6724007E-2,2.8227612E-2,-1.3472515E-2,2.3545535E-2,1.5887877E-2,-1.8175239E-2,1.8777667E-2,-1.6678087E-2,2.8051963E-2,2.3306094E-3],"categories":[],"categories_nodes":[],"categories_segments":[],"categories_sizes":[],"default_left":[0,0,0,0,0,0,0,0,0,0,0,0,0,0,0,0,0,0,0,0,0,0,0,0,0,0,0],"id":27,"left_children":[1,3,5,7,9,11,13,15,-1,17,19,21,23,-1,25,-1,-1,-1,-1,-1,-1,-1,-1,-1,-1,-1,-1],"loss_changes":[5.196626E0,2.6616774E0,5.5593834E0,1.2047046E0,1.6485691E0,2.8804936E0,5.7067103E0,7.493771E-1,0E0,1.8420376E0,1.7970667E0,1.2382182E0,2.8715715E0,0E0,2.7618861E0,0E0,0E0,0E0,0E0,0E0,0E0,0E0,0E0,0E0,0E0,0E0,0E0],"parents":[2147483647,0,0,1,1,2,2,3,3,4,4,5,5,6,6,7,7,9,9,10,10,11,11,12,12,14,14],"right_children":[2,4,6,8,10,12,14,16,-1,18,20,22,24,-1,26,-1,-1,-1,-1,-1,-1,-1,-1,-1,-1,-1,-1],"split_conditions":[2.19E2,3.91E2,2.6E1,1.2E1,4.85E2,6E0,3.734E0,7.9E1,-3.4467146E-2,8.4E1,3.4E1,2.232E0,8.6E1,-3.665201E-2,6.6E1,2.4701394E-2,-1.4768389E-2,-1.6724007E-2,2.8227612E-2,-1.3472515E-2,2.3545535E-2,1.5887877E-2,-1.8175239E-2,1.8777667E-2,-1.6678087E-2,2.8051963E-2,2.3306094E-3],"split_indices":[34,28,14,40,29,30,5,13,0,44,10,7,53,0,38,0,0,0,0,0,0,0,0,0,0,0,0],"split_type":[0,0,0,0,0,0,0,0,0,0,0,0,0,0,0,0,0,0,0,0,0,0,0,0,0,0,0],"sum_hessian":[2.0334549E2,5.9024494E1,1.44321E2,5.852898E0,5.3171593E1,9.801246E1,4.6308533E1,2.8888822E0,2.9640162E0,8.547251E0,4.4624344E1,1.4603128E1,8.340933E1,4.8095374E0,4.1498997E1,1.4404233E0,1.4484588E0,6.2070274E0,2.3402228E0,2.9193604E0,4.1704983E1,1.2143478E1,2.4596505E0,5.340099E0,7.806923E1,2.2107552E1,1.9391445E1],"tree_param":{"num_deleted":"0","num_feature":"63","num_nodes":"27","size_leaf_vector":"1"}},{"base_weights":[-4.89219E-2,1.8409191E-1,-1.6729933E-1,-5.433456E-1,2.45285E-1,-1.975741E-1,5.623357E-1,-3.2307174E-2,-6.87337E-3,-1.7432502E-2,4.4944766E-1,-6.55781E-2,-3.5223708E-1,6.1928052E-3,3.356522E-2,1.3365964E-2,-2.1988995E-2,1.1128511E-3,2.8454347E-2,1.818591E-2,-7.4175852E-3,-2.4443785E-2,-4.730338E-3],"categories":[],"categories_nodes":[],"categories_segments":[],"categories_sizes":[],"default_left":[0,0,0,0,0,0,0,0,0,0,0,0,0,0,0,0,0,0,0,0,0,0,0],"id":28,"left_children":[1,3,5,7,9,11,13,-1,-1,15,17,19,21,-1,-1,-1,-1,-1,-1,-1,-1,-1,-1],"loss_changes":[5.738607E0,3.2575614E0,3.1537452E0,1.5138102E-1,3.5172732E0,2.6919556E0,1.9147897E-1,0E0,0E0,3.6742945E0,1.8709459E0,2.6473925E0,2.1014376E0,0E0,0E0,0E0,0E0,0E0,0E0,0E0,0E0,0E0,0E0],"parents":[2147483647,0,0,1,1,2,2,3,3,4,4,5,5,6,6,9,9,10,10,11,11,12,12],"right_children":[2,4,6,8,10,12,14,-1,-1,16,18,20,22,-1,-1,-1,-1,-1,-1,-1,-1,-1,-1],"split_conditions":[1.04941E2,1.017E3,2.77E2,9.9176E1,1.054E3,8.3E1,1.16588E2,-3.2307174E-2,-6.87337E-3,8.53E2,6.7E1,6E0,2.2E1,6.1928052E-3,3.356522E-2,1.3365964E-2,-2.1988995E-2,1.1128511E-3,2.8454347E-2,1.818591E-2,-7.4175852E-3,-2.4443785E-2,-4.730338E-3],"split_indices":[3,56,34,3,24,12,3,0,0,54,45,62,15,0,0,0,0,0,0,0,0,0,0],"split_type":[0,0,0,0,0,0,0,0,0,0,0,0,0,0,0,0,0,0,0,0,0,0,0],"sum_hessian":[2.0592778E2,6.918638E1,1.367414E2,4.757076E0,6.44293E1,1.3199379E2,4.747606E0,3.3233883E0,1.4336874E0,2.8574331E1,3.5854973E1,7.198377E1,6.0010017E1,1.3702945E0,3.3773112E0,1.7286573E1,1.1287757E1,8.104087E0,2.7750885E1,1.108718E1,6.0896595E1,3.8626316E1,2.1383705E1],"tree_param":{"num_deleted":"0","num_feature":"63","num_nodes":"23","size_leaf_vector":"1"}},{"base_weights":[2.0344129E-2,2.6253343E-1,-8.4706165E-2,3.031394E-1,-2.589239E-2,-3.3861285E-1,7.616059E-2,-3.7423078E-2,4.3039584E-1,4.5878956E-1,-3.990625E-1,-2.0440379E-1,2.4428692E-1,1.3055535E-2,-2.3433689E-2,2.5675843E-2,-9.660024E-5,4.3883515E-3,3.0515915E-2,1.5948206E-2,-2.3187162E-2,-2.4540545E-2,7.905279E-3,1.5828403E-2,-1.4048136E-2],"categories":[],"categories_nodes":[],"categories_segments":[],"categories_sizes":[],"default_left":[0,0,0,0,0,0,0,0,0,0,0,0,0,0,0,0,0,0,0,0,0,0,0,0,0],"id":29,"left_children":[1,3,5,7,-1,9,11,13,15,17,19,21,23,-1,-1,-1,-1,-1,-1,-1,-1,-1,-1,-1,-1],"loss_changes":[5.2079935E0,2.1187086E0,5.863324E0,2.5937328E0,0E0,2.863809E0,4.2153096E0,2.3237212E0,1.5597839E0,1.9290906E-1,2.5735846E0,3.5695298E0,2.2025805E0,0E0,0E0,0E0,0E0,0E0,0E0,0E0,0E0,0E0,0E0,0E0,0E0],"parents":[2147483647,0,0,1,1,2,2,3,3,5,5,6,6,7,7,8,8,9,9,10,10,11,11,12,12],"right_children":[2,4,6,8,-1,10,12,14,16,18,20,22,24,-1,-1,-1,-1,-1,-1,-1,-1,-1,-1,-1,-1],"split_conditions":[2E1,1.56529E2,4.1E1,1.8235E1,-2.589239E-2,6.9E1,1.04941E2,3.6232E1,1.5E1,6E0,4E0,8.46E2,4.7486E1,1.3055535E-2,-2.3433689E-2,2.5675843E-2,-9.660024E-5,4.3883515E-3,3.0515915E-2,1.5948206E-2,-2.3187162E-2,-2.4540545E-2,7.905279E-3,1.5828403E-2,-1.4048136E-2],"split_indices":[33,3,10,25,0,44,3,17,40,36,30,54,49,0,0,0,0,0,0,0,0,0,0,0,0],"split_type":[0,0,0,0,0,0,0,0,0,0,0,0,0,0,0,0,0,0,0,0,0,0,0,0,0],"sum_hessian":[2.028261E2,6.0907387E1,1.419187E2,5.8476215E1,2.4311714E0,5.461356E1,8.7305145E1,1.6098772E1,4.2377445E1,3.3840692E0,5.1229492E1,3.263276E1,5.4672382E1,9.746366E0,6.352406E0,3.538617E1,6.9912753E0,1.4392456E0,1.9448237E0,3.9085836E0,4.7320908E1,1.8032183E1,1.4600579E1,4.8408104E1,6.2642784E0],"tree_param":{"num_deleted":"0","num_feature":"63","num_nodes":"25","size_leaf_vector":"1"}},{"base_weights":[8.9313155E-3,-2.8091964E-1,1.1024113E-1,-3.242358E-2,-4.422342E-1,4.0239993E-1,2.021545E-2,4.4537985E-1,-2.3924175E-1,-5.605906E-1,-3.5911366E-2,-2.4027312E-1,5.256862E-1,1.1175076E-1,-2.8398964E-1,3.5955235E-2,-1.8287272E-3,-3.3970654E-2,1.8190689E-3,-3.3120256E-2,8.354678E-3,2.7063036E-2,-1.8596662E-2,-3.3970967E-2,1.078648E-2,2.9059395E-2,-1.6632512E-2,1.931175E-2,-1.7269355E-3,-2.9445658E-2,6.0949954E-3],"categories":[],"categories_nodes":[],"categories_segments":[],"categories_sizes":[],"default_left":[0,0,0,0,0,0,0,0,0,0,0,0,0,0,0,0,0,0,0,0,0,0,0,0,0,0,0,0,0,0,0],"id":30,"left_children":[1,3,5,7,9,11,13,15,17,19,21,23,25,27,29,-1,-1,-1,-1,-1,-1,-1,-1,-1,-1,-1,-1,-1,-1,-1,-1],"loss_changes":[5.867705E0,2.0605946E0,3.8846562E0,2.2266333E0,1.4854856E0,2.8844361E0,3.211535E0,9.2741406E-1,1.9202061E0,1.9019222E0,1.7782195E0,1.406012E0,1.5996952E0,3.5669277E0,3.3757875E0,0E0,0E0,0E0,0E0,0E0,0E0,0E0,0E0,0E0,0E0,0E0,0E0,0E0,0E0,0E0,0E0],"parents":[2147483647,0,0,1,1,2,2,3,3,4,4,5,5,6,6,7,7,8,8,9,9,10,10,11,11,12,12,13,13,14,14],"right_children":[2,4,6,8,10,12,14,16,18,20,22,24,26,28,30,-1,-1,-1,-1,-1,-1,-1,-1,-1,-1,-1,-1,-1,-1,-1,-1],"split_conditions":[3.6224E1,1.3E1,9.6882E1,9.6E1,1.2E1,3.6E1,2.734E0,6E0,5.1852E1,9.5E1,8.1E1,2.5E1,5.171E0,2.1E1,3.9904E1,3.5955235E-2,-1.8287272E-3,-3.3970654E-2,1.8190689E-3,-3.3120256E-2,8.354678E-3,2.7063036E-2,-1.8596662E-2,-3.3970967E-2,1.078648E-2,2.9059395E-2,-1.6632512E-2,1.931175E-2,-1.7269355E-3,-2.9445658E-2,6.0949954E-3],"split_indices":[49,8,3,53,30,42,39,4,18,12,44,15,37,1,17,0,0,0,0,0,0,0,0,0,0,0,0,0,0,0,0],"split_type":[0,0,0,0,0,0,0,0,0,0,0,0,0,0,0,0,0,0,0,0,0,0,0,0,0,0,0,0,0,0,0],"sum_hessian":[1.9776677E2,5.0762005E1,1.4700478E2,2.0454294E1,3.0307709E1,3.381045E1,1.1319432E2,5.830605E0,1.462369E1,2.3176912E1,7.130797E0,5.2892857E0,2.8521166E1,8.749863E1,2.569569E1,3.4047983E0,2.4258068E0,5.0668693E0,9.55682E0,2.0410824E1,2.7660882E0,2.3991232E0,4.7316737E0,2.444858E0,2.8444278E0,2.709222E1,1.4289451E0,2.9850206E1,5.7648422E1,1.4415307E1,1.1280383E1],"tree_param":{"num_deleted":"0","num_feature":"63","num_nodes":"31","size_leaf_vector":"1"}},{"base_weights":[4.357213E-2,4.2302692E-1,-2.073744E-2,-3.594312E-1,5.3878516E-1,-1.4648032E-1,2.0936795E-1,8.551743E-3,-3.339341E-2,-6.073596E-2,6.9224316E-1,1.2948051E-1,-2.052372E-1,1.0676758E-1,6.436315E-1,2.497485E-2,-2.0345038E-2,3.6939856E-2,1.04664E-2,-2.4237264E-2,1.907245E-2,-1.3588922E-2,7.0267427E-3,1.1607924E-2,-1.1388432E-2,1.89502E-3,3.5980243E-2],"categories":[],"categories_nodes":[],"categories_segments":[],"categories_sizes":[],"default_left":[0,0,0,0,0,0,0,0,0,0,0,0,0,0,0,0,0,0,0,0,0,0,0,0,0,0,0],"id":31,"left_children":[1,3,5,7,9,11,13,-1,-1,15,17,19,21,23,25,-1,-1,-1,-1,-1,-1,-1,-1,-1,-1,-1,-1],"loss_changes":[4.9507017E0,2.8561468E0,5.0687227E0,8.321977E-1,2.4347181E0,1.8617783E0,2.691029E0,0E0,0E0,1.4094281E0,3.126831E-1,3.3547132E0,2.194072E0,2.2048426E0,5.083194E-1,0E0,0E0,0E0,0E0,0E0,0E0,0E0,0E0,0E0,0E0,0E0,0E0],"parents":[2147483647,0,0,1,1,2,2,3,3,4,4,5,5,6,6,9,9,10,10,11,11,12,12,13,13,14,14],"right_children":[2,4,6,8,10,12,14,-1,-1,16,18,20,22,24,26,-1,-1,-1,-1,-1,-1,-1,-1,-1,-1,-1,-1],"split_conditions":[1.85E2,4.1E2,4E0,3E0,1.92E2,2.9778E4,3.1838E4,8.551743E-3,-3.339341E-2,1.96E2,2.65E2,7.885E1,3.2153E4,2.56E2,3.3E1,2.497485E-2,-2.0345038E-2,3.6939856E-2,1.04664E-2,-2.4237264E-2,1.907245E-2,-1.3588922E-2,7.0267427E-3,1.1607924E-2,-1.1388432E-2,1.89502E-3,3.5980243E-2],"split_indices":[59,28,16,31,27,55,23,0,0,34,27,20,55,34,42,0,0,0,0,0,0,0,0,0,0,0,0],"split_type":[0,0,0,0,0,0,0,0,0,0,0,0,0,0,0,0,0,0,0,0,0,0,0,0,0,0,0],"sum_hessian":[2.0151672E2,2.8395107E1,1.7312163E2,3.3881536E0,2.5006954E1,1.12182205E2,6.093942E1,1.4095E0,1.9786537E0,5.2195854E0,1.9787369E1,1.948135E1,9.270085E1,5.0301014E1,1.0638404E1,1.8242595E0,3.395326E0,1.756427E1,2.2230983E0,5.398223E0,1.4083126E1,7.791978E1,1.4781079E1,3.680994E1,1.3491075E1,1.3526524E0,9.285751E0],"tree_param":{"num_deleted":"0","num_feature":"63","num_nodes":"27","size_leaf_vector":"1"}},{"base_weights":[-3.3986643E-2,-1.1440751E-1,2.5170904E-1,-1.9405615E-1,1.4838162E-1,-1.2974235E-1,3.8788775E-1,-2.679676E-1,8.459734E-2,3.534403E-1,-4.105815E-1,-4.7118202E-1,5.169931E-1,5.650558E-1,-2.7904985E-3,4.8216125E-3,-1.661645E-2,3.0417923E-2,-6.8034925E-3,4.497766E-3,2.685777E-2,-3.15349E-2,2.81125E-2,-3.6963012E-2,-1.4954694E-3,5.2007404E-3,3.289808E-2,-6.7796954E-3,3.0965656E-2,1.1615424E-2,-3.1162161E-2],"categories":[],"categories_nodes":[],"categories_segments":[],"categories_sizes":[],"default_left":[0,0,0,0,0,0,0,0,0,0,0,0,0,0,0,0,0,0,0,0,0,0,0,0,0,0,0,0,0,0,0],"id":32,"left_children":[1,3,5,7,9,11,13,15,17,19,21,23,25,27,29,-1,-1,-1,-1,-1,-1,-1,-1,-1,-1,-1,-1,-1,-1,-1,-1],"loss_changes":[4.703996E0,3.3666997E0,2.3883607E0,2.552114E0,4.461611E0,3.0238376E0,2.3146877E0,2.314229E0,3.1463478E0,1.3113618E0,2.6180449E0,1.0145503E0,2.1258402E-1,9.5821905E-1,1.8108542E0,0E0,0E0,0E0,0E0,0E0,0E0,0E0,0E0,0E0,0E0,0E0,0E0,0E0,0E0,0E0,0E0],"parents":[2147483647,0,0,1,1,2,2,3,3,4,4,5,5,6,6,7,7,8,8,9,9,10,10,11,11,12,12,13,13,14,14],"right_children":[2,4,6,8,10,12,14,16,18,20,22,24,26,28,30,-1,-1,-1,-1,-1,-1,-1,-1,-1,-1,-1,-1,-1,-1,-1,-1],"split_conditions":[6.1905E1,2.56E2,3.2E1,1.2E1,2.4E1,7.7E1,1.9E1,1.8E1,1.815E0,5.1724E1,8.2E1,8E0,1.1E1,4E0,1.21118E2,4.8216125E-3,-1.661645E-2,3.0417923E-2,-6.8034925E-3,4.497766E-3,2.685777E-2,-3.15349E-2,2.81125E-2,-3.6963012E-2,-1.4954694E-3,5.2007404E-3,3.289808E-2,-6.7796954E-3,3.0965656E-2,1.1615424E-2,-3.1162161E-2],"split_indices":[50,34,9,30,1,45,31,1,39,50,45,62,8,30,3,0,0,0,0,0,0,0,0,0,0,0,0,0,0,0,0],"split_type":[0,0,0,0,0,0,0,0,0,0,0,0,0,0,0,0,0,0,0,0,0,0,0,0,0,0,0,0,0,0,0],"sum_hessian":[2.0248274E2,1.584734E2,4.4009342E1,1.2181431E2,3.6659092E1,1.1590461E1,3.241888E1,9.6307556E1,2.5506754E1,2.7089022E1,9.570071E0,7.763315E0,3.827145E0,2.1997107E1,1.0421777E1,1.4381937E1,8.192562E1,7.04005E0,1.8466703E1,1.1740453E1,1.5348568E1,8.091049E0,1.4790223E0,4.409315E0,3.3540003E0,1.4161834E0,2.4109616E0,1.4732518E0,2.0523853E1,8.01163E0,2.4101462E0],"tree_param":{"num_deleted":"0","num_feature":"63","num_nodes":"31","size_leaf_vector":"1"}},{"base_weights":[2.1414684E-2,2.773408E-1,-8.123651E-2,3.5223067E-1,-3.344311E-1,-1.824645E-1,2.4251263E-1,-2.7051399E-2,3.9690834E-1,-5.207163E-1,4.2773006E-3,-6.86295E-2,-5.2382416E-1,-2.9290607E-2,2.9799867E-1,2.2399798E-2,-8.268785E-3,-3.2971933E-2,-5.4317396E-3,-1.2295659E-2,6.798734E-3,-1.0199086E-2,-3.4898143E-2,-9.921798E-4,2.4472898E-2],"categories":[],"categories_nodes":[],"categories_segments":[],"categories_sizes":[],"default_left":[0,0,0,0,0,0,0,0,0,0,0,0,0,0,0,0,0,0,0,0,0,0,0,0,0],"id":33,"left_children":[1,3,5,7,9,11,13,-1,15,17,-1,19,21,-1,23,-1,-1,-1,-1,-1,-1,-1,-1,-1,-1],"loss_changes":[5.234824E0,2.7303972E0,4.7103815E0,2.261742E0,5.712462E-1,4.201043E0,1.753021E0,0E0,1.4938774E0,2.0302474E-1,0E0,3.041158E0,1.3679581E0,0E0,2.008784E0,0E0,0E0,0E0,0E0,0E0,0E0,0E0,0E0,0E0,0E0],"parents":[2147483647,0,0,1,1,2,2,3,3,4,4,5,5,6,6,8,8,9,9,11,11,12,12,14,14],"right_children":[2,4,6,8,10,12,14,-1,16,18,-1,20,22,-1,24,-1,-1,-1,-1,-1,-1,-1,-1,-1,-1],"split_conditions":[1.8E1,6.05E2,3.1732E4,1.7235E1,7.4E1,2.56E2,3E0,-2.7051399E-2,6.364E1,4.2E1,4.2773006E-3,2.74E2,4.113E0,-2.9290607E-2,7.6E1,2.2399798E-2,-8.268785E-3,-3.2971933E-2,-5.4317396E-3,-1.2295659E-2,6.798734E-3,-1.0199086E-2,-3.4898143E-2,-9.921798E-4,2.4472898E-2],"split_indices":[46,29,23,25,45,34,31,0,51,10,0,43,37,0,12,0,0,0,0,0,0,0,0,0,0],"split_type":[0,0,0,0,0,0,0,0,0,0,0,0,0,0,0,0,0,0,0,0,0,0,0,0,0],"sum_hessian":[1.9740395E2,5.6024353E1,1.413796E2,5.0292107E1,5.732248E0,1.0803595E2,3.3343647E1,1.8664215E0,4.8425682E1,3.8047452E0,1.9275025E0,8.191903E1,2.6116919E1,1.4932842E0,3.1850363E1,4.4578644E1,3.8470383E0,2.39742E0,1.4073253E0,4.3781616E1,3.8137413E1,9.972214E0,1.6144705E1,1.2310317E1,1.9540047E1],"tree_param":{"num_deleted":"0","num_feature":"63","num_nodes":"25","size_leaf_vector":"1"}},{"base_weights":[-1.6299946E-2,2.0439036E-1,-1.4787105E-1,-9.358853E-2,3.5046923E-1,-1.893352E-1,5.6857425E-1,3.412318E-1,-3.3632845E-1,4.8006886E-1,-3.6503617E-2,-2.1481463E-1,3.0950462E-2,6.845165E-3,3.270794E-2,-6.307982E-3,2.8026853E-2,-2.5246898E-2,1.1799056E-3,3.8426932E-2,1.5160826E-2,-2.4391405E-2,1.8030291E-2,-1.421156E-2,3.8584438E-3],"categories":[],"categories_nodes":[],"categories_segments":[],"categories_sizes":[],"default_left":[0,0,0,0,0,0,0,0,0,0,0,0,0,0,0,0,0,0,0,0,0,0,0,0,0],"id":34,"left_children":[1,3,5,7,9,11,13,15,17,19,21,23,-1,-1,-1,-1,-1,-1,-1,-1,-1,-1,-1,-1,-1],"loss_changes":[5.7113605E0,3.2320437E0,3.7662632E0,2.7500265E0,2.5015535E0,2.5462217E0,1.6859531E-1,1.0384414E0,1.0148462E0,1.6634941E0,2.5695965E0,2.3392673E0,0E0,0E0,0E0,0E0,0E0,0E0,0E0,0E0,0E0,0E0,0E0,0E0,0E0],"parents":[2147483647,0,0,1,1,2,2,3,3,4,4,5,5,6,6,7,7,8,8,9,9,10,10,11,11],"right_children":[2,4,6,8,10,12,14,16,18,20,22,24,-1,-1,-1,-1,-1,-1,-1,-1,-1,-1,-1,-1,-1],"split_conditions":[8.125E1,6.7E1,6.716E1,1.036E3,2.5E1,5.7E1,3.1E1,8E0,6.4E1,7.8E2,2.46E2,2.6E1,3.0950462E-2,6.845165E-3,3.270794E-2,-6.307982E-3,2.8026853E-2,-2.5246898E-2,1.1799056E-3,3.8426932E-2,1.5160826E-2,-2.4391405E-2,1.8030291E-2,-1.421156E-2,3.8584438E-3],"split_indices":[20,45,51,24,14,42,9,31,38,22,34,31,0,0,0,0,0,0,0,0,0,0,0,0,0],"split_type":[0,0,0,0,0,0,0,0,0,0,0,0,0,0,0,0,0,0,0,0,0,0,0,0,0],"sum_hessian":[1.9465526E2,7.249783E1,1.2215743E2,2.3967358E1,4.8530476E1,1.1616985E2,5.987581E0,8.441083E0,1.5526274E1,3.6174747E1,1.2355727E1,1.13331825E2,2.8380249E0,1.4208298E0,4.5667505E0,2.8314097E0,5.6096735E0,1.0298837E1,5.227437E0,1.2477169E1,2.3697578E1,5.6761723E0,6.679555E0,9.158487E1,2.174696E1],"tree_param":{"num_deleted":"0","num_feature":"63","num_nodes":"25","size_leaf_vector":"1"}},{"base_weights":[5.116677E-2,2.7911028E-1,-4.90936E-2,-3.7526715E-1,3.3635285E-1,-2.0143059E-1,1.1689712E-1,1.026232E-2,-3.2458834E-2,4.0157053E-1,-1.17443055E-1,-2.8344065E-1,2.6382297E-1,2.1364568E-1,-2.5014862E-1,2.378038E-2,8.492912E-3,2.2461215E-2,-1.51050035E-2,5.2381847E-3,-2.097726E-2,-1.049541E-2,3.1570297E-2,1.364342E-2,-2.315989E-2,-2.9663984E-2,1.121718E-2],"categories":[],"categories_nodes":[],"categories_segments":[],"categories_sizes":[],"default_left":[0,0,0,0,0,0,0,0,0,0,0,0,0,0,0,0,0,0,0,0,0,0,0,0,0,0,0],"id":35,"left_children":[1,3,5,7,9,11,13,-1,-1,15,17,19,21,23,25,-1,-1,-1,-1,-1,-1,-1,-1,-1,-1,-1,-1],"loss_changes":[4.584812E0,2.4205747E0,3.5577247E0,9.91833E-1,1.729703E0,2.8695621E0,2.4510849E0,0E0,0E0,7.7584267E-1,9.6418816E-1,3.3595881E0,2.1341162E0,2.2898707E0,2.501223E0,0E0,0E0,0E0,0E0,0E0,0E0,0E0,0E0,0E0,0E0,0E0,0E0],"parents":[2147483647,0,0,1,1,2,2,3,3,4,4,5,5,6,6,9,9,10,10,11,11,12,12,13,13,14,14],"right_children":[2,4,6,8,10,12,14,-1,-1,16,18,20,22,24,26,-1,-1,-1,-1,-1,-1,-1,-1,-1,-1,-1,-1],"split_conditions":[6.3E1,7.083E1,2.2E1,2.12E2,5.1E1,6.5E1,8.2E1,1.026232E-2,-3.2458834E-2,4.68E0,2.06E2,1.8E1,2.23E2,2.77E2,2.86E2,2.378038E-2,8.492912E-3,2.2461215E-2,-1.51050035E-2,5.2381847E-3,-2.097726E-2,-1.049541E-2,3.1570297E-2,1.364342E-2,-2.315989E-2,-2.9663984E-2,1.121718E-2],"split_indices":[38,20,14,34,10,18,45,0,0,5,34,46,59,34,11,0,0,0,0,0,0,0,0,0,0,0,0],"split_type":[0,0,0,0,0,0,0,0,0,0,0,0,0,0,0,0,0,0,0,0,0,0,0,0,0,0,0],"sum_hessian":[1.9901619E2,6.0250923E1,1.3876526E2,4.3996706E0,5.585125E1,7.224726E1,6.6518E1,1.4908011E0,2.9088695E0,4.8933777E1,6.9174757E0,6.1752888E1,1.0494375E1,5.2972942E1,1.3545058E1,3.6286793E1,1.2646984E1,1.3480105E0,5.569465E0,1.6090113E1,4.5662773E1,4.7725673E0,5.7218084E0,4.925965E1,3.7132883E0,7.715335E0,5.8297234E0],"tree_param":{"num_deleted":"0","num_feature":"63","num_nodes":"27","size_leaf_vector":"1"}},{"base_weights":[-1.952868E-2,-1.7421843E-1,1.5607387E-1,-1.1519758E-1,-6.159946E-1,3.0097446E-1,-2.6628506E-1,-3.7586915E-1,7.0399987E-3,-2.9344768E-3,-3.409528E-2,3.600123E-1,-2.7648935E-1,-5.099186E-1,2.2770901E-1,-2.4079353E-2,1.7462386E-2,-2.0798413E-2,4.1892533E-3,-9.6476544E-4,2.1260072E-2,1.4763872E-2,-2.8100355E-2,8.885887E-3,-3.054122E-2,-2.2593064E-2,2.1010369E-2],"categories":[],"categories_nodes":[],"categories_segments":[],"categories_sizes":[],"default_left":[0,0,0,0,0,0,0,0,0,0,0,0,0,0,0,0,0,0,0,0,0,0,0,0,0,0,0],"id":36,"left_children":[1,3,5,7,9,11,13,15,17,-1,-1,19,21,23,25,-1,-1,-1,-1,-1,-1,-1,-1,-1,-1,-1,-1],"loss_changes":[5.2985954E0,2.6314952E0,5.674655E0,2.9551702E0,4.002185E-1,2.435958E0,2.9902995E0,2.4371715E0,2.1145413E0,0E0,0E0,1.556345E0,1.2959988E0,1.2397013E0,1.3121603E0,0E0,0E0,0E0,0E0,0E0,0E0,0E0,0E0,0E0,0E0,0E0,0E0],"parents":[2147483647,0,0,1,1,2,2,3,3,4,4,5,5,6,6,7,7,8,8,11,11,12,12,13,13,14,14],"right_children":[2,4,6,8,10,12,14,16,18,-1,-1,20,22,24,26,-1,-1,-1,-1,-1,-1,-1,-1,-1,-1,-1,-1],"split_conditions":[6.5E1,3.2538E4,2.4E1,1E1,1.266E0,5.04E2,4.71E2,3.237E0,6E0,-2.9344768E-3,-3.409528E-2,3.6E1,2.23E2,8.4E1,8E0,-2.4079353E-2,1.7462386E-2,-2.0798413E-2,4.1892533E-3,-9.6476544E-4,2.1260072E-2,1.4763872E-2,-2.8100355E-2,8.885887E-3,-3.054122E-2,-2.2593064E-2,2.1010369E-2],"split_indices":[38,23,1,40,39,28,60,7,30,0,0,42,59,53,40,0,0,0,0,0,0,0,0,0,0,0,0],"split_type":[0,0,0,0,0,0,0,0,0,0,0,0,0,0,0,0,0,0,0,0,0,0,0,0,0,0,0],"sum_hessian":[1.9305907E2,1.0264559E2,9.041348E1,9.166058E1,1.0985004E1,6.753227E1,2.2881205E1,2.8598783E1,6.3061802E1,1.3616997E0,9.623305E0,6.1610043E1,5.92223E0,1.5302106E1,7.579099E0,2.5252903E1,3.34588E0,9.00536E0,5.4056442E1,9.13887E0,5.2471176E1,1.9610081E0,3.961222E0,1.8607256E0,1.34413805E1,1.3755811E0,6.203518E0],"tree_param":{"num_deleted":"0","num_feature":"63","num_nodes":"27","size_leaf_vector":"1"}},{"base_weights":[3.5241907E-3,3.8390946E-2,-6.09033E-1,2.5007045E-1,-4.1514527E-2,8.582605E-4,-3.479636E-2,-8.359773E-3,4.1422632E-1,-2.2729823E-1,7.013308E-2,1.5515888E-2,-2.243651E-2,-1.2854295E-2,2.7516533E-2,-1.7255617E-2,6.9538527E-3,-1.1591938E-2,9.221776E-3],"categories":[],"categories_nodes":[],"categories_segments":[],"categories_sizes":[],"default_left":[0,0,0,0,0,0,0,0,0,0,0,0,0,0,0,0,0,0,0],"id":37,"left_children":[1,3,5,7,9,-1,-1,11,13,15,17,-1,-1,-1,-1,-1,-1,-1,-1],"loss_changes":[4.2947865E0,3.226852E0,6.012273E-1,2.2202313E0,2.8972154E0,0E0,0E0,3.1254075E0,3.063035E0,2.3088555E0,3.0639546E0,0E0,0E0,0E0,0E0,0E0,0E0,0E0,0E0],"parents":[2147483647,0,0,1,1,2,2,3,3,4,4,7,7,8,8,9,9,10,10],"right_children":[2,4,6,8,10,-1,-1,12,14,16,18,-1,-1,-1,-1,-1,-1,-1,-1],"split_conditions":[6.716E1,3.6224E1,1.85E2,6.4E1,8.095E1,8.582605E-4,-3.479636E-2,2.22E2,4.78E2,2.802E0,5.088E1,1.5515888E-2,-2.243651E-2,-1.2854295E-2,2.7516533E-2,-1.7255617E-2,6.9538527E-3,-1.1591938E-2,9.221776E-3],"split_indices":[51,49,27,6,20,0,0,34,29,39,51,0,0,0,0,0,0,0,0],"split_type":[0,0,0,0,0,0,0,0,0,0,0,0,0,0,0,0,0,0,0],"sum_hessian":[1.9899199E2,1.8916222E2,9.829786E0,5.1254116E1,1.379081E2,1.2955979E0,8.534188E0,2.0278612E1,3.0975504E1,5.137811E1,8.652998E1,1.1936207E1,8.342404E0,5.071631E0,2.5903873E1,3.8920578E1,1.2457531E1,2.3477434E1,6.3052547E1],"tree_param":{"num_deleted":"0","num_feature":"63","num_nodes":"19","size_leaf_vector":"1"}},{"base_weights":[-1.8893305E-3,-2.6513115E-1,9.54198E-2,1.4380737E-1,-4.0895513E-1,1.3835989E-1,-4.6544906E-1,-2.5294605E-1,4.3962726E-1,1.7915573E-2,-4.681302E-1,-2.3026884E-2,2.306644E-1,-6.02962E-1,1.1016271E-2,1.6429035E-2,-2.2996042E-2,-8.9862365E-3,2.9135976E-2,-1.4141071E-2,-3.203725E-2,-9.303953E-3,1.8077852E-2,1.7832356E-2,-2.40334E-3,-2.8520513E-3,-3.4310635E-2],"categories":[],"categories_nodes":[],"categories_segments":[],"categories_sizes":[],"default_left":[0,0,0,0,0,0,0,0,0,0,0,0,0,0,0,0,0,0,0,0,0,0,0,0,0,0,0],"id":38,"left_children":[1,3,5,7,9,11,13,15,17,-1,19,21,23,25,-1,-1,-1,-1,-1,-1,-1,-1,-1,-1,-1,-1,-1],"loss_changes":[5.0795684E0,3.2064073E0,3.5515733E0,1.8323305E0,1.9771543E0,2.0203533E0,1.1254985E0,9.8142374E-1,8.816128E-1,0E0,1.0161352E0,3.210524E0,3.042035E0,3.7151122E-1,0E0,0E0,0E0,0E0,0E0,0E0,0E0,0E0,0E0,0E0,0E0,0E0,0E0],"parents":[2147483647,0,0,1,1,2,2,3,3,4,4,5,5,6,6,7,7,8,8,10,10,11,11,12,12,13,13],"right_children":[2,4,6,8,10,12,14,16,18,-1,20,22,24,26,-1,-1,-1,-1,-1,-1,-1,-1,-1,-1,-1,-1,-1],"split_conditions":[1.8E1,7.98E2,2.9E1,3.9E1,4.419E1,9.6E1,3.2E1,4.85E2,1.7E1,1.7915573E-2,8.2E1,2.56E2,4.7E1,3.3E1,1.1016271E-2,1.6429035E-2,-2.2996042E-2,-8.9862365E-3,2.9135976E-2,-1.4141071E-2,-3.203725E-2,-9.303953E-3,1.8077852E-2,1.7832356E-2,-2.40334E-3,-2.8520513E-3,-3.4310635E-2],"split_indices":[46,22,1,42,19,21,46,29,15,0,12,34,10,42,0,0,0,0,0,0,0,0,0,0,0,0,0],"split_type":[0,0,0,0,0,0,0,0,0,0,0,0,0,0,0,0,0,0,0,0,0,0,0,0,0,0,0],"sum_hessian":[1.9631036E2,5.251676E1,1.4379361E2,1.3664432E1,3.8852333E1,1.3426741E2,9.526194E0,5.8984146E0,7.766017E0,2.419958E0,3.6432373E1,4.912572E1,8.514169E1,8.035629E0,1.490564E0,1.3940583E0,4.5043564E0,1.4094467E0,6.3565702E0,1.8842577E1,1.7589796E1,3.4861595E1,1.4264126E1,5.844556E1,2.6696133E1,1.2862353E0,6.7493944E0],"tree_param":{"num_deleted":"0","num_feature":"63","num_nodes":"27","size_leaf_vector":"1"}},{"base_weights":[1.5852684E-2,-1.8281204E-1,1.2710215E-1,1.1015896E-1,-3.9052013E-1,-3.631305E-2,2.4133699E-1,-1.3505628E-2,4.785939E-1,-4.8968658E-1,1.0527444E-1,1.3623674E-1,-3.6381215E-1,3.33244E-2,1.8158948E-1,-7.61368E-3,2.0416334E-2,-7.5263456E-3,3.295623E-2,-2.7904062E-2,2.1407183E-3,3.042902E-2,-2.0881534E-2,1.3448383E-2,-1.840238E-2,1.2160906E-2,-2.4543913E-2,1.0788432E-2,-2.6510954E-2],"categories":[],"categories_nodes":[],"categories_segments":[],"categories_sizes":[],"default_left":[0,0,0,0,0,0,0,0,0,0,0,0,0,0,0,0,0,0,0,0,0,0,0,0,0,0,0,0,0],"id":39,"left_children":[1,3,5,7,9,11,13,15,17,19,21,23,25,-1,27,-1,-1,-1,-1,-1,-1,-1,-1,-1,-1,-1,-1,-1,-1],"loss_changes":[4.1769133E0,4.173311E0,2.2687492E0,1.3249311E0,2.0150638E0,2.9134345E0,1.6922688E0,1.3873439E0,9.282582E-1,1.2423954E0,2.2226303E0,2.3693328E0,1.4892776E0,0E0,1.6705747E0,0E0,0E0,0E0,0E0,0E0,0E0,0E0,0E0,0E0,0E0,0E0,0E0,0E0,0E0],"parents":[2147483647,0,0,1,1,2,2,3,3,4,4,5,5,6,6,7,7,8,8,9,9,10,10,11,11,12,12,14,14],"right_children":[2,4,6,8,10,12,14,16,18,20,22,24,26,-1,28,-1,-1,-1,-1,-1,-1,-1,-1,-1,-1,-1,-1,-1,-1],"split_conditions":[1.04941E2,3.8095E1,8.1E1,4.15E2,9.9E1,5.8621E1,7E0,3.7662E1,-5E0,3.109E0,2.5E2,2.5E1,6E0,3.33244E-2,2.77E2,-7.61368E-3,2.0416334E-2,-7.5263456E-3,3.295623E-2,-2.7904062E-2,2.1407183E-3,3.042902E-2,-2.0881534E-2,1.3448383E-2,-1.840238E-2,1.2160906E-2,-2.4543913E-2,1.0788432E-2,-2.6510954E-2],"split_indices":[3,49,12,43,12,50,30,49,16,39,34,31,31,0,34,0,0,0,0,0,0,0,0,0,0,0,0,0,0],"split_type":[0,0,0,0,0,0,0,0,0,0,0,0,0,0,0,0,0,0,0,0,0,0,0,0,0,0,0,0,0],"sum_hessian":[1.8693777E2,6.687388E1,1.20063896E2,2.7937647E1,3.8936234E1,4.967909E1,7.03848E1,2.1638172E1,6.2994742E0,3.245672E1,6.479516E0,3.291902E1,1.676007E1,7.421295E0,6.296351E1,1.6762815E1,4.875357E0,1.4416726E0,4.857802E0,2.8719885E1,3.7368333E0,3.2181458E0,3.2613704E0,2.6429295E1,6.4897265E0,2.7428074E0,1.4017262E1,6.0743633E1,2.2198768E0],"tree_param":{"num_deleted":"0","num_feature":"63","num_nodes":"29","size_leaf_vector":"1"}},{"base_weights":[-1.7348806E-3,1.8690024E-1,-1.2417331E-1,-1.3647693E-1,3.126875E-1,-3.4355018E-1,-2.3763714E-2,1.5063676E-1,-5.1348484E-1,-3.684116E-1,3.6930338E-1,3.0488295E-2,-4.1351497E-1,-3.3153102E-1,7.944691E-2,-2.393103E-2,1.4274384E-2,-3.811854E-2,-6.606759E-3,-3.2518435E-2,8.369293E-3,2.066028E-2,-1.3837844E-2,-5.4683387E-3,-2.7333751E-2,-2.9209731E-2,-4.383083E-3,2.3037078E-2,-2.0035028E-3],"categories":[],"categories_nodes":[],"categories_segments":[],"categories_sizes":[],"default_left":[0,0,0,0,0,0,0,0,0,0,0,0,0,0,0,0,0,0,0,0,0,0,0,0,0,0,0,0,0],"id":40,"left_children":[1,3,5,7,9,11,13,15,17,19,21,-1,23,25,27,-1,-1,-1,-1,-1,-1,-1,-1,-1,-1,-1,-1,-1,-1],"loss_changes":[4.5814104E0,3.2186706E0,2.6412737E0,2.519548E0,2.3154092E0,2.7661386E0,2.6814535E0,1.2890794E0,8.4657E-1,8.397481E-1,1.6085153E0,0E0,1.386507E0,1.2541275E0,2.9077563E0,0E0,0E0,0E0,0E0,0E0,0E0,0E0,0E0,0E0,0E0,0E0,0E0,0E0,0E0],"parents":[2147483647,0,0,1,1,2,2,3,3,4,4,5,5,6,6,7,7,8,8,9,9,10,10,12,12,13,13,14,14],"right_children":[2,4,6,8,10,12,14,16,18,20,22,-1,24,26,28,-1,-1,-1,-1,-1,-1,-1,-1,-1,-1,-1,-1,-1,-1],"split_conditions":[2.1E1,1E1,3.6638E1,1.04941E2,6.7E2,1.7824E1,6.5E1,1.7647E1,1.8235E1,1.14941E2,5.04E2,3.0488295E-2,3.3E1,8.41E2,8.077E1,-2.393103E-2,1.4274384E-2,-3.811854E-2,-6.606759E-3,-3.2518435E-2,8.369293E-3,2.066028E-2,-1.3837844E-2,-5.4683387E-3,-2.7333751E-2,-2.9209731E-2,-4.383083E-3,2.3037078E-2,-2.0035028E-3],"split_indices":[1,40,49,3,54,25,45,57,25,3,28,0,9,22,20,0,0,0,0,0,0,0,0,0,0,0,0,0,0],"split_type":[0,0,0,0,0,0,0,0,0,0,0,0,0,0,0,0,0,0,0,0,0,0,0,0,0,0,0,0,0],"sum_hessian":[1.9635735E2,7.707895E1,1.1927839E2,2.1561947E1,5.5517002E1,3.669184E1,8.258655E1,1.2581123E1,8.9808235E0,3.837998E0,5.1679005E1,1.9812112E0,3.4710632E1,2.0184755E1,6.2401794E1,1.7704382E0,1.0810684E1,4.8296423E0,4.1511807E0,2.3745735E0,1.4634244E0,4.872817E1,2.950836E0,1.1123955E1,2.3586676E1,9.228226E0,1.0956529E1,1.421063E1,4.8191162E1],"tree_param":{"num_deleted":"0","num_feature":"63","num_nodes":"29","size_leaf_vector":"1"}},{"base_weights":[2.8571282E-2,-1.1594398E-1,1.7607336E-1,9.783552E-2,-2.822018E-1,2.117071E-1,-4.6777794E-1,3.5032803E-1,-1.4637898E-1,1.5690082E-1,-4.0173742E-1,2.4989429E-1,-4.5675543E-1,-2.9181821E-2,-4.3802112E-3,3.2228578E-2,-1.3975296E-3,1.8765185E-2,-1.4667022E-2,-7.008254E-3,2.391522E-2,1.1084034E-2,-2.3085274E-2,2.4843486E-2,8.482224E-3,-2.9022275E-3,-2.9378911E-2],"categories":[],"categories_nodes":[],"categories_segments":[],"categories_sizes":[],"default_left":[0,0,0,0,0,0,0,0,0,0,0,0,0,0,0,0,0,0,0,0,0,0,0,0,0,0,0],"id":41,"left_children":[1,3,5,7,9,11,13,15,17,19,21,23,25,-1,-1,-1,-1,-1,-1,-1,-1,-1,-1,-1,-1,-1,-1],"loss_changes":[3.9762323E0,3.3807101E0,2.215199E0,2.6419895E0,2.8620367E0,2.3627336E0,1.7565072E-1,2.3500803E0,1.8015728E0,1.2251606E0,1.6798711E0,1.5800505E0,2.3263669E-1,0E0,0E0,0E0,0E0,0E0,0E0,0E0,0E0,0E0,0E0,0E0,0E0,0E0,0E0],"parents":[2147483647,0,0,1,1,2,2,3,3,4,4,5,5,6,6,7,7,8,8,9,9,10,10,11,11,12,12],"right_children":[2,4,6,8,10,12,14,16,18,20,22,24,26,-1,-1,-1,-1,-1,-1,-1,-1,-1,-1,-1,-1,-1,-1],"split_conditions":[1.3E1,2.58E2,2.2938E1,3.9111E1,1.8E1,5.7E1,5.18E2,2.222E0,1.679E0,8.298E1,6.76E2,1E1,2.19E0,-2.9181821E-2,-4.3802112E-3,3.2228578E-2,-1.3975296E-3,1.8765185E-2,-1.4667022E-2,-7.008254E-3,2.391522E-2,1.1084034E-2,-2.3085274E-2,2.4843486E-2,8.482224E-3,-2.9022275E-3,-2.9378911E-2],"split_indices":[8,11,57,49,46,42,29,39,39,52,54,40,7,0,0,0,0,0,0,0,0,0,0,0,0,0,0],"split_type":[0,0,0,0,0,0,0,0,0,0,0,0,0,0,0,0,0,0,0,0,0,0,0,0,0,0,0],"sum_hessian":[1.845771E2,9.334057E1,9.1236534E1,4.101445E1,5.232612E1,8.708787E1,4.1486645E0,1.995182E1,2.1062628E1,1.112969E1,4.1196426E1,8.297399E1,4.1138797E0,2.7694786E0,1.3791859E0,1.0826489E1,9.125331E0,4.28786E0,1.6774769E1,6.0768733E0,5.052817E0,3.3784068E0,3.781802E1,1.9075628E1,6.389836E1,1.373013E0,2.740867E0],"tree_param":{"num_deleted":"0","num_feature":"63","num_nodes":"27","size_leaf_vector":"1"}},{"base_weights":[-1.7602047E-2,-3.9863774E-1,6.1380208E-2,2.9447317E-1,-5.2992207E-1,1.8640198E-1,-1.6451323E-1,3.45763E-2,-1.4253892E-2,-5.2288324E-2,-7.09486E-1,2.593801E-1,-2.2151001E-1,-2.0732777E-1,2.9758886E-2,-2.1114318E-2,2.1899737E-2,-5.2514053E-3,-3.7406478E-2,8.07017E-3,3.2646544E-2,-1.6889153E-2,2.8496806E-2,1.6485846E-3,-1.7420322E-2],"categories":[],"categories_nodes":[],"categories_segments":[],"categories_sizes":[],"default_left":[0,0,0,0,0,0,0,0,0,0,0,0,0,0,0,0,0,0,0,0,0,0,0,0,0],"id":42,"left_children":[1,3,5,7,9,11,13,-1,-1,15,17,19,21,23,-1,-1,-1,-1,-1,-1,-1,-1,-1,-1,-1],"loss_changes":[5.877131E0,3.2064757E0,4.6043744E0,1.5735192E0,2.4108143E0,3.174826E0,2.0173569E0,0E0,0E0,1.7954528E0,4.0410042E-1,3.3374777E0,1.7045848E0,1.9053566E0,0E0,0E0,0E0,0E0,0E0,0E0,0E0,0E0,0E0,0E0,0E0],"parents":[2147483647,0,0,1,1,2,2,3,3,4,4,5,5,6,6,9,9,10,10,11,11,12,12,13,13],"right_children":[2,4,6,8,10,12,14,-1,-1,16,18,20,22,24,-1,-1,-1,-1,-1,-1,-1,-1,-1,-1,-1],"split_conditions":[3.6E1,2.07E2,5.625E1,4.9E1,3.6818E1,3.208E0,5.7E1,3.45763E-2,-1.4253892E-2,1.5E1,2.14E2,5.3846E1,1.14E2,5.26E2,2.9758886E-2,-2.1114318E-2,2.1899737E-2,-5.2514053E-3,-3.7406478E-2,8.07017E-3,3.2646544E-2,-1.6889153E-2,2.8496806E-2,1.6485846E-3,-1.7420322E-2],"split_indices":[42,2,18,9,17,39,42,0,0,31,2,18,21,61,0,0,0,0,0,0,0,0,0,0,0],"split_type":[0,0,0,0,0,0,0,0,0,0,0,0,0,0,0,0,0,0,0,0,0,0,0,0,0],"sum_hessian":[1.9347253E2,3.2523167E1,1.6094936E2,4.981341E0,2.7541828E1,1.0371992E2,5.7229443E1,2.8414452E0,2.1398957E0,7.8779497E0,1.9663877E1,8.8288635E1,1.5431288E1,5.486449E1,2.3649547E0,4.568765E0,3.3091848E0,1.4049938E0,1.8258884E1,7.1819E1,1.6469631E1,1.3954421E1,1.476866E0,2.057883E1,3.428566E1],"tree_param":{"num_deleted":"0","num_feature":"63","num_nodes":"25","size_leaf_vector":"1"}},{"base_weights":[2.7963985E-2,-1.7260304E-1,1.5494357E-1,-2.5505224E-1,3.0021703E-1,3.5075146E-1,-5.2305902E-3,2.1202987E-1,-3.291177E-1,-2.9421493E-1,5.326942E-1,3.9754266E-1,-3.5803548E-1,-1.1754822E-1,4.146691E-1,2.7724817E-2,-8.633624E-3,-1.96383E-2,1.0192092E-2,6.3793557E-3,-2.913775E-2,3.8195677E-2,-1.0029375E-2,2.7232705E-2,1.0308246E-2,-3.3297475E-2,5.962534E-3,-9.802369E-3,2.5819099E-2,-2.7738655E-2,2.8590653E-2],"categories":[],"categories_nodes":[],"categories_segments":[],"categories_sizes":[],"default_left":[0,0,0,0,0,0,0,0,0,0,0,0,0,0,0,0,0,0,0,0,0,0,0,0,0,0,0,0,0,0,0],"id":43,"left_children":[1,3,5,7,9,11,13,15,17,19,21,23,25,27,29,-1,-1,-1,-1,-1,-1,-1,-1,-1,-1,-1,-1,-1,-1,-1,-1],"loss_changes":[4.9221673E0,2.9999712E0,3.7098868E0,2.2975445E0,1.7589637E0,1.9071021E0,3.1622481E0,1.3370616E0,1.9788179E0,5.4947305E-1,1.6266918E0,1.3063922E0,6.4102334E-1,2.7319121E0,2.473309E0,0E0,0E0,0E0,0E0,0E0,0E0,0E0,0E0,0E0,0E0,0E0,0E0,0E0,0E0,0E0,0E0],"parents":[2147483647,0,0,1,1,2,2,3,3,4,4,5,5,6,6,7,7,8,8,9,9,10,10,11,11,12,12,13,13,14,14],"right_children":[2,4,6,8,10,12,14,16,18,20,22,24,26,28,30,-1,-1,-1,-1,-1,-1,-1,-1,-1,-1,-1,-1,-1,-1,-1,-1],"split_conditions":[2.1E1,1.5E1,1.2E1,3.3E1,2.9922E4,1.59882E2,3.1991E4,1.048E3,1.9882E1,1.7E1,2.56E2,2.2E1,1.9E1,4.7573E1,3E0,2.7724817E-2,-8.633624E-3,-1.96383E-2,1.0192092E-2,6.3793557E-3,-2.913775E-2,3.8195677E-2,-1.0029375E-2,2.7232705E-2,1.0308246E-2,-3.3297475E-2,5.962534E-3,-9.802369E-3,2.5819099E-2,-2.7738655E-2,2.8590653E-2],"split_indices":[1,8,40,42,55,3,23,24,25,1,34,15,33,17,31,0,0,0,0,0,0,0,0,0,0,0,0,0,0,0,0],"split_type":[0,0,0,0,0,0,0,0,0,0,0,0,0,0,0,0,0,0,0,0,0,0,0,0,0,0,0,0,0,0,0],"sum_hessian":[1.9121922E2,7.399043E1,1.1722879E2,6.339614E1,1.0594292E1,5.2211754E1,6.501704E1,8.421916E0,5.4974224E1,2.9038177E0,7.690474E0,4.9390327E1,2.8214242E0,5.1864124E1,1.3152912E1,4.2220416E0,4.1998744E0,4.9344357E1,5.629867E0,1.406112E0,1.4977056E0,5.8150816E0,1.8753923E0,2.6881016E1,2.2509314E1,1.4747365E0,1.3466878E0,4.67641E1,5.1000257E0,1.4817077E0,1.1671205E1],"tree_param":{"num_deleted":"0","num_feature":"63","num_nodes":"31","size_leaf_vector":"1"}},{"base_weights":[-9.867031E-3,-7.3994145E-2,3.587905E-1,-1.6894236E-1,1.6550308E-1,-4.0083328E-1,4.560359E-1,-2.5200436E-1,1.7263682E-1,3.2448253E-1,-1.9846484E-1,-6.976709E-3,-2.4447626E-2,-1.5630111E-2,5.4269105E-1,9.361605E-3,-1.6410472E-2,-1.4473504E-2,1.9634178E-2,-3.6855545E-3,2.1907799E-2,8.038259E-3,-2.893548E-2,6.2645026E-3,3.126897E-2],"categories":[],"categories_nodes":[],"categories_segments":[],"categories_sizes":[],"default_left":[0,0,0,0,0,0,0,0,0,0,0,0,0,0,0,0,0,0,0,0,0,0,0,0,0],"id":44,"left_children":[1,3,5,7,9,11,13,15,17,19,21,-1,-1,-1,23,-1,-1,-1,-1,-1,-1,-1,-1,-1,-1],"loss_changes":[4.5753813E0,3.7739353E0,2.3014934E0,3.4044752E0,2.7997234E0,1.8977642E-2,1.8943696E0,3.2645574E0,2.5301952E0,1.5387111E0,2.1408076E0,0E0,0E0,0E0,7.374306E-1,0E0,0E0,0E0,0E0,0E0,0E0,0E0,0E0,0E0,0E0],"parents":[2147483647,0,0,1,1,2,2,3,3,4,4,5,5,6,6,7,7,8,8,9,9,10,10,14,14],"right_children":[2,4,6,8,10,12,14,16,18,20,22,-1,-1,-1,24,-1,-1,-1,-1,-1,-1,-1,-1,-1,-1],"split_conditions":[6.6667E1,2.36E2,1.6E2,1.2E1,5.6E1,1.48176E2,1.99E2,3.5217E1,3.92E0,1.7E1,8.448E1,-6.976709E-3,-2.4447626E-2,-1.5630111E-2,1.041E3,9.361605E-3,-1.6410472E-2,-1.4473504E-2,1.9634178E-2,-3.6855545E-3,2.1907799E-2,8.038259E-3,-2.893548E-2,6.2645026E-3,3.126897E-2],"split_indices":[50,59,11,30,18,3,2,17,5,47,52,0,0,0,56,0,0,0,0,0,0,0,0,0,0],"split_type":[0,0,0,0,0,0,0,0,0,0,0,0,0,0,0,0,0,0,0,0,0,0,0,0,0],"sum_hessian":[1.9141335E2,1.6373186E2,2.7681484E1,1.1745976E2,4.62721E1,2.7872508E0,2.4894234E1,9.469497E1,2.2764791E1,3.2280582E1,1.3991516E1,1.3544333E0,1.4328175E0,2.258017E0,2.2636217E1,1.3784707E1,8.091026E1,7.2416153E0,1.5523175E1,7.246818E0,2.5033762E1,7.4913716E0,6.5001445E0,4.158715E0,1.8477503E1],"tree_param":{"num_deleted":"0","num_feature":"63","num_nodes":"25","size_leaf_vector":"1"}},{"base_weights":[1.5167701E-2,-3.1420965E-2,4.212032E-1,2.1007094E-1,-1.072178E-1,-1.3369545E-1,5.42013E-1,-4.293648E-1,3.126423E-1,-2.0605436E-1,9.657597E-2,2.1834685E-2,-3.18654E-2,3.3569816E-2,7.2515056E-2,7.42262E-3,-3.2063607E-2,3.1583685E-2,1.0717011E-2,-1.507946E-2,8.797606E-3,1.9698348E-2,-6.3331164E-3,-1.7844645E-2,2.4765348E-2],"categories":[],"categories_nodes":[],"categories_segments":[],"categories_sizes":[],"default_left":[0,0,0,0,0,0,0,0,0,0,0,0,0,0,0,0,0,0,0,0,0,0,0,0,0],"id":45,"left_children":[1,3,5,7,9,11,13,15,17,19,21,-1,-1,-1,23,-1,-1,-1,-1,-1,-1,-1,-1,-1,-1],"loss_changes":[3.6449175E0,3.1919737E0,1.4018323E0,2.8694003E0,2.6877594E0,1.5271772E0,9.5255804E-1,8.5264325E-1,1.0098097E0,3.3198187E0,2.9669163E0,0E0,0E0,0E0,1.0267957E0,0E0,0E0,0E0,0E0,0E0,0E0,0E0,0E0,0E0,0E0],"parents":[2147483647,0,0,1,1,2,2,3,3,4,4,5,5,6,6,7,7,8,8,9,9,10,10,14,14],"right_children":[2,4,6,8,10,12,14,16,18,20,22,-1,-1,-1,24,-1,-1,-1,-1,-1,-1,-1,-1,-1,-1],"split_conditions":[5.8E1,1.8E1,1.9E2,7.381E1,2.0412E1,4.681E1,3.011E0,2.08E2,2.9127E4,3.109E0,4.127E0,2.1834685E-2,-3.18654E-2,3.3569816E-2,1.9E1,7.42262E-3,-3.2063607E-2,3.1583685E-2,1.0717011E-2,-1.507946E-2,8.797606E-3,1.9698348E-2,-6.3331164E-3,-1.7844645E-2,2.4765348E-2],"split_indices":[41,46,11,20,25,51,7,34,55,39,37,0,0,0,14,0,0,0,0,0,0,0,0,0,0],"split_type":[0,0,0,0,0,0,0,0,0,0,0,0,0,0,0,0,0,0,0,0,0,0,0,0,0],"sum_hessian":[1.9098337E2,1.7215308E2,1.8830294E1,4.0702312E1,1.3145076E2,3.3475947E0,1.5482698E1,5.186066E0,3.5516243E1,8.8512566E1,4.2938198E1,1.6320363E0,1.7155585E0,1.1800665E1,3.6820338E0,1.4719313E0,3.714135E0,7.087736E0,2.8428509E1,7.097353E1,1.7539038E1,1.8083351E1,2.4854847E1,1.9040523E0,1.7779815E0],"tree_param":{"num_deleted":"0","num_feature":"63","num_nodes":"25","size_leaf_vector":"1"}},{"base_weights":[-1.0946156E-2,1.0899391E-1,-2.2687532E-1,2.9522288E-1,-3.256859E-2,-9.51528E-2,-4.7127488E-1,-1.7883739E-1,4.0235063E-1,-1.9861628E-1,1.9884478E-1,3.3123076E-2,-3.351441E-1,-5.6800544E-1,8.133783E-2,-3.3117544E-2,1.290637E-2,2.3393486E-2,-1.6342407E-2,-1.460443E-2,1.1668659E-2,-1.7145876E-2,1.7196897E-2,-7.637904E-3,1.604974E-2,-3.0468509E-2,6.5436983E-3,6.96304E-3,-3.3372395E-2,-2.345225E-2,3.5982404E-2],"categories":[],"categories_nodes":[],"categories_segments":[],"categories_sizes":[],"default_left":[0,0,0,0,0,0,0,0,0,0,0,0,0,0,0,0,0,0,0,0,0,0,0,0,0,0,0,0,0,0,0],"id":46,"left_children":[1,3,5,7,9,11,13,15,17,19,21,23,25,27,29,-1,-1,-1,-1,-1,-1,-1,-1,-1,-1,-1,-1,-1,-1,-1,-1],"loss_changes":[4.969274E0,3.2632656E0,2.1604557E0,2.783834E0,2.7684038E0,1.4199853E0,1.3150759E0,2.396814E0,2.248592E0,1.757988E0,2.4894013E0,1.6936172E0,2.1284204E0,1.5225673E0,1.887138E0,0E0,0E0,0E0,0E0,0E0,0E0,0E0,0E0,0E0,0E0,0E0,0E0,0E0,0E0,0E0,0E0],"parents":[2147483647,0,0,1,1,2,2,3,3,4,4,5,5,6,6,7,7,8,8,9,9,10,10,11,11,12,12,13,13,14,14],"right_children":[2,4,6,8,10,12,14,16,18,20,22,24,26,28,30,-1,-1,-1,-1,-1,-1,-1,-1,-1,-1,-1,-1,-1,-1,-1,-1],"split_conditions":[2.5E1,8.125E1,1.04E2,3.6E1,1.15882E2,3.11E2,3.48E0,2.9858E4,5.251E0,2.5E1,4.4444E1,5.814E1,5.6522E1,1.6E1,4.1E1,-3.3117544E-2,1.290637E-2,2.3393486E-2,-1.6342407E-2,-1.460443E-2,1.1668659E-2,-1.7145876E-2,1.7196897E-2,-7.637904E-3,1.604974E-2,-3.0468509E-2,6.5436983E-3,6.96304E-3,-3.3372395E-2,-2.345225E-2,3.5982404E-2],"split_indices":[14,20,21,42,35,11,39,23,37,31,50,51,50,47,9,0,0,0,0,0,0,0,0,0,0,0,0,0,0,0,0],"split_type":[0,0,0,0,0,0,0,0,0,0,0,0,0,0,0,0,0,0,0,0,0,0,0,0,0,0,0,0,0,0,0],"sum_hessian":[1.8991974E2,1.2241712E2,6.750261E1,5.2399208E1,7.0017914E1,4.476515E1,2.2737463E1,9.535124E0,4.2864086E1,4.084898E1,2.9168934E1,2.9734158E1,1.5030992E1,1.9326632E1,3.4108307E0,4.281608E0,5.2535152E0,3.9659065E1,3.2050192E0,3.384876E1,7.0002193E0,5.873708E0,2.3295227E1,1.8352896E1,1.1381262E1,9.269052E0,5.76194E0,2.3330216E0,1.699361E1,1.9739606E0,1.43687E0],"tree_param":{"num_deleted":"0","num_feature":"63","num_nodes":"31","size_leaf_vector":"1"}},{"base_weights":[1.055466E-2,-1.19347356E-1,1.4731173E-1,1.4855145E-1,-2.3209131E-1,2.3951317E-1,-9.060395E-2,-3.172028E-2,5.44704E-1,3.9654145E-1,-2.7136594E-1,-3.377035E-1,2.854812E-1,-3.320934E-1,2.414667E-1,1.1290258E-2,-1.684397E-2,3.1316634E-2,9.6452533E-4,4.0105116E-2,-1.973386E-2,7.7160276E-3,-1.7133597E-2,2.2324977E-2,-3.3462267E-2,2.502788E-2,7.468176E-3,-2.2509344E-2,2.65825E-2,-3.1396672E-2,2.3440713E-2],"categories":[],"categories_nodes":[],"categories_segments":[],"categories_sizes":[],"default_left":[0,0,0,0,0,0,0,0,0,0,0,0,0,0,0,0,0,0,0,0,0,0,0,0,0,0,0,0,0,0,0],"id":47,"left_children":[1,3,5,7,9,11,13,15,17,19,21,23,25,27,29,-1,-1,-1,-1,-1,-1,-1,-1,-1,-1,-1,-1,-1,-1,-1,-1],"loss_changes":[3.5359232E0,3.1189833E0,2.1478941E0,2.220989E0,1.8917747E0,1.9571877E0,2.3092737E0,1.8169302E0,4.041767E-1,1.8105073E0,2.1354418E0,1.7628725E0,1.8427439E0,1.9238569E0,2.7221017E0,0E0,0E0,0E0,0E0,0E0,0E0,0E0,0E0,0E0,0E0,0E0,0E0,0E0,0E0,0E0,0E0],"parents":[2147483647,0,0,1,1,2,2,3,3,4,4,5,5,6,6,7,7,8,8,9,9,10,10,11,11,12,12,13,13,14,14],"right_children":[2,4,6,8,10,12,14,16,18,20,22,24,26,28,30,-1,-1,-1,-1,-1,-1,-1,-1,-1,-1,-1,-1,-1,-1,-1,-1],"split_conditions":[3.9474E1,2E1,4.83E2,2.2E1,1.6E2,6.9E1,3.1732E4,3.6638E1,5.1E1,3.7619E1,4.91E2,6.5E1,5E1,5.31E2,3.9474E1,1.1290258E-2,-1.684397E-2,3.1316634E-2,9.6452533E-4,4.0105116E-2,-1.973386E-2,7.7160276E-3,-1.7133597E-2,2.2324977E-2,-3.3462267E-2,2.502788E-2,7.468176E-3,-2.2509344E-2,2.65825E-2,-3.1396672E-2,2.3440713E-2],"split_indices":[17,33,60,1,43,12,23,17,10,17,29,38,50,28,49,0,0,0,0,0,0,0,0,0,0,0,0,0,0,0,0],"split_type":[0,0,0,0,0,0,0,0,0,0,0,0,0,0,0,0,0,0,0,0,0,0,0,0,0,0,0,0,0,0,0],"sum_hessian":[1.9704887E2,1.0112251E2,9.592637E1,2.985777E1,7.126474E1,6.912937E1,2.6796995E1,2.1152239E1,8.705532E0,3.6556408E0,6.76091E1,4.631062E0,6.4498314E1,1.5514456E1,1.1282538E1,1.1612461E1,9.539778E0,7.368655E0,1.3368764E0,2.4077349E0,1.2479061E0,9.533181E0,5.807592E1,1.2730807E0,3.3579814E0,2.396089E1,4.0537422E1,1.4069613E1,1.4448425E0,1.9735365E0,9.309002E0],"tree_param":{"num_deleted":"0","num_feature":"63","num_nodes":"31","size_leaf_vector":"1"}},{"base_weights":[-4.1656177E-2,5.7682857E-2,-2.5378883E-1,-2.5765625E-1,1.3466242E-1,-3.0977347E-1,3.4572127E-1,-3.8565108E-1,3.3331615E-1,2.5717723E-1,-3.7713233E-2,-4.887696E-1,-6.6689774E-2,2.8815115E-2,-1.0709738E-2,-2.8961554E-2,3.4164265E-3,-2.1960346E-2,3.5420444E-2,-5.603578E-3,1.9005626E-2,2.8313106E-2,-8.250114E-3,-2.8878853E-2,1.3002402E-3,2.76333E-2,-1.1253262E-2],"categories":[],"categories_nodes":[],"categories_segments":[],"categories_sizes":[],"default_left":[0,0,0,0,0,0,0,0,0,0,0,0,0,0,0,0,0,0,0,0,0,0,0,0,0,0,0],"id":48,"left_children":[1,3,5,7,9,11,13,15,17,19,21,23,25,-1,-1,-1,-1,-1,-1,-1,-1,-1,-1,-1,-1,-1,-1],"loss_changes":[4.1202035E0,3.2754521E0,2.1988206E0,2.135985E0,2.289759E0,2.4704332E0,8.716572E-1,1.997391E0,1.8356097E0,2.9131942E0,